nep4 2 C N 
cutoff 5 5 33 33
n_max 8 8
basis_size 12 12
l_max 4 2 0
ANN 50 0
  1.3088546e+00
 -8.1328231e-01
  9.7736590e-02
  6.0845280e-01
 -1.9644153e-01
  4.3476138e-01
 -7.1387249e-01
  4.9659270e-01
 -3.7679690e-01
  3.2162383e-01
 -5.1211768e-01
 -3.1868305e-02
 -9.0907705e-01
  4.0807965e-01
 -6.4253169e-01
 -3.4840995e-01
 -7.5694684e-06
 -8.6410761e-01
 -4.2947567e-01
 -8.1875014e-01
 -4.8993543e-01
  1.3644588e-01
 -1.1499814e-01
  9.5729017e-01
  1.2653203e-01
  1.7094176e-04
 -6.7260373e-01
  5.3333424e-02
 -3.5209394e-01
  3.9155313e-01
  3.1715623e-01
  9.1183174e-01
 -1.0133453e-01
 -4.1615647e-01
 -1.4204100e-01
 -3.4716138e-01
 -3.2330066e-01
 -4.5587564e-01
  7.8094918e-01
 -1.0275282e+00
  2.1058404e+00
 -2.4722360e-01
  4.0183574e-01
  3.3419320e-01
  3.1811225e-01
 -3.0606401e-01
 -4.3971296e-02
 -1.9835209e-04
  8.9386106e-01
  3.3455139e-01
 -3.7368968e-02
 -2.8431994e-01
  2.7390397e-01
 -1.5758435e-01
  8.9600871e-05
 -2.8888692e-04
  3.5518598e-05
 -7.0137699e-05
 -4.2075212e-06
  7.5680808e-05
 -1.5712691e-05
 -1.8141360e-05
  8.7950511e-06
  1.2422935e-05
  9.6014901e-07
 -4.7176259e-06
  6.2236788e-05
  7.3066869e-05
  2.5210318e-06
 -4.1740886e-06
  3.7229041e-05
 -3.2442844e-05
  2.4423952e-04
  5.5789726e-05
 -5.6527439e-04
 -7.6122727e-05
  1.3363530e-05
 -3.5159075e-05
  5.1776865e-06
  4.2386000e-05
  1.3152979e-05
  1.4314978e-04
 -3.2631058e-05
 -1.3423662e-05
 -7.2945063e-06
 -4.9493738e-05
 -8.3094274e-05
  3.9249735e-06
  2.5341054e-05
  7.3840398e-05
  4.5954486e-05
  9.5627483e-06
  1.5144481e-04
 -5.2981528e-07
 -3.9036920e-05
 -7.7281999e-05
 -9.2743903e-05
  2.6219772e-05
  8.2797145e-05
  2.5989932e-05
 -2.1101641e-04
 -3.5417415e-05
  5.8393416e-05
  1.0458687e-05
 -4.9634051e-04
 -1.7806326e-05
  2.6487865e-05
  4.4606702e-07
  2.3958276e-01
 -5.4079932e-01
 -3.4577370e-01
  1.8025848e+00
 -7.6793802e-01
  1.1267942e+00
  3.0840710e-01
  3.3000532e-01
  2.3353286e+00
  1.5605562e-02
  1.0659426e+00
 -6.6655087e-01
 -6.4406886e-05
 -5.6421393e-01
 -1.9530812e-01
 -1.6373823e+00
 -1.0569099e-03
 -1.1554060e+00
  3.3291306e-02
  7.0797160e-02
  8.6299491e-01
 -8.3883896e-02
 -7.0758587e-01
  3.1457144e-01
  2.8594750e-01
  1.2394821e-02
  5.9803897e-01
 -3.8536537e-01
 -7.1338936e-06
 -4.6380207e-02
  1.1881156e-01
  1.6078871e+00
 -9.1373695e-06
 -4.0285596e-01
 -1.0570242e-01
 -3.7803781e-01
 -1.2149695e-01
 -2.6576552e-01
  2.2792432e-01
  3.0252173e+00
 -1.7068030e+00
 -1.7547842e-05
  2.4742992e-01
 -1.5089314e-01
 -1.0890647e-01
  1.1631116e-01
 -6.1736664e-06
  9.8331016e-05
 -2.1627581e-01
  1.3222152e-03
  6.9487571e-05
 -2.9261387e-06
 -5.7370771e-02
  5.5969888e-01
  1.1435194e-05
  7.4953830e-05
 -1.7932818e-05
 -1.0709219e-04
 -3.3333927e-05
 -2.1983954e-01
 -2.2635006e-06
  6.2083745e-05
 -1.4743032e-05
  1.5645917e-05
  3.3531796e-05
 -8.8366811e-05
 -7.5167438e-05
 -8.5733016e-05
  6.7751753e-05
  9.3498795e-07
 -8.5694664e-05
 -3.2705746e-05
  1.3004614e-05
  2.3760540e-06
 -1.3814238e-05
 -8.9680871e-05
 -9.6046126e-05
  6.1752791e-05
  1.3256804e-05
 -9.9496892e-06
 -2.3444269e-04
  5.2897044e-06
 -6.9314243e-05
  1.4278179e-05
  3.5814504e-05
  6.1313349e-06
  3.0525167e-05
 -3.0276251e-06
  8.7261396e-05
 -5.3608623e-05
  5.8641926e-05
 -7.5249925e-05
 -6.7567031e-05
 -7.1590854e-05
 -2.8760967e-04
 -4.9191745e-05
 -3.7998954e-05
  3.1625488e-05
 -5.8047117e-06
  1.6193579e-05
  7.7074483e-02
 -3.6085701e-05
 -7.6962337e-05
 -1.8175375e-05
 -1.9222618e-05
 -2.0307945e-05
  7.9045283e-05
 -2.7684786e-05
 -3.6062469e-05
  4.2041043e-05
  3.5440567e-05
  1.4569486e-05
 -4.3659755e-05
  2.2921631e-05
  3.3559267e-05
 -4.2628668e-05
 -5.8721744e-05
  3.4456836e-05
 -4.7832320e-05
 -2.6973680e-06
  1.2762311e-05
  3.3890658e-05
  8.0528640e-05
  4.7238254e-06
  3.8076287e-05
  3.1641302e-05
  2.0489524e-06
 -1.2659349e-05
  3.9003945e-07
 -1.2735093e-05
 -3.7102542e-05
  1.4803707e-06
 -1.9442956e-05
  1.2038041e-05
  9.4766016e-05
 -2.8336955e-05
 -4.6254208e-05
  6.6438561e-06
  2.3311559e-05
 -2.6294021e-05
  3.7984007e-06
 -1.8513641e-05
 -6.8621499e-05
 -4.2299922e-05
 -1.5132880e-05
  8.7945795e-05
  1.8329685e-05
  1.1324336e-06
  3.4771361e-05
 -2.7664551e-05
  1.8131119e-04
  1.5660033e-04
  4.7381982e-05
 -3.6636335e-05
 -1.1616446e-04
 -1.5013453e-04
  4.3359152e-05
  2.7101055e-06
 -1.0319334e-04
  9.6061369e-05
 -3.9799170e-06
 -4.5538004e-04
 -2.5967100e-01
  3.9891800e-01
  4.7553170e-01
 -1.7413351e-01
  3.3834196e-05
  6.8866712e-01
  2.8762453e-05
 -1.4406259e-01
 -6.3499039e-01
  1.0114414e-05
 -1.9770200e-06
 -7.2624309e-05
 -4.7665166e-05
  6.8532927e-06
  2.7054195e-05
  7.5255207e-06
 -3.1904874e-05
 -1.2430233e-03
 -6.8772351e-05
  2.3146114e-05
 -2.1904721e-06
 -2.7929549e-05
  1.8741215e-05
  8.2009567e-05
 -3.6560839e-05
  2.6774185e-05
 -6.4720945e-05
  4.0163155e-04
  1.2037058e-05
  4.2397176e-05
 -3.3206765e-05
 -7.5499855e-05
  1.2238182e-05
 -5.5791636e-04
 -2.5470405e-05
 -1.4213621e-05
  2.0248668e-05
  3.2863369e-05
  5.4991663e-02
  4.3889654e-06
 -4.7372618e-01
 -1.4740952e-05
  3.0200395e-05
 -7.8021885e-06
 -5.2002747e-02
  2.2454851e-05
 -3.7371876e-05
  2.1530689e-06
 -6.5646527e-05
  8.7930173e-05
  7.0781083e-05
 -6.6460052e-05
  3.5009545e-04
 -6.3932833e-04
 -3.6158481e-01
  5.8708775e-01
  3.7726068e-01
 -1.3309274e+00
  2.6387659e-01
  1.3071216e+00
  1.5270439e+00
  8.7164807e-01
  3.0268115e-01
 -4.7810224e-01
  2.9072702e-01
  4.4134578e-01
  6.1943626e-01
  2.7285218e-01
  2.5576946e-01
  1.1356277e+00
  2.8809422e-05
  8.2911342e-01
 -7.2904438e-01
 -1.8612031e-02
 -4.3434333e-02
 -1.4368083e-01
  3.2090747e-01
 -2.8740716e-01
 -4.3872339e-01
 -1.5880400e-04
 -1.3357138e-03
 -3.5337681e-01
 -1.2924240e-05
  1.0564704e+00
  1.5399718e-01
  2.5106394e-01
  5.9698468e-01
  2.7921030e-01
  1.5090061e-06
  6.1469525e-01
 -1.2969814e-04
  1.1345183e-02
 -7.0957673e-01
 -9.1875058e-01
 -2.9796704e-06
  7.8019208e-01
 -6.2032694e-01
  6.3751079e-04
 -5.1496118e-01
 -2.5293743e-04
  6.9145201e-05
  1.3310896e-04
  4.1511795e-01
  1.1769799e+00
  1.0301740e-01
  4.7905552e-01
  1.9992156e-05
 -1.5152796e-03
 -3.1044245e-02
 -6.8677998e-01
 -1.9191763e+00
 -7.3826951e-01
  3.9541334e-01
 -7.0028281e-01
 -7.2199261e-01
 -2.8420952e-01
 -6.8840832e-01
  1.6084867e-05
 -3.2841499e-04
 -7.9079568e-01
 -8.3468922e-06
  4.0985197e-01
  1.3102688e-01
 -7.8208107e-01
  4.4000255e-05
  1.7360067e-05
 -2.7302520e-05
 -6.5293636e-05
  7.3686773e-05
  8.0612101e-02
  4.1329306e-01
 -2.8321907e-01
 -9.9316261e-05
  2.8076422e-01
  2.0185079e-01
 -1.5863828e-02
 -3.1019470e-03
 -1.2862554e+00
  1.0864333e+00
 -7.8620845e-01
  4.4889304e-01
  4.6260051e-02
  4.2229980e-01
  1.7027131e-01
 -1.0970726e-01
 -3.3696897e-02
 -5.2048992e-05
  1.3993384e-01
 -2.7947527e-01
  1.9670235e+00
 -4.8624936e-01
  8.9684236e-01
  1.7689848e-04
 -9.8396031e-06
 -3.5761592e-03
 -3.9859417e-01
  1.8786748e-05
  1.0779567e+00
 -2.7683780e-06
  3.4334591e-01
 -1.3496982e-03
 -6.6127686e-05
  9.9638686e-02
  1.2068038e+00
 -1.2593454e-01
 -6.4761184e-02
  7.0647925e-02
 -9.9734128e-01
 -9.6259683e-01
  2.1292906e-01
  3.6955357e-01
  2.0222609e-01
  7.1252137e-02
 -1.3190483e-05
 -3.0490219e-05
  6.4654618e-05
  5.3129680e-02
 -8.8265941e-02
  3.5795965e-05
 -9.4094444e-03
 -1.9593803e-05
  3.7240949e-05
  1.7031088e-02
 -3.6230784e-02
 -2.3248909e-01
  7.8196704e-01
  8.3784824e-03
 -5.3516662e-05
 -1.7605463e-01
  3.7526369e-01
  4.7460859e-04
 -4.1449431e-02
  1.1059091e+00
 -1.3759728e-02
 -1.5768018e-03
 -5.4212939e-04
 -2.0573026e-01
 -3.0136317e-01
 -4.5424765e-01
 -6.3082110e-04
  8.0071010e-02
  8.8152719e-01
 -3.8453448e-03
 -1.9226557e-01
  1.0598686e-01
 -2.3910612e-02
 -2.2783782e-01
 -2.6367139e-05
  1.2950868e-04
  7.5902611e-01
  3.1943597e-05
  4.6642898e-03
 -8.7746805e-05
 -9.2649019e-01
  9.8791486e-04
 -9.0364128e-06
 -4.2879012e-01
 -8.8903046e-01
 -6.2774494e-03
 -1.7321229e+00
  1.6967511e+00
 -5.3093696e-01
  1.5446758e+00
 -7.7051443e-01
 -1.5699528e+00
 -2.1306165e-04
  8.9703429e-01
  4.3477780e-01
  3.2355380e-01
  8.9743507e-01
  8.4616882e-01
 -6.3284588e-01
  6.0724255e-05
 -9.4069391e-01
 -7.7252002e-03
 -4.8898346e-05
  1.4166869e-01
 -6.3471133e-01
  1.0320256e-01
  1.9062960e+00
 -2.1809065e-01
  6.8567455e-02
  1.1976209e+00
 -7.3267066e-01
 -1.7182143e-01
  8.6869484e-01
  2.5730816e-01
 -1.0987802e+00
  1.8122894e+00
 -7.0967400e-03
  1.9393627e-01
 -1.6853558e-01
 -9.1806245e-01
  1.4282738e-01
 -3.5872087e-01
 -1.0166467e+00
  1.0996588e+00
  1.3363319e-02
 -1.5380827e+00
 -4.0716040e-01
 -1.6015256e-02
  1.7102632e-01
 -4.2763767e-03
  1.6890740e+00
  3.8331968e-01
 -1.5013984e-01
 -5.4231614e-01
 -2.0614424e-01
  4.4409619e-05
 -2.4111339e-05
 -2.4496307e-05
  1.5863249e-04
  8.2650426e-05
 -9.8287586e-05
 -3.0812487e-05
 -6.5945148e-01
 -5.5919416e-02
  3.7552298e-05
  3.0824891e-04
 -5.4196040e-05
  9.3362460e-06
  3.5850415e-05
  4.0691764e-05
 -1.0905284e-05
  4.1017032e-05
  7.9752244e-05
 -5.0667906e-05
 -1.2603663e-04
  5.1069881e-05
  9.4983488e-06
  2.0103835e-04
  2.5231367e-02
  1.0013573e-04
 -8.8922687e-05
  7.2154791e-05
 -8.7438413e-05
  1.0194206e-03
 -1.1839582e-04
 -6.3170293e-05
 -8.0159180e-06
  1.5066518e-04
  2.7535156e-05
  6.3982559e-05
  3.4430004e-03
  1.7009881e-04
  5.4343363e-05
 -4.0381485e-05
  4.1231819e-05
  4.0679616e-01
 -1.3459929e-04
  4.8480576e-04
 -4.7023818e-06
  2.4400343e-04
 -8.9960035e-05
  1.9337115e-01
 -1.4159100e-05
  4.4553934e-05
 -9.5948226e-06
  1.7931052e-04
 -5.7661193e-05
  9.3079638e-05
  1.1560064e-05
  4.0360683e-05
  4.5872363e-05
  1.8520643e-06
  7.6151009e-06
 -3.6654743e-05
 -5.8265661e-05
  1.4701397e-05
 -2.4790008e-06
  2.7914091e-05
  5.3327552e-05
 -3.7500617e-05
 -3.5557790e-05
 -1.4745791e-06
 -3.7353129e-05
  1.8428427e-06
  5.7298643e-05
 -3.1187632e-05
  1.2059873e-04
  1.0703769e-05
  2.8028162e-05
 -8.0076588e-06
 -5.4422453e-05
  1.9020499e-05
  7.8734820e-06
 -3.2488559e-05
  4.9651781e-06
  2.8700901e-05
 -1.8202067e-04
 -4.3679182e-05
 -6.7931680e-05
 -4.9738832e-05
 -1.1914421e-04
  4.9406749e-06
  4.1584961e-05
  7.2518807e-05
  1.5249126e-05
  9.6543208e-06
 -4.0187269e-06
  1.3829541e-04
  2.8442335e-05
  6.6309212e-06
  2.1081822e-05
  1.2999837e-05
 -5.2104388e-05
 -3.7739946e-06
 -4.6468780e-05
  3.6239133e-05
  6.2676001e-05
  2.6958180e-06
  6.5067019e-05
 -8.7316876e-06
  7.7766221e-05
  1.1839566e-05
  3.3400665e-05
  2.8718094e-05
  1.3218574e-06
  4.1956388e-05
 -3.4560076e-06
  1.1117856e-04
 -2.5177775e-05
 -6.1068895e-05
  4.6180245e-05
 -4.1106920e-05
 -2.4541747e-05
 -1.0487741e-04
  4.6702600e-05
  1.7677421e-04
  4.0266517e-05
  4.6754059e-05
 -9.5755808e-05
 -1.2513582e-05
  2.5579024e-05
 -4.7066125e-05
 -5.9124159e-06
 -1.7404656e-05
  3.0464905e-06
 -6.8886555e-05
 -5.3568507e-05
 -4.1187956e-05
  1.3925042e-05
 -3.2625423e-05
  1.1856084e-05
  3.2600725e-05
 -3.4038483e-05
  2.5162371e-05
 -3.6232639e-05
 -2.4390518e-05
 -4.4775246e-05
  2.4785428e-05
 -7.4025133e-06
  1.5820104e-05
 -4.2682659e-05
 -4.7945938e-05
 -8.5780091e-05
 -4.6689291e-07
  6.2442719e-05
 -1.0954815e-05
 -7.8282283e-06
 -1.6022172e-04
 -3.3161701e-05
 -6.7302703e-05
  7.9076144e-06
  1.9703224e-05
  6.6179318e-06
  6.9985988e-05
 -4.6741075e-06
  1.8793720e-05
 -6.9257818e-05
  1.3931191e-05
 -6.7328697e-06
  5.3940945e-05
  1.9060790e-05
  2.2166494e-05
  7.4040581e-05
 -4.4416796e-05
 -1.3099733e-04
 -6.7199130e-07
 -3.3709242e-05
  1.0594160e-04
 -3.1509426e-05
  5.7183566e-05
 -3.2606502e-05
 -7.2253999e-05
 -1.7801502e-05
  2.5942531e-05
  2.0493469e-05
 -7.3205243e-05
 -3.7886647e-08
 -7.9627471e-06
  3.2860069e-05
 -1.3082310e-04
 -5.6450062e-05
 -1.8570410e-06
  6.8577106e-06
 -1.7282375e-06
  1.2843146e-04
 -6.3277362e-06
  9.7389071e-05
  1.8522711e-05
 -1.2855036e-05
 -1.9445235e-05
 -4.0796367e-05
 -1.1898222e-05
 -3.2153443e-05
  4.3529808e-06
 -4.1457297e-05
 -3.5695641e-05
 -8.9935784e-05
 -2.4638402e-07
  1.2571677e-05
  8.4956991e-05
  1.1022794e-05
 -3.2804099e-05
  1.7799211e-05
 -9.8667435e-05
  7.2210983e-05
  1.4225685e-04
 -1.4363308e-04
  2.5170242e-05
 -2.2717630e-05
 -3.8154569e-05
 -9.6862032e-06
  8.1392263e-06
 -5.2022067e-05
 -3.4223515e-01
 -8.3575591e-02
 -4.2643264e-01
  5.9828144e-01
 -1.6728499e+00
  1.5279491e+00
 -9.4208640e-01
  1.5017409e+00
 -3.0113983e-01
  5.5212358e-06
  3.3493775e-01
 -3.4737514e-04
  2.3220006e-02
  4.3773782e-01
 -2.2646369e-01
 -2.1810214e-01
 -9.5305586e-05
 -7.9203343e-01
 -2.6392943e-01
 -2.1414512e-01
  1.5692614e-05
  1.4866713e-01
  4.0569741e-01
  8.9166403e-01
  9.9338484e-01
  1.2123100e-02
  1.0239657e-01
 -2.9795566e-01
  4.7008172e-03
  1.2956892e-01
  4.7747739e-02
  1.2918741e-01
  9.3902498e-05
  4.9944443e-04
  1.5149686e-01
  1.4650926e-03
 -8.3896540e-02
 -3.2032058e-01
 -2.4874865e-01
  6.8605912e-01
  2.8633633e-01
  1.8408079e-01
  5.5911142e-01
  3.0260327e-01
 -7.1855313e-01
  3.2786174e-05
  1.8791385e-05
 -3.2936266e-01
 -3.2868236e-01
  1.4039418e+00
 -1.2010681e-01
 -8.6680012e-07
 -1.9141906e-05
  1.4840092e-01
 -3.1718155e-05
 -1.0949251e-05
 -1.3138579e-04
 -5.1017068e-06
 -3.2864773e-05
  1.3840507e-01
 -9.5014868e-05
  3.5192381e-05
 -1.4374432e-06
  1.5945088e-05
 -9.9474073e-06
  2.8317918e-05
 -1.3496305e-05
  3.3924778e-05
  5.7983467e-05
  6.3835934e-05
 -4.4561828e-05
 -1.4620701e-04
  1.4964502e-05
 -1.4572787e-05
 -5.2022151e-05
 -5.6990455e-05
  4.9356562e-08
 -1.0509812e-05
 -8.9167261e-06
 -9.3437506e-05
  9.9105717e-05
 -1.6400256e-05
 -1.9645190e-04
  1.0911241e-04
  2.6858536e-06
  5.1792784e-05
  8.1927297e-05
  5.8948597e-05
 -3.7677295e-05
 -1.2023081e-05
  1.0392412e-05
  7.3125029e-06
  2.1133428e-05
  1.4993084e-05
  3.7315003e-05
 -4.9803057e-05
  5.5795274e-05
  1.5331610e-05
  1.0005471e-04
 -1.0928800e-04
  1.2800048e-04
  3.9918763e-05
  7.4816788e-05
 -1.7461547e-05
  7.6837547e-05
 -8.5383130e-07
  5.6383824e-06
  1.8158044e-06
  2.1497219e-06
  8.0319805e-05
 -1.5295944e-04
  3.8759837e-05
  2.0021496e-05
  9.3032351e-05
  1.5655864e-05
 -1.9066711e-05
  7.1575749e-05
  7.0660601e-05
  2.2744873e-04
  5.7226571e-05
  5.4262205e-07
  1.3132825e-05
 -4.5918114e-05
 -5.1919531e-05
 -1.3908050e-05
  2.2837576e-05
  4.3877277e-05
  1.2042818e-04
  5.0433223e-06
 -5.5933175e-05
  3.0245752e-05
 -7.9800147e-06
  7.2320414e-05
 -2.4203920e-05
  3.0572771e-06
  1.5088910e-04
 -1.4104232e-05
  1.2442612e-05
  5.5847169e-05
 -3.8915186e-05
  2.8920625e-05
 -4.2674168e-05
 -2.2524924e-05
 -8.5727443e-06
  7.7272045e-05
  2.1988668e-05
 -9.5180749e-06
 -7.7894445e-05
 -4.3828721e-05
 -5.0212657e-05
 -1.5500761e-06
  4.0210045e-05
 -5.4295862e-05
  4.3408487e-05
  5.0625818e-05
 -8.8533190e-05
  5.7250731e-05
 -3.8019400e-05
  5.1725030e-05
  6.5547130e-05
  1.0417063e-04
  6.0941667e-05
 -1.0976742e-05
  2.3679599e-05
 -6.3458629e-02
  2.1947530e-05
  1.0305030e-04
  4.2913232e-02
 -4.5312827e-05
  7.5497942e-06
  3.5963196e-05
  2.5649822e-05
  6.2107756e-05
 -3.7642578e-05
  1.5845144e-05
 -1.3291774e-05
  7.5951852e-05
 -6.8655703e-07
 -4.2437514e-05
  2.6248899e-05
 -8.6089349e-05
  8.3634426e-05
  1.2655542e-04
 -2.2950577e-05
 -8.8106695e-05
 -1.5673833e-05
  6.3137013e-06
  3.0473109e-07
  3.9276805e-05
 -5.0168263e-05
 -2.4202991e-05
  6.5995423e-06
  2.2228322e-05
 -1.4483204e-04
  1.6248107e-04
  5.1602550e-05
  3.5213230e-05
  2.6225533e-05
 -1.7045628e-05
  3.2338954e-05
  1.1393892e-04
 -5.4350977e-07
  9.3912095e-05
 -7.1652386e-05
  3.8716269e-05
  9.1504871e-06
  8.1152793e-05
  6.9408503e-05
 -2.1226368e-05
 -5.8145331e-05
  6.8250127e-05
 -2.4861849e-05
 -4.8026641e-06
  5.2982639e-05
 -5.0833292e-05
  1.2719594e-05
  6.8411607e-01
  7.6031238e-02
  3.4985027e-01
 -1.0885229e+00
  3.2895416e-01
  1.1844337e+00
 -4.2857940e-04
 -2.9566675e-02
  1.1957326e+00
 -1.5404262e-04
 -2.4216299e-01
 -1.0988571e-02
 -2.9777088e-05
 -9.7517744e-02
  3.9790931e-01
  4.8274927e-02
  5.0432664e-06
  1.0589034e-01
  2.5284418e-04
 -3.9907856e-05
 -7.9090583e-05
  3.0903275e-06
  3.1625398e-02
  1.7428506e-04
 -2.6651370e-04
  5.5826149e-05
 -7.2829321e-04
 -5.7890578e-05
 -8.3752386e-02
  1.1542223e-04
 -3.1198284e-01
 -1.3585759e+00
  9.6207304e-04
 -3.3773151e-05
 -1.8946967e-05
  1.4078284e-06
  6.8622977e-03
  2.5932110e-05
 -7.8024648e-02
  1.7409989e-01
 -2.4127121e+00
 -3.7760127e-01
 -6.4406973e-01
  1.1528246e-01
 -4.1409890e-05
 -6.0905763e-06
 -5.0469189e-05
  9.1939273e-06
 -1.8676162e-04
  8.3018676e-06
  5.2674193e-05
 -7.4841046e-05
 -2.9174658e-05
 -1.2572694e-05
 -7.4545364e-06
  1.9135683e-05
 -3.3249271e-05
  2.5709385e-05
 -1.2092504e-05
  5.8269134e-06
  2.7627893e-05
 -3.5418834e-05
  1.0394544e-04
 -5.0798652e-05
  7.3638374e-05
 -1.1962968e-04
  2.6017531e-05
 -8.7765457e-06
  2.7876722e-06
  2.1152600e-05
 -1.2181669e-06
 -1.9536723e-05
  4.9608614e-05
  2.2207696e-05
 -9.8423669e-05
 -9.0376750e-05
  9.9474055e-05
 -1.4474143e-05
 -8.1128564e-06
 -5.0437524e-05
 -3.7917707e-05
  4.7841637e-05
 -2.3088307e-05
  1.4296904e-06
 -8.7819702e-05
  8.4112344e-06
 -1.0214199e-04
 -2.1876146e-04
  8.3810883e-05
  7.0955088e-05
  1.2220979e-04
  3.2418160e-05
  3.6725378e-06
 -2.3134940e-05
  6.3019288e-05
 -3.7700440e-05
  1.4537476e-06
  2.9065917e-05
 -1.6288635e-05
 -9.3852075e-05
  1.3722060e-05
  1.1236180e-04
 -1.5923173e-05
 -1.1820073e-05
 -3.3782206e-05
 -5.1295221e-05
 -6.5844615e-05
 -1.7366756e-05
 -4.1389263e-01
 -4.3212302e-02
  8.0776447e-01
 -5.2860534e-01
  1.0642527e+00
 -4.1743594e-01
  6.6832550e-02
 -1.8394781e+00
 -2.4588765e-03
 -2.0561500e-01
 -1.1117033e-03
 -3.8298790e-04
 -1.1464776e-06
 -1.9593468e-01
 -6.3091710e-02
 -2.1367183e-01
 -2.3509011e-01
 -1.4305366e-04
 -6.9210328e-02
 -4.1196728e-01
 -6.5062032e-03
 -4.7666076e-01
  5.4083234e-01
  3.7074712e-01
 -2.5548148e-01
  2.6999971e-01
  5.3723402e-02
  4.5217139e-01
  5.0922906e-01
 -3.2383621e-01
 -8.7001123e-02
  2.8384727e-01
 -2.3724334e-01
 -2.0582522e-01
  1.7758107e-01
 -6.0833994e-02
  2.3962094e-03
  4.7420920e-04
 -3.7402395e-02
 -6.7323458e-01
 -4.5905626e-01
 -1.9387361e-01
  3.4483064e-02
  1.0948840e+00
 -1.3918083e+00
  7.7394837e-01
 -6.8506451e-05
 -9.8015940e-01
  2.8204069e-05
  2.0443340e-01
 -3.3063512e-02
  4.5676818e-01
  2.2499291e-05
  4.5935881e-06
 -7.1277587e-05
 -4.3746866e-05
  1.7276745e-05
 -7.9598671e-05
 -1.1519040e-04
 -7.7196630e-05
  1.0645407e-05
  2.7062692e-05
 -3.3278273e-05
  1.4827001e-05
  4.8118007e-05
 -8.0986081e-07
 -1.7352842e-05
  3.6671336e-06
 -4.4847013e-05
  4.2894902e-05
 -1.1215183e-04
  4.6914147e-06
  2.9946959e-05
  5.6502162e-05
 -6.0950821e-05
  6.9505724e-05
  1.0563458e-04
  5.2057112e-05
 -4.4638846e-06
 -4.1400530e-05
  4.6760855e-05
  1.6775999e-05
  9.2781193e-06
  1.3187848e-06
 -6.5738197e-05
 -1.1263086e-04
 -5.4604396e-05
 -5.5296523e-06
  2.1027912e-05
  5.2810996e-05
 -2.1675778e-05
 -2.4660752e-04
 -4.2603831e-05
  9.2327507e-05
 -1.0734685e-04
 -5.9185541e-06
 -8.8513829e-05
 -3.7185805e-06
 -2.4892333e-05
 -1.2074708e-04
  2.6683897e-06
 -7.0646756e-06
  9.3879054e-05
  3.1269767e-06
  2.2905557e-05
  3.9846560e-05
 -1.4554511e-05
  3.5481062e-05
  1.6505533e-05
  4.6657660e-05
  1.2728332e-04
  7.6507713e-05
 -4.5755569e-06
  4.8035105e-05
 -1.2826384e-04
 -9.5465854e-05
  5.0538467e-05
  6.1124076e-05
 -1.2334640e-04
  2.1816070e-06
  1.1290008e-05
  1.2494087e-06
  4.3047869e-05
 -6.3313164e-05
 -3.3396649e-05
 -3.1433814e-05
  1.5861800e-04
  8.2459905e-05
  2.2100148e-05
  1.0918824e-04
  9.1182250e-05
 -5.7542538e-06
  2.7100903e-05
  1.8616673e-05
  2.0727304e-05
 -1.3930412e-06
 -4.2952921e-05
 -3.3718203e-05
  5.1779105e-05
  3.5821049e-05
  6.2382707e-05
 -9.5689211e-07
 -3.2341039e-05
 -5.5790570e-05
  4.1786046e-05
 -2.3455332e-05
  4.7094359e-06
 -1.7557228e-05
  2.8156393e-05
  4.7260750e-05
  7.1586460e-06
 -3.4278783e-05
 -2.0810641e-05
  1.0037860e-04
  7.9426654e-06
 -3.3532906e-05
 -1.4253669e-05
 -3.7963514e-06
 -4.0211189e-06
  3.9119750e-05
  1.6324095e-05
  2.6578209e-05
  4.4359085e-03
 -8.1542814e-01
 -2.8443855e-01
 -4.7526360e-01
 -2.1684062e-01
  1.1605035e+00
 -3.0826524e-01
 -8.2589298e-02
 -4.6386787e-01
 -8.2099301e-05
 -2.4395227e-01
  1.1114081e-05
 -7.3383657e-05
  3.8063019e-03
 -1.1292969e-02
 -1.3913819e-05
  4.1786439e-05
  6.1494630e-02
 -2.0485936e-06
 -3.2469645e-04
 -5.7647098e-04
 -1.0548015e+00
 -1.4499770e-01
 -1.0960409e-01
 -2.8731514e-02
  1.3141458e-04
 -1.0225859e-01
  3.5564722e-06
  1.7854476e-05
  1.8283426e-03
 -1.2175910e+00
 -3.3918339e-01
  3.1012401e-04
 -2.0787539e-03
  9.5291780e-06
  4.8891467e-05
  1.0575571e-06
 -4.4482813e-06
 -2.7049252e-01
  8.9672767e-02
 -1.3814859e-01
  7.6122377e-03
  4.0659571e-01
  1.7512091e-04
  5.0548822e-01
  6.6288799e-06
 -2.3328020e-04
 -3.7570906e-05
 -1.1863658e-04
 -2.5299156e-01
 -7.2248993e-05
 -1.1255673e-04
 -6.3330786e-05
  4.4984878e-05
 -1.0582410e-04
  4.2014275e-05
  4.9307946e-05
 -1.4166096e-04
 -9.5901260e-06
  7.5369471e-08
  1.5648349e-05
 -1.1382180e-04
  2.1667880e-05
 -4.7941874e-05
  5.0756000e-05
  3.0369623e-05
  3.0880087e-06
  1.2455845e-05
 -1.3061518e-06
  4.2919924e-05
  3.9208644e-05
 -3.6760583e-05
 -5.4200587e-05
  1.0389158e-06
  1.5291055e-06
  2.5844824e-05
 -1.8244344e-05
 -1.4047381e-04
 -2.6092435e-05
  2.6593374e-05
  3.6322759e-05
  8.7495580e-05
  3.7764476e-06
  4.1825217e-05
 -1.1533717e-05
  2.6214002e-05
  3.3427048e-05
  3.8449543e-05
 -3.6790232e-05
 -5.0246363e-05
  2.6282099e-05
 -1.1759131e-04
  2.4260100e-05
  8.3025203e-05
  4.7992835e-05
  2.2264912e-05
  1.7126266e-06
  9.9929115e-05
  8.0089749e-06
 -1.3370613e-05
  1.9471505e-05
 -1.9866608e-05
 -3.7884034e-05
 -3.7590049e-05
 -1.3699191e-06
  4.9215851e-05
 -2.1297143e-05
 -7.7249970e-05
 -3.1068837e-05
  5.0034910e-01
 -1.4836638e-02
 -3.1333077e-01
 -1.0710962e-01
 -3.1856605e-01
 -3.9428547e-03
  2.5162447e-02
  4.8328784e-01
 -7.5816744e-05
  5.0748289e-01
  1.9625428e-01
 -4.0818222e-06
  2.0704114e-05
 -6.0691716e-05
 -1.9372752e-04
 -1.0892198e-03
 -1.7575651e-01
  3.5218076e-05
  6.4123044e-05
  2.7515879e-01
  2.7025759e-05
 -4.9401233e-01
  1.3726346e-05
  8.5111306e-04
 -1.1291352e-05
  5.3085599e-02
 -2.6558612e-02
 -6.4681348e-04
 -2.5003371e-01
  4.1947335e-01
  1.1120350e+00
 -2.9235545e-05
 -5.3188641e-04
  5.1057956e-05
 -9.9767958e-06
  8.5157873e-03
  4.5917623e-02
  5.4184508e-01
 -9.1862090e-02
 -5.4101312e-01
 -2.3795073e-01
 -1.3808187e-04
 -2.8208858e-06
  2.1272384e-05
  8.5289292e-05
  3.0513296e-05
 -1.2019089e-04
 -3.6059635e-06
 -3.3602084e-04
  1.1831562e-06
  6.3346728e-04
 -1.8006328e-03
  6.2564024e-05
  3.8830075e-01
 -4.9842461e-03
 -2.0509106e-01
  3.1759524e-01
 -6.4549810e-01
 -7.2719805e-02
  1.2831764e+00
  3.6700439e-01
  4.8626706e-02
 -6.8066106e-04
 -2.4457058e-01
 -1.2840379e+00
  1.6880718e-01
  8.0451137e-01
 -7.0193905e-01
 -1.9159163e+00
  9.3124157e-01
 -1.1961131e+00
 -5.0464977e-02
 -6.7210042e-01
 -3.6852804e-01
 -3.4759036e-01
 -1.3077188e-01
 -5.3145480e-01
 -1.2599741e-01
  2.4445757e-01
 -3.5200202e-01
 -3.8950267e-01
 -2.9706073e-01
  4.8621111e-02
 -1.1795000e-01
 -4.0055355e-01
  3.2442657e-03
  3.7968451e-01
  3.1807352e-07
  3.6508689e+00
 -1.8427928e-01
 -7.8205085e-01
 -4.7152442e-01
  3.7749764e-02
 -9.5553912e-02
  5.6412745e-01
  1.9863956e-01
  1.2492181e+00
  7.5252175e-01
 -4.0272785e-06
 -1.8391488e-04
  4.5741311e-01
  4.5802776e-06
  3.7474513e-01
  2.0074360e-01
  4.0168571e-04
 -1.1371608e-05
  1.2457470e-04
 -3.1607116e-05
  3.0478773e-06
 -1.9388558e-06
 -2.3792031e-04
  3.5786306e-05
  1.4895479e-05
 -4.5919976e-05
  2.1531756e-04
 -1.0196035e-04
  1.2334443e-04
  4.2152205e-05
 -1.1569645e-05
  1.4191253e-05
  4.2679483e-05
  2.4956336e-05
  2.5851748e-06
 -4.0996216e-05
  1.4313959e-04
 -1.3854656e-02
  3.3059958e-05
  1.0915722e-05
 -4.9070761e-05
  1.3530787e-06
 -2.8443201e-05
  1.2988393e-04
  2.8395791e-05
  1.8556386e-05
  4.2121756e-05
  1.6043556e-05
  2.1608650e-05
  9.2067012e-06
  9.2564602e-05
 -2.2273352e-05
 -1.1884132e-05
  1.2018751e-05
  1.8903276e-05
 -7.2119060e-06
  4.1575633e-05
  4.4626740e-05
  4.5288780e-05
  2.4447429e-05
 -1.6193513e-05
 -7.1679569e-06
  4.0165982e-05
 -4.9220645e-05
 -6.1604696e-05
 -1.9861331e-05
  5.9987568e-05
 -1.7335647e-04
 -1.2030931e-05
 -1.8166138e-05
 -4.8894616e-04
  6.7613866e-05
 -3.1508844e-05
 -1.2027918e+00
 -1.0449319e+00
 -7.5892037e-01
  2.1916650e-02
  1.1430909e-01
 -2.1105168e+00
 -2.7660125e-01
  2.3412482e-04
 -3.4716976e-01
 -5.4183820e-06
  9.7249588e-04
  1.1448636e-04
 -1.0787405e-04
  1.5474876e-05
  9.7108650e-01
  1.4862290e-04
 -7.9689067e-05
 -3.7463116e-05
 -1.1075311e-02
 -1.8716937e-01
 -2.9392548e-05
  2.0857852e-02
  1.6665003e-01
  2.2138936e-02
  1.0835965e-04
  2.3361333e-04
  2.2046240e-01
  3.8574430e-01
  1.3060993e-01
 -1.7369313e-02
  8.2116044e-01
  7.4425417e-01
  4.8453203e-01
  8.1613716e-06
  4.1251842e-02
  6.1059121e-02
 -6.0278279e-01
 -3.5687801e-01
 -2.0286964e-01
  1.2526643e-05
  3.5886243e-02
  6.7901659e-01
  4.9645567e-01
  5.0102244e-05
  2.6724640e-01
  1.5534598e-01
 -3.9825154e-05
 -3.3425062e-05
 -2.2455224e-05
  4.9061006e-01
 -2.3248987e-04
  6.2443134e-05
 -4.7563465e-04
  1.2629504e-02
 -2.2774079e+00
  2.3815688e-02
 -4.1917051e-06
 -2.8871686e+00
 -2.8775993e-01
  8.5919768e-02
  9.5222181e-01
  3.4918061e-01
 -8.9035171e-01
  8.2075812e-02
 -4.0250065e-06
 -2.1454168e-04
  1.0206730e-05
 -7.0150599e-02
  6.7537785e-01
  3.9585698e-01
  1.4336598e-04
  4.0458988e-05
  7.5041316e-05
  1.3975739e-04
 -4.4098805e-04
 -3.4468099e-01
  4.2355019e-01
  1.3249142e-04
 -5.1045430e-01
  7.0632955e-06
 -3.3797231e-02
  1.2581243e-01
  4.9538666e-04
 -1.6291694e-04
 -5.5672012e-02
 -3.6830178e-01
 -5.6685484e-04
  2.9822836e-02
 -5.7298519e-05
 -1.4064139e-01
  2.5554386e-05
  5.0764804e-05
  3.2398065e-03
  1.6238420e-04
  1.1721689e-03
 -1.7590448e-05
  2.0984139e-01
  7.0013205e-04
 -4.7674662e-01
  1.2419920e-04
  1.5958027e-05
 -5.0900508e-05
 -2.7926822e-04
  4.4657860e-04
  6.0864368e-06
 -3.4511927e-01
  2.6040155e-04
 -7.6158680e-02
  5.5440312e-05
  4.4244451e-05
  1.8784882e-05
 -5.6388340e-05
  1.8194996e-05
  4.4920529e-05
 -1.7894670e-05
 -1.6370770e-05
 -2.0106920e-05
 -7.7474342e-06
 -9.1625589e-05
 -2.5994577e-05
 -5.9256359e-05
  9.8063092e-06
 -5.5349160e-06
  5.5102591e-05
  9.7596843e-05
  5.7234967e-05
 -2.1390013e-05
  5.1750471e-06
 -2.2639000e-05
  3.0637690e-05
  8.5248421e-06
 -1.0313260e-04
  2.0127995e-05
  1.5114274e-04
  1.0395584e-04
  5.7447793e-05
 -2.9287216e-06
 -1.3048743e-05
 -3.3094639e-05
 -2.1593260e-05
 -8.7320528e-05
 -2.1178565e-05
  3.2960049e-06
  5.2224168e-06
  1.2473805e-05
  1.0888728e-05
 -8.7306187e-05
 -1.5194402e-05
 -2.3052165e-05
 -2.6656040e-05
  4.4748234e-05
  8.1372536e-06
  2.4450748e-05
  5.4269502e-05
 -7.0099813e-05
  3.6496087e-05
  1.7400789e-05
 -1.7332230e-06
 -1.8347744e-04
 -2.6434491e-05
 -3.9073828e-05
  3.9441082e-05
  1.2136178e-05
  2.2330189e-05
  4.7023684e-02
 -4.5139615e-05
  1.0479139e-01
  2.5281742e-02
  8.3099811e-05
  3.9146861e-04
  1.6194561e-05
  1.4270194e-02
 -1.0664505e-01
 -1.0920571e-01
 -1.2029795e-03
  5.2842929e-06
 -3.2395848e-05
 -1.7853704e-04
  3.9022363e-04
 -1.2109379e-05
  4.3382042e-06
  4.6114710e-06
 -2.5708696e-06
 -9.4648422e-06
 -3.1114017e-05
  1.3619845e-04
 -7.6565149e-05
 -4.8050565e-06
 -6.1847954e-03
  4.3577027e-05
  7.3559419e-04
  6.4513828e-05
  5.1228824e-05
 -1.8775666e-03
 -8.4899784e-06
 -1.3587225e-05
 -4.1293465e-02
  9.7569551e-05
 -8.2878934e-05
 -2.9386429e-05
 -5.1473325e-01
  1.9750806e-02
  6.5021718e-06
 -3.1026371e-05
 -1.1832837e-04
  1.4723126e-03
  1.7202670e-04
 -1.0538731e-05
 -3.9048671e-05
  8.0245823e-05
 -1.5763374e-04
  2.3030138e-05
 -3.1464715e-05
 -1.8978539e-04
  7.8020996e-05
 -7.6360739e-06
  4.3371201e-05
 -8.4509029e-06
  2.5789665e-05
  3.2329561e-07
  3.2909444e-05
  1.4607665e-02
 -1.5778643e-07
  1.4495649e-04
 -3.8326798e-05
  6.4770051e-05
 -5.4462686e-05
  1.3337379e-04
 -3.4294470e-05
  5.3090367e-05
  5.4877622e-05
  1.7751901e-05
 -4.7771999e-05
 -1.4158518e-05
  6.0636237e-05
  5.7985762e-05
  6.4745887e-05
  6.0267663e-05
 -3.7968312e-05
  3.1718144e-05
  2.3280193e-04
 -1.1940035e-04
  1.1054859e-05
 -5.1798921e-05
 -2.2744805e-05
  3.3484561e-05
  1.2799571e-04
  1.9231701e-04
  5.1616811e-05
 -2.5026529e-04
 -2.5695608e-06
 -1.9252552e-06
 -1.6387239e-05
 -7.5745724e-05
 -2.3948676e-05
  2.8414293e-05
  1.9251716e-05
 -2.2536862e-05
  6.9132591e-05
  3.1049644e-06
 -2.3822979e-05
 -1.0660740e-05
 -3.3163678e-06
 -6.7360910e-05
  7.1440081e-05
  1.8146564e-05
 -4.8993947e-04
  5.0307746e-05
 -5.9605671e-05
  3.4455821e-05
  6.7939609e-03
  7.0206763e-05
  5.6895646e-05
  1.8855309e-05
  7.9506113e-05
 -1.8240359e-03
  1.6841130e-05
  3.4349152e-05
 -1.4709689e-05
  4.0081253e-05
 -1.0062395e-04
 -7.3334973e-06
 -5.4576420e-05
 -2.2025903e-05
 -7.3876136e-06
 -2.0173462e-05
 -2.6747401e-05
 -1.8720262e-05
 -1.8745632e-05
 -3.4812412e-05
 -2.5666332e-02
 -6.7124696e-05
 -9.2034170e-05
  9.8460827e-05
  7.1660572e-05
  1.5990046e-05
 -1.6611919e-04
 -9.0684567e-05
  2.8161987e-04
  1.7473598e-05
 -5.1198298e-05
  1.0879049e-04
  8.7391581e-06
  2.4559255e-05
 -4.5218268e-05
 -3.7354905e-05
 -1.6500878e-06
 -1.2935070e-06
 -3.6288297e-01
  6.2530377e-04
  2.4499273e-05
 -1.5066516e-04
 -2.4180742e-06
  6.0412109e-05
  2.6898602e-05
  4.2056221e-05
 -2.3707144e-05
  2.5580981e-04
  1.0546313e-04
  4.2141592e-06
 -1.0760560e-05
 -1.0152925e-05
  6.1657265e-05
  2.2982893e-05
  5.1218706e-01
  5.3807783e-01
 -9.8277396e-01
 -1.0663745e+00
  8.1229979e-07
 -3.9988154e-01
 -4.9615759e-01
 -1.4715625e-01
 -7.7218525e-02
 -3.2166868e-02
  1.6999201e-01
  2.5745460e-01
  1.5878192e-01
  5.5618949e-02
  3.3995232e-01
  3.5911959e-02
 -4.6155701e-06
 -1.4788976e-01
  2.3037669e-06
 -5.4664514e-07
 -1.9420630e-01
  1.4956857e-02
 -1.8785243e-01
 -4.2500921e-02
 -1.4124262e-01
 -5.7706055e-03
  5.7182159e-02
 -6.0046190e-05
 -3.0341584e-02
  1.6123252e-01
  3.2658529e-04
 -2.0965321e-01
  6.8275370e-02
  2.8561980e-01
  3.7396941e-01
  1.5003324e-01
 -2.2419713e-01
 -3.4750560e-01
  4.4772791e-05
 -8.0903515e-02
  1.9184833e+00
  8.0199495e-02
 -8.2369888e-01
 -6.9534034e-01
  1.1340429e-02
 -8.0381302e-05
  3.9874554e-05
 -2.3286916e-04
  8.2169872e-06
  3.8470898e-05
  1.4469174e-01
 -1.8626075e-05
 -1.8508908e-05
  1.5821603e-05
  1.6304432e-06
  2.0669368e-01
 -1.0192201e-03
  2.2547727e-05
 -1.7177999e-05
  5.2527659e-05
 -2.3448397e-06
  3.3048433e-05
  5.1600815e-05
 -3.4319512e-06
  9.7463795e-05
 -8.2826744e-05
  7.3492680e-05
  1.0316646e-05
 -1.7891869e-05
 -8.5865853e-05
  5.8560640e-06
 -1.8373468e-05
  4.3695309e-05
 -1.3789270e-05
  1.7058524e-05
 -4.3795892e-05
 -6.4705899e-05
  6.8856272e-05
  3.9719239e-06
  1.8608131e-05
  6.1244859e-06
 -7.4037787e-05
 -4.8102840e-05
  1.0940753e-05
  2.3550809e-05
 -2.6333803e-06
  3.4999186e-05
  1.7441866e-05
  2.6684875e-05
 -4.3231207e-06
 -1.5732495e-04
 -4.1603766e-05
  1.7465967e-04
  1.6041075e-05
  2.1112957e-05
  6.9455623e-06
  5.9330814e-05
 -2.4973011e-05
 -9.2144917e-05
  1.4917652e-05
 -2.6017480e-05
 -5.4653767e-05
  1.6577342e-04
 -1.1410892e-06
  4.4858629e-05
  4.2082167e-05
  1.6756254e-04
 -6.1295657e-05
  3.3531575e-03
 -3.9795098e-01
 -9.8746169e-01
 -9.3058115e-01
 -1.6665370e+00
 -1.3342205e+00
 -3.4954581e-01
  1.0642469e+00
 -7.9499996e-01
  4.9266744e-01
 -7.8855322e-05
  3.8481336e-05
 -1.1199912e-05
 -6.1654299e-02
 -4.3546686e-01
 -9.8270506e-02
  5.1711388e-05
 -7.9996280e-02
 -1.1060275e+00
 -6.8882912e-01
 -4.4635630e-01
 -1.7113249e-05
 -1.2514052e-01
 -6.6286841e-05
  7.5192380e-05
  1.1748655e-04
 -3.0707747e-01
 -5.5358219e-01
 -1.0283704e-01
 -3.5309058e-01
  9.9453568e-01
  3.1874171e-01
  3.6431309e-05
 -2.3279175e-01
 -2.0080341e-01
 -8.4411584e-02
 -8.1970441e-01
 -7.6232773e-01
 -2.3044422e-01
  3.3158371e-01
  2.8215587e-02
  7.1426761e-01
  4.0417975e-01
  2.6614666e-01
  7.0429844e-01
 -3.2372835e-05
  3.1032459e-06
  1.2347932e-05
  1.8838582e-05
 -1.2421883e-05
  4.6215500e-03
 -1.3908448e-04
  6.9325042e-06
 -7.1260832e-02
  2.4300435e-01
 -7.9325986e-01
  1.8292530e+00
 -7.3011536e-03
  6.1697769e-01
 -4.1282430e-01
 -7.6677173e-02
  1.3560382e+00
  1.8945365e+00
  2.4131817e-01
 -3.6062238e-01
 -6.7447974e-05
 -1.1243165e-04
  3.5387526e-05
 -3.5718665e-02
  7.3295996e-02
  3.0012046e-05
  6.3931823e-01
 -5.0968261e-05
  3.8639769e-06
 -7.6608128e-05
 -1.5782472e-02
 -5.2924269e-01
  1.7820683e-04
 -3.9658571e-06
  1.8476694e-05
  1.3652778e-01
 -2.8433721e-03
 -3.9276296e-05
 -7.0107817e-05
  2.4035165e-01
 -1.6465106e+00
  3.4886053e-01
 -4.6053010e-05
 -1.2113284e-05
  2.6938852e-04
 -8.3920939e-05
 -5.3011827e-06
 -4.7675236e-05
  4.2806782e-02
 -1.0508101e+00
 -4.4768438e-01
 -2.1703613e-03
  1.3152163e-01
 -1.7844046e-05
  5.6470949e-06
 -2.0782574e-04
  9.5317162e-05
  8.0981881e-06
 -7.2106057e-01
  1.4410822e-05
 -9.1633701e-06
  5.0319217e-05
  4.1176941e-06
 -1.4412181e+00
 -4.7095772e-02
 -7.9694879e-01
 -7.7801269e-01
  1.9706504e-01
  9.8996198e-01
  6.9828278e-01
  2.3269672e-04
 -1.1730509e+00
  8.8360182e-05
 -5.0719311e-05
  5.1617295e-01
  7.1983501e-05
  5.3412360e-01
  1.6332220e-05
  9.3612194e-05
 -9.4299285e-06
  1.0501842e-01
  3.1927324e-05
 -3.2943781e-06
  2.2513507e-02
  2.2083557e-04
  2.7446765e-01
 -5.6104909e-05
 -8.0607286e-05
  1.5097838e-03
  1.1626719e-03
 -1.0927633e-01
 -1.2710820e-03
 -2.3274013e-01
 -8.1441477e-02
  3.6789820e-02
  1.7221626e-02
 -9.9039599e-02
  9.1271110e-02
  5.2070588e-01
  1.4514925e-01
 -8.6551583e-05
  2.3655998e-02
  5.1872932e-05
 -1.6537111e+00
  1.9772668e-01
  4.0030506e-01
 -2.3185858e-05
  1.1653493e-02
  1.5952690e-04
 -2.4316416e-05
 -1.2384618e-05
  9.9191731e-03
 -9.2533952e-01
 -8.3586547e-06
  6.0436958e-01
 -2.1449066e-04
 -1.0417632e-04
  1.3284147e+00
 -5.6329548e-01
 -1.2882193e+00
  9.7800010e-01
 -1.7777238e-02
  2.1552454e-01
 -6.8189275e-01
  1.3714515e+00
 -4.7104204e-01
  6.6297865e-01
 -6.7272806e-01
 -4.0305263e-01
 -7.9718792e-01
  5.0104934e-01
  1.4409128e-01
  3.1557200e-05
  4.5160878e-02
  6.2124139e-01
  3.2129407e-01
  3.5337445e-01
 -1.5720034e-03
  3.8249373e-01
  7.3818630e-01
  5.9553534e-01
 -1.1830727e+00
  2.1557118e-01
  4.7516599e-04
  4.4457644e-01
  7.0849046e-02
  2.1308270e-01
  6.8975055e-01
  3.0439539e+00
 -4.1004501e-02
 -5.1937044e-01
 -1.1936262e-02
 -8.9269078e-01
  9.6011156e-01
  1.8764262e-01
 -4.0319267e-01
  8.5023463e-01
  3.7445810e-01
  9.9716079e-01
 -3.0668566e-01
  4.4744986e-01
 -1.8122540e+00
  5.6463116e-01
 -7.5496477e-04
 -3.9999935e-01
 -6.6146381e-02
 -3.6937949e-01
  1.0438285e+00
 -6.3238961e-01
  1.7122377e-04
 -3.2550940e-01
  1.4008498e+00
 -1.4864269e+00
  5.6251179e-02
 -3.5309008e-01
  1.7689395e+00
  8.5956857e-02
  8.8348794e-01
 -9.2155033e-01
  1.5505079e+00
 -1.7517710e+00
  1.9275460e-05
  1.5608052e+00
 -2.1943583e+00
 -9.9438530e-01
  1.7126902e+00
 -8.0062765e-01
 -7.9241544e-01
 -2.1523841e-02
 -1.9894764e+00
  1.2079306e+00
  7.1923208e-01
 -1.4064705e-01
 -4.7558177e-01
 -1.4588125e-01
  4.2675275e-01
 -4.4896027e-01
 -1.3819705e+00
  4.7699636e-01
  5.5026099e-02
  4.5346171e-02
  3.1290632e-01
 -4.8476174e-02
 -1.8964646e+00
 -1.3342275e-01
 -4.8621405e-02
 -4.9470806e-01
 -9.6967025e-04
 -1.3014162e-01
 -2.2330463e-01
 -1.5812551e+00
  9.6755452e-02
  5.6638341e-02
  2.1336560e-01
 -3.6425480e-01
 -1.1297338e+00
  3.1080028e-01
 -9.4104398e-05
  8.1550717e-01
  1.1359077e-01
 -1.7885622e+00
 -4.3942598e-01
 -9.2747456e-01
  3.3274051e-03
  2.4479622e-02
  2.4754129e-01
  8.0461403e-05
  9.2373967e-02
  1.4603181e-02
 -2.7076800e-03
  2.2464576e-01
 -1.7865300e-01
 -9.1914915e-02
 -9.6985832e-04
 -3.8250404e-05
 -4.2018968e-01
 -1.5612720e-01
 -1.7779547e-01
 -3.1684767e-02
 -1.3178559e-04
 -1.1499787e-04
  5.0772665e-05
  3.9780386e-02
  1.4850290e-05
 -9.4702654e-03
  2.8141337e-06
 -2.9400680e-02
 -1.5801934e-03
  1.3250603e-03
 -3.8514464e-04
  3.7691102e-04
 -1.6091531e-03
  5.9429638e-02
  7.8059651e-04
 -9.1523041e-05
  4.1297760e-02
 -5.0085064e-02
 -7.8007906e-05
  1.8066146e-05
 -1.1781278e-02
 -1.6967489e-03
  2.7489115e-04
  3.9454168e-04
 -8.9661375e-02
  1.0457759e-01
 -3.2743341e-01
  1.8885547e-02
 -3.2216713e-01
  6.2373787e-02
  1.9360955e-04
 -3.1092281e-05
 -6.4911372e-05
  3.2198742e-02
  4.5317560e-05
  1.0277240e-04
 -8.5643383e-05
 -6.1283979e-05
  1.0489608e-04
 -9.4327936e-03
  3.9360821e-06
 -6.2266219e-05
  1.3032850e-04
  6.1615290e-05
  2.5869273e-05
  6.3116408e-06
  1.3703287e-05
  1.0302200e-05
  1.4358765e-04
  3.0559033e-05
  1.7822280e-05
 -5.2607925e-06
  1.3904967e-06
 -3.7974864e-05
  2.9912017e-05
  4.0308529e-04
 -3.0816547e-05
 -2.9391966e-05
  6.9628535e-05
  1.8916910e-05
  1.4668428e-05
  1.6289741e-05
 -9.6227755e-05
 -3.2769454e-05
  4.3201038e-05
  1.4709349e-05
 -8.0083191e-05
 -7.5383978e-05
 -6.2291649e-05
  5.8958070e-05
  4.8053687e-05
  4.1201838e-05
 -6.3674042e-06
  7.3110264e-06
  1.8427629e-05
 -1.1755044e-04
  4.5695475e-07
  4.9552928e-05
  1.5860709e-05
  8.0524820e-05
  5.3735298e-06
  9.9392728e-06
  6.1901621e-05
 -1.9790912e-05
  1.0266134e-05
  4.1820869e-07
  1.3637476e-05
 -4.8768397e-05
  1.5298347e-05
  2.5189280e-05
 -8.3825089e-06
  3.7821599e-05
  9.0354930e-05
 -1.8216129e-05
  5.4193428e-05
 -1.4674613e-05
 -1.5735081e-01
 -1.0594925e+00
 -9.7362245e-06
 -7.6619798e-01
  3.5519668e-01
 -4.4402190e-05
  2.3250255e-01
 -4.9160732e-05
  2.8849646e-04
  1.7440276e-05
  5.4263414e-06
 -7.2280832e-06
  4.6177585e-05
 -1.4100353e-05
 -2.1804839e-04
 -2.4658987e-01
 -7.9745278e-06
  1.1791365e-04
 -4.7615926e-05
  6.4240405e-05
 -1.5194559e-05
  4.9365808e-05
  8.6668122e-05
 -2.4919784e-05
  6.9685191e-02
 -5.6876411e-04
 -7.3508331e-06
 -2.6040378e-05
  7.7413693e-02
  2.2137459e-02
 -2.6084288e-06
  4.6919609e-05
  1.5702361e-04
 -7.7077939e-06
  4.0379422e-05
  1.0346836e-04
  4.5603439e-02
 -1.9654378e-03
  8.8540684e-05
  1.6694246e-05
  3.0112356e-05
 -1.7956020e-02
  8.9127076e-07
  1.4387035e-04
  4.3417953e-05
  6.3052772e-05
 -5.2964067e-05
 -3.4164317e-05
 -2.9517456e-05
 -8.3408931e-06
 -1.9788393e-05
 -2.1659194e-05
 -3.6177182e-01
 -1.5253161e+00
  3.8918209e-01
  2.3634197e-01
  9.5506829e-01
  1.4936309e-02
 -3.0823749e-01
  4.0431085e-01
  3.5295524e-02
  7.2863770e-01
 -4.2121255e-01
 -2.1922484e-02
 -6.2356521e-03
 -7.8626685e-02
 -6.9423375e-05
  2.2419704e-01
  9.9692523e-02
  1.0123921e-01
 -4.1894295e-05
  1.3133592e-04
  2.2457745e-04
  1.2578043e-04
  1.5175709e-01
  2.6820251e-01
  3.0084741e-01
  3.3202153e-01
 -5.7172668e-01
 -2.1574760e-02
  3.8238499e-02
  3.0684415e-01
  2.1321163e+00
  3.8209120e-05
 -1.1651930e+00
  4.1385893e-02
 -3.1254563e-01
 -9.4394654e-02
  1.0811344e+00
  1.1553687e+00
 -2.4350460e+00
 -1.3982681e-02
  1.1833495e-02
 -1.5352985e-01
 -8.5317832e-01
  8.8453526e-03
  1.3478653e-01
 -3.0443865e-05
 -8.1004975e-05
  2.5634494e-05
  1.0532162e-01
 -4.5148619e-05
 -4.5507606e-02
  1.2760759e-05
 -1.0687582e-04
 -3.4031444e-05
 -7.7744114e-01
  5.7816076e-01
  6.0323358e-01
 -2.5752438e-02
  1.4239756e-02
  9.9892741e-01
 -4.7172865e-01
  2.4937144e-02
 -7.6358140e-02
  1.0146612e+00
  5.5900365e-01
  1.7926516e-01
  9.5148839e-02
  1.0008094e-01
 -1.5575393e+00
  6.3272530e-01
 -5.5073106e-01
 -3.4892601e-01
 -1.1572600e-02
  4.1188264e-01
  8.2191879e-01
  1.7190830e-01
  2.2113010e-01
 -4.4521287e-01
 -2.4565464e-01
  9.4808286e-01
 -8.9289969e-01
 -6.6401556e-02
 -3.8222256e-01
  5.7222337e-01
  2.1531134e+00
 -2.8067067e-01
 -6.1870370e-02
 -3.8718510e-01
  5.6359744e-01
  1.0143247e+00
 -5.1740760e-01
  6.7453039e-01
 -1.2790641e+00
  2.9704922e-01
  2.5307548e-01
 -1.1379621e-01
 -6.4854902e-01
 -1.1616439e+00
  5.1755536e-01
  3.3153659e-01
 -5.4709041e-01
 -3.4819105e+00
 -3.1896716e-01
  1.0013841e+00
  1.5545522e+00
  6.9394696e-01
 -3.0827609e-01
 -1.3126595e+00
 -5.1086818e-07
 -4.7714493e-05
  1.3704948e-05
 -5.0657532e-06
  2.7612210e-05
 -1.0797964e-04
 -1.8353820e-04
  1.2328789e-04
 -1.7236989e-05
  1.1948869e-05
  4.9452447e-05
  1.1892764e-04
  2.7372496e-05
  2.3531185e-05
  1.5541296e-05
  1.0458376e-05
  2.5842703e-05
  6.2816573e-05
 -5.7335317e-05
 -3.8807061e-06
 -3.5071724e-05
 -4.0020632e-06
 -4.1095118e-05
 -3.4088889e-06
  6.3863910e-05
 -1.0152008e-05
 -7.1840521e-05
  1.3475490e-04
 -2.9875810e-05
  5.7925081e-05
  4.8125254e-05
 -3.3466149e-05
  4.2988295e-06
  2.9301305e-05
  2.1451109e-05
 -1.4253839e-05
  3.4270237e-05
  1.4691785e-05
 -8.5679618e-05
  7.6979035e-05
 -3.7994043e-05
 -5.0332196e-06
 -1.0092068e-04
 -9.7568234e-05
  6.0233087e-05
  6.3425876e-05
  6.1150786e-06
  1.0747002e-04
 -1.3640434e-05
  6.8252298e-06
  8.5317870e-06
 -1.3764200e-05
  6.3799976e-05
 -2.5765836e-05
  5.2482575e-01
  9.0734065e-01
 -8.0123329e-01
  1.9630755e-01
  1.9566026e-01
 -4.0242065e-02
 -1.2707856e+00
  2.9027894e+00
 -5.2328777e-01
 -1.0771452e+00
 -1.6827404e-03
 -2.0286961e+00
  3.5249941e-02
  1.9300463e+00
 -8.2004890e-02
 -3.6053377e-01
  3.3481945e-05
  2.6203231e-03
 -4.2280320e-02
 -1.8323125e-01
  4.8911852e-01
  7.8179204e-01
  2.2684129e-01
  1.9091059e-01
 -5.5618726e-02
  8.6784624e-02
  3.2115221e-01
  4.3033242e-01
  6.3482291e-01
 -1.3938507e-01
 -2.9937947e-01
 -4.9401626e-01
 -7.9388201e-01
 -1.7756715e-01
  7.1185619e-01
 -7.4352986e-01
  4.6611044e-01
  9.0562552e-01
 -1.0345131e+00
  3.4513645e-02
 -2.5674585e-01
 -6.4712532e-02
 -3.2593200e-01
  5.7684004e-01
 -1.9097408e-02
  1.0267004e-01
 -6.3877807e-05
 -1.0967489e+00
 -2.4799439e-01
  1.6885637e-01
 -8.8986421e-01
 -4.0898864e-05
 -6.5262441e-04
 -5.3341651e-01
 -7.2136245e-05
 -4.7945035e-05
 -1.2315575e-05
 -2.6357973e-06
  2.3745977e-05
  3.9676990e-05
 -8.4049760e-05
 -7.0739638e-06
  1.4520905e-04
  2.0338196e-06
  5.2835749e-06
 -2.4272171e-05
 -3.8889175e-06
 -7.7421792e-06
 -7.7659079e-06
 -3.4461285e-05
  3.3157412e-05
  1.9704257e-04
 -4.5741021e-05
 -1.8467685e-05
 -8.0895348e-05
  4.5031582e-05
  3.2452437e-05
 -3.4222838e-05
 -5.0536179e-05
 -9.5183095e-06
  8.1063874e-05
 -3.1304837e-05
 -4.8248472e-07
 -8.0872371e-05
 -2.2220956e-05
  7.1158270e-06
 -3.7795282e-05
  1.8371742e-05
  2.8911594e-05
 -2.8531396e-05
 -2.4111281e-05
  2.1518481e-05
  1.0296662e-02
 -3.6135443e-05
 -2.9273850e-05
  1.8667712e-05
  8.2660496e-05
  1.9418012e-05
  2.2632927e-05
  2.9197567e-05
  4.2236519e-05
  9.2109931e-06
  1.2277102e-04
  1.5241721e-04
  7.6152213e-07
  1.0974181e-04
  3.0538005e-05
  4.9522983e-05
 -1.0391371e+00
  4.0257466e-01
  1.0661348e+00
  1.5680392e-01
 -8.8760465e-01
  1.2998582e+00
 -1.5810612e-01
  1.3248351e-05
  5.9184372e-01
  7.0887931e-02
 -8.9859903e-05
 -2.7319326e-04
  2.9640100e-06
 -3.9919389e-05
  6.0165567e-05
  1.0165166e-04
  3.0690955e-04
  3.0573443e-02
  3.5379362e-05
 -1.2702304e-04
 -1.9954225e-05
 -1.6522643e-05
 -1.7727508e-01
  1.0628740e-01
  1.3189575e-04
  7.7583107e-05
 -4.2223397e-01
  6.6606827e-02
 -1.8713565e-05
 -2.3783809e-05
  5.6957591e-01
 -3.7807357e-01
 -9.6163185e-06
 -1.6228645e-04
  9.0982458e-06
  5.3302688e-06
  1.0287784e-04
 -2.7818878e-05
 -1.0217302e-01
  1.6698152e-01
 -5.6118041e-01
  1.1363183e-04
 -1.0820954e+00
  7.6456892e-04
  1.2200020e-01
 -4.3177828e-05
  2.1464468e-05
  1.3215604e-05
 -3.3994860e-05
  1.0251040e-04
 -1.1073025e-04
  1.5703556e-05
 -7.0926930e-05
  1.1034722e-05
 -1.5454599e-01
  4.8283790e-05
 -4.8653793e-01
 -4.7283702e-02
  4.6556823e-05
 -3.8459148e-02
  7.2013599e-01
  7.9704553e-01
  1.1946034e+00
 -2.7379397e-01
 -7.3089463e-01
  4.1510639e-06
 -1.6278451e-05
  1.8968069e-04
  3.9343140e-01
  3.2578785e-06
  6.7639771e-06
 -1.7620613e-04
  6.0946012e-01
  6.7810456e-06
 -9.6507406e-01
  3.4470493e-05
 -3.9549603e-05
  6.7568284e-01
  6.5771004e-05
 -1.7516777e-01
 -1.6957837e+00
  4.9760538e-06
 -2.9393068e-01
 -4.0671566e-01
  5.6006378e-05
  5.5911034e-01
  3.8838133e-01
 -2.0324247e-01
  6.5448302e-01
  1.0483993e-05
 -7.4578255e-01
 -5.8532104e-02
 -9.0544879e-01
  1.2344287e-01
 -6.9368333e-01
 -9.0459089e-06
  7.2426392e-06
 -1.6728390e-02
  6.7021054e-01
  1.2218195e+00
  4.2387328e-05
  1.4476273e+00
 -6.0033298e-01
 -2.5841177e-02
 -1.1823167e+00
 -2.7959350e-02
  5.1972705e-01
 -1.0878890e-01
 -8.0236599e-02
 -2.8021717e-01
  1.0799948e+00
  7.4066156e-01
 -8.2689762e-01
 -1.1092713e+00
  2.7814430e-01
 -4.2271687e-08
  9.2812501e-05
  5.2188119e-05
  5.0687951e-01
  1.5943447e-01
  3.8109291e-02
  1.0086050e-01
 -3.0746093e-01
  4.1904688e-02
  1.5100578e+00
 -9.2918389e-02
 -1.1750437e-05
 -4.1774327e-01
 -1.0433368e-05
  4.8296419e-01
 -9.4302219e-01
  5.6701938e-05
  5.8387524e-01
 -6.3455391e-01
  6.8886562e-05
 -6.5771949e-01
  1.0936464e-01
 -1.8690483e-01
  5.9404606e-01
  1.0301761e-01
 -4.2952716e-01
 -3.2717559e-01
  4.0874842e-01
 -1.1859525e+00
 -2.0947752e+00
 -7.4655068e-01
 -8.2157152e-07
  2.7296212e-01
 -5.8159137e-01
  1.7416022e+00
 -5.3283675e-05
  1.2492115e+00
 -5.1829345e-05
 -3.3143088e-01
 -8.4105092e-01
  8.0948286e-02
 -7.6049659e-04
 -2.5439248e+00
  1.3346977e+00
  5.6285334e-01
  1.2434943e+00
 -1.1925795e+00
 -4.5921299e-01
 -7.6659948e-01
  4.3064192e-01
  2.5132624e-04
  7.8064901e-01
 -2.4613284e-04
  1.9832049e-03
  2.1193500e-01
  5.7045963e-02
  2.7013776e-01
 -2.0316999e+00
 -3.7121770e-01
 -7.5251008e-03
  8.6262487e-05
 -2.8316877e-03
  1.7038263e-01
 -3.1306830e-01
  6.4055571e-06
  1.3115584e-04
 -2.9140314e-01
  7.0641242e-02
  1.6828665e-01
 -1.1023153e+00
  2.3693103e-02
  4.2648050e-01
  4.7826645e-01
  6.9562092e-02
 -1.8738875e-01
  4.3772468e-01
 -2.8048484e-02
 -2.4150959e-01
  1.3072891e-02
 -1.0526071e-01
 -3.5334475e-02
 -9.8315424e-01
 -5.2895300e-02
 -5.2057076e-01
  5.6632346e-04
  3.8311797e-01
 -3.4249191e-05
  7.0142370e-01
  3.8536827e-04
  1.2347796e-05
  1.1211882e+00
  4.1621272e-05
 -1.8830657e-05
 -5.0631334e-06
  4.5278761e-05
 -5.3014894e-05
 -1.6168377e-05
  3.7727552e-06
  3.4048295e-05
 -1.2548024e-05
 -2.0028254e-05
  1.8859600e-05
 -9.5080095e-06
 -6.3280728e-05
 -2.2963290e-05
 -6.0634939e-05
 -5.1122101e-05
  5.2848620e-05
 -4.8563445e-05
  1.2777446e-05
  1.3249849e-04
 -1.2873858e-05
 -8.4437706e-05
  3.5773373e-05
 -2.5417292e-04
  4.4651773e-05
 -1.1359405e-05
 -2.2509441e-05
  4.9678198e-05
 -1.0225329e-04
 -6.1773804e-05
 -2.6406889e-05
  3.6314490e-05
  4.9072871e-05
 -7.6237426e-05
  6.2420872e-06
 -2.5098519e-05
  3.4731282e-05
  1.8323279e-05
  6.9202106e-06
 -3.2738397e-05
 -1.3496338e-04
 -1.7833092e-05
 -3.6165839e-05
  2.9907658e-06
 -9.4674484e-05
 -7.3818381e-05
  1.4993925e-05
  5.8751841e-05
  1.1721246e-05
  2.2428069e-04
  2.4408612e-06
 -1.6025615e-05
 -3.3882231e-06
 -3.4352164e-05
 -1.7258197e-04
 -2.5516152e-05
  5.7557178e-01
  1.0016772e+00
  2.4266502e-01
 -7.9403573e-01
  1.0564525e-01
  6.3703823e-01
  2.7687163e+00
  1.2345110e-01
 -7.6914500e-03
  1.2960356e-01
  2.6000670e-01
  7.7497590e-01
  6.2393694e-05
  1.6305706e-01
  5.6152493e-01
 -9.5405179e-04
 -5.1070801e-05
  9.8739741e-03
  2.9775148e-02
  4.1450545e-05
 -3.3923677e-01
  3.6902353e-04
  2.4094258e-04
  8.4487947e-05
  5.5007834e-02
  6.0279027e-04
  1.7251477e-01
  7.4757010e-01
  6.7927748e-01
  6.7756757e-02
 -1.9847523e-01
  7.2700548e-01
  1.9371801e-03
 -1.4975516e+00
  2.8014010e-01
  2.6219812e-01
 -5.0003862e-05
 -8.3103758e-01
  1.2535764e-01
  1.2064061e-05
  1.0218146e+00
  6.5169954e-03
 -2.3207898e-01
  6.5200788e-01
 -9.5652983e-02
  1.2796601e-02
 -6.1979552e-04
  4.9709557e-05
  1.1841036e-01
 -3.9905231e-03
  5.7357090e-04
 -4.6480086e-01
 -5.1328792e-05
 -1.4404447e-05
  1.5517664e-05
 -3.6121615e-05
  5.2115603e-05
  2.3339685e-02
 -4.6360830e-05
 -2.7336515e-05
  1.5023296e-05
  4.2932603e-05
 -1.2231963e-05
 -6.4649379e-05
  5.9922029e-05
  1.2060700e-05
  6.6596811e-05
 -5.5735865e-05
  9.1788343e-06
  4.6233425e-05
  1.6994867e-05
 -2.2164893e-05
 -6.2052030e-05
 -3.3577337e-05
  2.7715081e-05
  2.2692728e-05
 -1.6385471e-05
 -1.7631377e-05
 -4.2196184e-06
  4.9523729e-05
  9.6365784e-06
 -3.5883390e-05
 -5.2490082e-05
  3.5603829e-05
 -7.3989750e-06
  6.5051649e-06
 -8.3823499e-05
  5.7298657e-06
 -3.5053185e-05
 -1.4280956e-05
  5.6994431e-05
  2.5992365e-05
 -5.6268590e-07
  5.9492140e-05
  2.3274160e-05
  3.5030655e-05
 -6.8635891e-05
 -5.2765085e-05
  9.8445025e-06
  7.6052529e-05
  1.7935223e-05
 -6.2862950e-05
  1.0162722e-05
 -1.4470467e-04
 -2.6178230e-05
  1.4811530e-05
 -1.6352093e-05
 -4.3538472e-05
 -1.6265063e-01
  4.4570477e-03
 -1.7167330e+00
 -1.9871998e+00
  1.7454728e-02
 -3.4401691e-01
  4.9743778e-01
  1.5706497e-01
 -1.4851724e+00
  4.1633093e-01
  4.3010633e-03
  3.5186902e-02
 -4.7368586e-01
  1.2147007e-01
  4.7083446e-05
 -1.0397109e+00
 -3.2495099e-01
 -2.2526516e-01
  1.5249492e+00
 -8.3025724e-02
  2.9862639e-01
 -1.7957802e-01
 -5.0090599e-01
 -2.8839922e-01
 -3.1914408e-04
  2.6081693e-07
 -3.1060606e-01
  9.2485958e-01
  6.7206100e-03
  1.3117445e-01
  8.9750074e-06
  5.3521532e-01
  1.0145956e+00
 -2.1803889e-01
 -9.1176224e-01
 -2.3710621e-05
  9.2402107e-01
 -6.3089460e-01
  2.6809337e-02
 -5.7308698e-01
  2.5921667e-01
  1.2851338e-01
 -3.6726191e-04
  8.6441498e-05
  1.0027702e+00
 -1.1206963e-04
 -1.8967998e-05
  4.4834651e-05
  3.5104829e-05
  2.0885761e-04
 -4.9330767e-05
 -5.7926805e-05
  2.5281472e-05
 -6.0304093e-05
 -2.1016866e-02
 -6.6294545e-01
 -3.5588616e-01
 -5.7884240e-01
  9.8890907e-01
  1.0911094e+00
 -9.7646095e-02
 -7.9986548e-01
  7.5607914e-01
 -6.2893540e-01
 -5.6708682e-01
 -3.4727520e-01
  5.5005229e-01
 -1.3349378e-01
  9.7725350e-01
 -1.8968225e-01
 -9.1967398e-01
 -7.5290859e-01
 -2.4958129e+00
 -1.7446367e+00
 -1.5875411e-01
  7.7275878e-01
  7.0197202e-02
  1.1818881e+00
 -3.4289128e-01
  7.0046520e-01
 -5.7526517e-01
  4.7653157e-01
 -1.7187167e+00
  6.5486509e-01
 -1.0218241e+00
  1.3772712e+00
 -3.9400643e-01
  1.4773932e+00
 -2.5167051e-01
 -1.1715899e+00
  1.2139906e+00
 -1.8494348e-01
  8.7254399e-01
  2.6658776e-01
 -4.5725510e-02
  9.2714801e-02
  8.5029161e-01
 -6.6989732e-01
 -8.2268769e-01
  2.0909338e+00
  7.0229828e-01
  1.7594735e-04
  9.8348850e-01
  4.6559621e-04
 -2.7623744e-04
  1.0816197e-01
  9.2194685e-05
  1.8541259e-04
  4.3973795e-01
  1.0712826e-02
  6.7424633e-05
  6.5041140e-02
 -4.1922919e-02
 -7.3733540e-06
  1.1076429e-05
 -6.5143293e-05
  3.2502219e-02
  1.2373090e-03
  3.5260200e-05
  5.3304811e-06
 -3.1087435e-05
 -3.2093003e-06
  1.2131493e-02
 -8.8804279e-07
 -1.2856240e-04
 -7.8047733e-06
  2.4457315e-05
  3.1089327e-05
 -9.2012982e-05
  2.0216223e-05
 -6.7570611e-05
 -4.3494565e-05
 -8.5220436e-06
 -1.2909565e-05
 -7.0787668e-05
 -3.6555924e-04
 -5.9355232e-03
  9.6801661e-05
 -2.5997791e-04
 -1.1882786e-02
  7.5980941e-05
  4.4488013e-05
  1.1113090e-05
 -3.1857178e-04
  1.0118947e-04
  1.9749505e-05
  7.5833093e-05
  4.6748602e-05
  8.3755657e-02
  1.7096438e-06
  1.9355248e-04
  1.4714309e-04
  5.5531324e-05
 -6.9443806e-05
  8.4499712e-05
  8.2176717e-05
 -2.7428663e-04
  1.0895752e-04
 -1.3321558e-04
  4.2464714e-03
 -1.0099971e-04
  4.5746667e-05
 -5.1196218e-01
  1.3794929e-01
 -1.9889660e+00
 -3.6081621e-01
 -1.5876200e+00
 -1.9132018e+00
  3.2539684e-01
  1.7870572e-01
  1.7445621e-01
  2.2254379e-01
 -7.2065800e-02
 -5.8410528e-06
  4.5678012e-02
  3.2039556e-01
 -1.2090635e+00
  4.4926066e-02
  4.2649835e-02
  2.8140038e-01
  1.9720352e-05
  4.9154693e-01
 -3.0116706e-05
  9.0266204e-01
  3.9653143e-01
  1.7569753e-05
  3.0246088e-01
  6.7336583e-01
 -1.5156525e-05
  1.3690934e-01
  5.6263143e-01
 -8.0130172e-01
 -1.7288607e+00
 -5.8687007e-01
  1.7419229e-01
 -1.4564772e+00
  2.8961799e-01
  1.4832796e+00
  1.1290162e+00
 -2.9093843e-02
  9.0826134e-06
  1.0138608e-01
 -9.6403944e-01
 -2.9292277e-01
  1.7001200e+00
 -7.0289724e-02
 -9.4941370e-02
 -5.2357280e-01
 -3.8688008e-02
  2.1340797e-04
  8.3145824e-05
 -4.0957588e-04
 -2.6857493e-05
 -5.0695264e-01
  2.8812046e-05
 -1.9334786e-05
 -2.8562814e-05
 -4.1889377e-02
 -3.1544510e-05
 -5.7806246e-06
  2.6213671e-05
  6.4713866e-05
  3.9056249e-05
 -1.9875420e-06
 -3.1681229e-05
  6.7264737e-05
 -3.0360166e-06
 -3.2032276e-05
 -1.8402850e-06
 -9.5155010e-05
  2.5285740e-06
 -1.7902494e-05
  2.8391383e-05
 -7.5960299e-05
 -8.6234149e-06
 -6.8316906e-05
 -3.6927602e-05
  1.3093108e-05
  1.1245272e-04
 -5.1611958e-05
  1.5032673e-05
  2.8993856e-05
  5.1781346e-05
  1.2617291e-05
 -1.4611390e-05
 -5.4785309e-05
  2.4738114e-05
 -7.1895462e-05
  2.0263515e-05
  2.9234690e-05
 -3.8573879e-05
  5.2981777e-05
  1.4957311e-05
  6.0253162e-05
  1.5631120e-05
  1.1575840e-04
  2.5989882e-05
  2.3512835e-05
  1.2540407e-05
  5.3840344e-05
 -2.8152588e-05
 -1.1371065e-05
  8.7250955e-05
  1.5792700e-04
  3.9900959e-05
 -7.3393872e-05
  1.7264765e-04
  2.2286840e-05
  1.5750989e-05
  1.7775881e-05
 -1.0661781e-05
  2.2499416e-05
 -5.6403446e-06
  2.0549243e-05
  5.8984397e-06
 -1.1433245e-05
 -7.6695971e-05
  4.1486222e-05
  1.3002123e-05
  1.1230702e-05
 -5.6881297e-05
  2.7971539e-05
  4.1775405e-05
  2.9059911e-05
  2.9835666e-05
 -5.6235564e-05
 -1.0312114e-06
 -5.6313191e-05
 -4.1178340e-05
 -1.1795470e-04
 -1.8688409e-06
  4.2228392e-05
  8.9726418e-05
 -8.4354731e-05
 -4.1950302e-06
 -1.7011729e-05
 -1.0218699e-01
  4.5222907e-05
 -8.4932457e-05
  2.6953030e-05
  1.9367715e-05
 -6.6676148e-05
 -5.1559004e-05
 -1.3933575e-04
 -1.0529918e-05
 -1.4082897e-05
  8.5077954e-05
 -1.3257498e-05
  2.9526689e-05
 -1.9353286e-06
 -8.8752509e-05
  2.0626374e-05
  1.1079933e-04
  2.9312385e-05
  1.1441317e-05
 -5.6118886e-05
 -3.7229579e-06
  8.6219465e-05
  4.1467301e-05
  6.1924338e-06
  2.7259182e-06
 -8.4487336e-05
 -6.8489940e-06
  8.6602231e-06
  1.4959291e-01
 -1.0545328e-05
 -1.6680201e-04
 -1.7221483e-04
 -1.0058417e-03
  1.8589863e-05
 -2.6675430e-04
 -1.8579631e-04
  2.5357661e-01
 -8.5602233e-06
  4.5743660e-04
 -7.5045013e-05
  2.6066964e-06
 -7.9897378e-05
  3.1834582e-04
 -6.1763210e-05
 -8.6061175e-07
  9.8414333e-05
  3.5239442e-05
  1.3635855e-04
  1.0819707e-04
  4.5000525e-05
 -9.2640905e-05
 -1.1821357e-05
 -7.8212161e-06
 -1.5701695e-05
 -5.1281564e-05
 -1.0088364e-04
 -1.4503310e-03
 -7.8388628e-05
 -2.9622450e-05
  1.1778879e-04
 -2.4282534e-05
 -6.4018728e-05
 -1.0929039e-05
 -7.1620147e-05
 -5.1406441e-05
  2.2671267e-05
  2.3195125e-05
 -2.6318599e-05
  8.3358100e-05
 -6.6185734e-05
 -5.5136377e-05
  1.5743420e-04
  2.5766093e-04
  2.9375240e-05
 -3.2895510e-05
  2.3496036e-06
 -1.0013043e-04
 -6.9308398e-06
 -4.3566652e-06
  4.7677729e-04
  3.9315950e-05
  4.7352620e-05
  2.5706673e-01
  2.8991495e-04
  1.9538084e-05
 -5.0696475e-05
 -2.7945442e-02
  1.6948794e-01
 -1.5183756e-04
 -1.9609628e-04
  7.5375834e-03
 -9.9272722e-05
  3.5311139e-05
 -1.1020146e-04
 -4.3979377e-04
 -1.9510951e-05
  2.2947528e-04
  4.2009437e-05
  1.5555439e-05
 -2.5111533e-05
  9.0071480e-05
 -9.7991569e-06
  6.2295192e-07
 -6.5541521e-05
  4.2910501e-06
 -5.8446462e-06
  6.3014577e-06
 -4.6928762e-05
 -7.0713839e-05
  4.9303879e-05
 -6.8753609e-05
  2.1928738e-05
 -9.7433942e-05
 -2.5428310e-05
  5.3022963e-05
  1.1792472e-05
  4.4142998e-05
 -3.2188441e-04
  5.8524700e-05
 -6.1098697e-05
 -5.2090258e-05
  1.5395494e-04
 -5.6414456e-06
  2.2637771e-05
  1.2486780e-04
  3.4354784e-05
 -1.9014498e-05
 -1.3881392e-05
  1.2697684e-04
 -4.2867068e-05
 -9.2874339e-05
  5.6839501e-05
  1.1463630e-04
  4.9874262e-04
 -1.1465060e-05
  3.8870825e-05
  1.3531505e-05
  5.5402229e-06
  5.1381739e-05
 -2.1529317e-05
 -4.2158656e-05
 -1.3993002e-04
  5.5827019e-05
  1.4385038e-05
 -2.5983516e-05
  3.9696231e-05
  1.4334788e-05
  5.2013092e-05
  2.0213140e-06
  2.5314863e-05
 -1.6763810e-05
  4.4934986e-06
  1.8538509e-05
 -4.3323107e-05
 -2.2986553e-05
  6.8635971e-05
 -2.6647904e-05
 -6.9437134e-05
 -2.3675714e-06
 -3.0722589e-05
  7.2842689e-05
  1.1013907e-05
  4.4394288e-05
 -4.0631778e-05
  2.4752060e-05
 -5.4668653e-05
  7.1900075e-05
  2.5510288e-05
 -1.6521713e-05
  6.2351282e-05
 -2.8317569e-05
  1.3174776e-04
 -3.0209041e-05
  1.2073585e-04
 -6.4139298e-05
 -1.0600893e-06
 -1.9368370e-05
 -2.2694585e-05
  6.7682427e-05
 -1.7116725e-05
  1.1594499e-04
  6.3300595e-06
 -8.7751550e-06
  1.3485576e-05
  2.5420721e-05
  5.4407054e-05
  3.6682439e-05
 -6.3131424e-06
  5.0615992e-05
  3.0570292e-05
 -2.1595438e+00
  1.2016952e+00
 -1.0462398e-01
  2.6930428e-01
  5.7642347e-01
  3.2917717e-01
  9.1853011e-01
  8.0778778e-01
  3.3338353e-01
  5.0848770e-01
 -2.9996309e-01
  2.9694140e-03
  5.0083525e-04
  9.3787885e-01
 -1.6612445e-01
 -2.9941440e-01
  2.6110476e-06
  3.0908303e-03
 -1.0891496e-01
  2.0094086e-01
 -2.5381681e-02
  4.4999317e-05
 -5.5775992e-05
  3.9703751e-01
  6.4781207e-01
  1.1279037e-04
  1.2598701e-01
  7.7843812e-05
 -5.2066267e-01
  2.8875387e-01
  3.3704448e-02
 -3.2301733e-01
 -7.7882576e-01
 -1.3550463e+00
  5.2270663e-01
 -2.0418415e+00
 -1.4098273e-02
  1.5874411e-01
  1.1176661e-01
 -7.6700741e-01
  3.2993758e-01
 -2.2873537e-01
 -7.9865265e-01
  1.7836360e-02
 -5.9610754e-01
  7.6423633e-01
 -5.4685388e-02
  7.1545428e-06
  1.2011802e+00
 -3.4636321e-06
  1.1368092e-04
  3.5476604e-01
  1.0165732e-05
  2.5521182e-05
 -3.6521877e-05
  5.4548513e-05
  9.7696859e-05
  1.8311655e-05
  5.3530523e-05
 -6.8838458e-06
 -2.0030855e-05
  5.0604376e-05
  1.8268602e-05
  7.6691285e-05
  6.6330023e-05
 -1.4794638e-05
  6.8544134e-05
 -1.2121203e-04
 -2.1358977e-05
 -7.3494273e-05
  1.7860867e-04
  1.7843366e-05
 -1.2459851e-05
 -1.9687035e-05
  2.3920273e-05
  4.9590752e-05
 -2.9989114e-05
  9.9952507e-05
  8.3027808e-05
  1.9917195e-06
 -6.7854066e-06
  1.0776462e-04
 -1.6489903e-04
 -4.7612764e-05
 -9.5944160e-06
 -5.3839336e-05
 -2.2061747e-04
  8.7381261e-05
  6.8889108e-06
 -3.2151554e-05
 -3.2792956e-05
 -7.1394352e-05
 -2.4199522e-05
 -2.5379453e-05
 -1.3897390e-05
 -2.2278709e-05
 -3.0717987e-05
 -6.8277521e-05
  3.2243249e-04
 -3.9476025e-05
  2.0456187e-05
  1.2047121e-04
 -1.5391997e-05
  8.2218590e-05
 -6.1310922e-05
  5.6094403e-05
  3.8741332e-06
  3.6161244e-05
 -6.7016351e-01
  7.9266198e-02
 -3.3428586e-01
 -6.6548359e-01
 -9.2981315e-01
  8.6222490e-06
  3.7254512e-01
 -8.6313887e-03
  3.0538552e-02
 -1.3730968e-02
  4.4202191e-01
 -3.8428575e-04
 -4.2831421e-02
  9.1685994e-05
  3.9813000e-01
  1.1038318e-01
  4.2136930e-04
  3.1764743e-05
  4.5046555e-03
  2.6324782e-05
 -3.8117471e-06
  5.3495500e-04
  8.3283281e-05
 -4.4715551e-05
  1.5566115e-04
  2.0388217e-05
  7.1394628e-05
  5.7201440e-05
 -1.9155415e-02
  1.4629647e-05
 -1.3202816e-01
  4.4415396e-01
 -3.4751529e-06
 -5.2705191e-02
  9.7369502e-06
 -1.0081238e-01
  2.9878080e-04
 -1.2383518e-01
 -3.9247470e-04
 -7.9511208e-03
  2.4281478e-01
  3.4485256e-05
 -1.0207380e-01
 -2.6334557e-05
 -4.7368059e-05
 -1.0441981e-05
 -1.9166844e-05
  3.9984738e-05
 -1.1290464e-05
  2.3590734e-05
 -1.3396952e-04
  5.5308430e-04
 -4.6560666e-01
  1.8336455e-05
 -3.0363783e-01
 -3.0468845e-01
  8.1570361e-05
 -2.4315155e-01
  8.4914498e-02
 -5.7447778e-05
  1.5557971e-04
  1.0273860e-05
  1.2009532e-05
  8.2803617e-06
  6.6182270e-06
 -7.9477522e-06
 -1.8163027e-04
  3.3273249e-05
 -3.5177253e-04
  8.1023711e-07
 -2.8285692e-06
  7.6361881e-05
 -7.1949646e-05
 -1.2725892e-05
 -1.3244257e-05
  3.1498810e-05
 -1.9326772e-06
 -1.4465873e-05
 -6.7306370e-05
 -8.0533473e-06
  8.2333139e-07
  3.8669306e-05
  4.3063763e-05
 -6.5703520e-05
  2.7827968e-04
  2.1758098e-04
 -4.7172918e-05
 -1.0672810e-04
 -5.5880100e-06
 -9.3801973e-06
  1.9751469e-05
 -5.6579702e-06
 -4.4838325e-06
 -1.6600945e-06
  1.2511065e-05
  2.4249002e-05
 -1.0036590e-05
 -3.6745590e-05
 -3.2281321e-05
 -1.0504641e-06
 -2.8102073e-05
 -4.7066515e-05
  2.3261462e-05
  7.3456536e-06
 -3.9795861e-05
 -6.7782402e-04
  2.3576074e-05
 -1.4401769e-04
  1.8733122e+00
  4.5132723e-02
 -1.4381777e-02
  2.5724001e-02
  1.9243869e-01
  1.4063733e-02
  1.3988073e+00
 -6.9959187e-03
 -1.1985896e+00
 -7.3575538e-05
  4.0800610e-01
  4.0374387e-05
  8.0371565e-01
  2.8853743e-05
 -2.3324708e-02
  1.8666363e-01
  5.7745355e-01
  1.7870463e+00
 -7.3022689e-03
  1.4449215e-04
  1.7257777e-04
 -1.7270875e-05
 -1.6516451e-04
  1.2773195e-04
 -9.1656214e-03
 -7.0998547e-05
 -1.4453646e-05
 -2.3776469e-01
 -8.0903184e-05
 -2.2268105e-01
  6.5284055e-03
 -1.3230120e+00
 -4.0741023e-01
 -3.2611933e-01
 -5.6811247e-04
 -7.8234774e-01
  1.2816055e-01
 -7.1078463e-04
 -2.5117543e-01
 -9.9638805e-02
 -1.1089212e+00
 -4.4133681e-01
  1.1527187e-01
 -2.2367486e-01
  9.1868877e-01
  3.3440953e-01
  3.9697763e-01
  1.2383027e-03
 -4.1717331e-06
  2.0516895e-01
 -8.4122451e-04
  3.7862876e-01
  1.3511354e-04
  7.4257485e-05
 -1.2749013e+00
 -2.1064349e-01
 -3.0685232e+00
 -1.1573277e+00
  1.0764934e+00
  8.0093205e-02
  9.4215584e-01
  4.9202451e-01
  1.1498917e+00
 -4.2407840e-01
 -3.9191139e-01
  1.4485154e+00
  4.1521457e-01
 -2.5212625e-02
  1.0735112e+00
  1.2989928e-01
 -6.2738705e-01
 -2.2333422e+00
  3.4365970e-01
  3.2428288e-01
  9.2324775e-01
 -1.0770438e+00
  1.5420137e-01
 -1.6153716e-02
  1.7328106e-02
  3.7361511e-05
 -1.0857542e+00
  4.8748413e-01
  2.9216589e-02
 -5.6957620e-01
 -3.3909086e-02
  1.2304733e-03
 -8.0456340e-01
 -1.5409453e+00
  7.0643360e-03
  1.2452385e-01
  4.0254700e-01
 -3.8470842e-02
 -1.9950181e-02
 -1.0137417e+00
  8.1604302e-02
 -2.9534906e-01
  1.1701317e+00
  5.2029067e-01
 -4.9717814e-01
 -3.9842189e-04
  3.5897307e-03
 -1.8067378e-05
 -5.8508970e-02
  1.9434120e-01
  3.9582712e-05
  6.8311608e-01
 -4.0125164e-05
  1.4224178e-01
 -3.6409768e-01
 -7.5498259e-01
  9.4378734e-01
  7.8884083e-01
  1.2797606e+00
  1.2936195e+00
 -1.2760952e+00
  5.4131943e-01
  5.4413313e-01
  3.2525244e-01
 -5.8876183e-02
  9.3361264e-01
 -6.6279857e-03
 -3.1400612e-01
 -1.3999623e+00
 -3.6462781e-01
  3.1764737e-01
  7.5352412e-01
  3.4945300e-01
  8.1296241e-01
 -3.2607964e-01
  2.3978369e+00
 -6.3927379e-05
  7.2270346e-01
  1.2459029e+00
 -4.4747361e-05
 -2.3818786e-01
 -1.1515267e+00
  2.4176978e-01
 -1.4335696e-01
  4.3006785e-02
 -3.9682361e-01
 -3.6058235e-01
  2.7466004e+00
  1.6587042e+00
  5.8176750e-01
  7.4422526e-01
 -1.1027755e+00
 -1.7013468e+00
  3.0506719e-02
  3.2743272e-01
 -6.7745991e-02
  1.2345077e+00
  2.5687310e-01
  1.8337121e+00
  1.9445984e-01
 -8.6069249e-06
  6.1818007e-02
  1.3703943e-02
  5.4171556e-01
 -2.6565024e-01
  3.0235797e-03
  5.2567113e-02
  3.3759482e-02
  4.0995070e-05
 -2.1699977e-06
 -1.8552360e-05
  2.4940813e-05
 -2.4303452e-05
 -1.6248263e-05
  3.3702985e-05
 -1.5780858e-04
  9.7173979e-06
 -1.1363931e-04
 -6.6673645e-05
 -5.2453986e-05
  1.3104477e-05
  6.3803149e-05
  3.3067697e-06
 -9.0758760e-05
 -3.7284524e-05
 -2.1193542e-05
  6.5479013e-05
 -8.7205975e-05
  1.0001854e-04
  3.8146049e-05
 -1.9208725e-05
  1.0177600e-05
  1.1431403e-05
 -1.0223935e-05
 -3.1653875e-05
 -7.6163589e-05
  3.1212380e-06
  1.1970633e-05
  4.2988841e-06
 -3.8555818e-06
 -2.3532493e-05
  3.2088730e-07
  2.0261983e-05
 -1.1677324e-05
 -2.0862200e-05
 -4.1989057e-05
 -6.2414503e-05
  4.8380527e-05
  6.3796462e-05
 -1.6421206e-04
  3.9203776e-05
 -4.4240628e-06
  1.3652478e-05
  3.8537342e-05
  1.3538566e-05
  1.0297003e-05
  1.8826218e-05
 -2.2263392e-05
  2.9870564e-05
 -4.5005905e-05
 -2.2332017e-05
 -5.6319943e-05
  5.2326970e-04
 -4.2850465e-06
  2.2268974e-05
 -8.9670917e-05
 -1.7996803e-05
 -3.1294967e-05
 -1.2226337e-04
 -8.7941835e-06
 -1.2394604e-05
  1.8924404e-05
  1.4712250e-05
  1.4384169e-06
 -1.0098489e-05
 -4.1920730e-06
  6.0671784e-05
  9.5305964e-05
  5.7306675e-05
  1.8806697e-05
 -1.1977187e-04
  2.3675257e-05
  1.6792155e-05
  1.2520638e-05
 -6.3180269e-05
 -3.4046450e-05
 -4.8828930e-01
 -6.3404755e-06
 -2.3199240e-05
  5.2885549e-05
 -2.2155834e-04
  1.8498975e-05
  6.8539833e-07
 -7.4232457e-06
 -1.4955732e-04
  5.7947291e-05
 -3.4115199e-06
 -8.9937370e-05
 -1.9596418e-05
  1.1548790e-04
  2.5379970e-05
  4.0733656e-05
  1.4957170e-05
  3.0911342e-05
 -4.8395123e-06
  1.1193867e-05
 -2.3397211e-05
 -7.0525712e-05
 -6.0215702e-06
  2.7243368e-06
 -1.2516120e-05
  4.2273332e-05
 -1.7364468e-05
  6.0309205e-05
  7.8906225e-05
  2.9318537e-05
  7.1869224e-01
 -2.3522222e-01
  3.7600035e-05
  5.1421078e-04
  5.0064117e-01
 -9.8276705e-01
  3.7805527e-04
  5.1091261e-05
 -1.5727447e-01
 -2.5932432e-05
  1.4258859e-04
  9.2495941e-02
 -5.0429577e-01
  8.5621834e-02
 -1.8932560e-01
 -1.5118226e-02
  1.1211832e-05
  2.2694468e-05
  1.7788441e-01
 -1.4098755e-03
 -7.8976474e-05
 -1.1662616e-02
  2.8023835e-05
 -2.2283629e-04
 -1.0889876e-04
  7.9367011e-05
 -4.2779175e-05
  6.7453091e-03
  3.5464189e-05
  8.3662664e-05
  1.1293007e-04
  5.7228035e-01
 -4.5979837e-06
 -1.6989253e-02
 -4.7164223e-05
  2.4639119e-01
  9.2256524e-02
 -6.2349665e-01
  8.9253095e-05
  1.5925646e-02
 -3.9136609e-01
  1.2151219e-05
 -2.6079002e-03
 -3.5967103e-01
 -3.1507591e-04
  7.4096783e-03
 -1.3159904e-04
 -6.8624220e-05
  1.2948649e-01
 -2.1824104e-04
  2.9865027e-04
 -1.4749645e-01
  2.2885322e-05
 -2.4725677e-04
  2.3325007e+00
 -4.2879423e-01
 -5.0047177e-01
 -4.8487496e-01
 -1.1473072e+00
  3.0600794e-02
 -4.3047795e-01
 -1.0234588e-05
 -1.9889183e-01
  1.8566901e-02
 -5.0889418e-02
  1.0364485e-04
  6.2801296e-01
  5.2252257e-01
 -2.5567162e-01
 -6.6081755e-02
  1.4442463e-05
  5.3252008e-02
  6.8120575e-01
 -8.3956638e-07
 -1.1508126e-04
 -4.9928982e-02
  9.8287543e-05
  1.2408655e-01
 -7.4566759e-02
 -1.9977759e-05
  9.8415485e-06
 -5.1402844e-02
 -8.5819477e-01
  7.4198806e-01
  6.7581743e-01
  3.9921290e-01
  3.5809353e-01
  2.9135332e-01
  9.9468946e-01
  1.6730566e+00
 -2.6725557e-01
  2.6913553e-02
 -1.3370571e-01
  7.4600577e-01
 -3.3147117e-01
  2.1790767e-01
 -3.0458963e-01
  4.1808016e-05
 -6.3140012e-02
  8.3862829e-01
 -4.1140823e-04
  3.0352610e-05
  9.6360493e-01
 -1.3585500e-05
  1.6459784e-05
  4.7295270e-03
  1.9472287e-05
 -3.3100394e-05
 -1.9350854e-01
  1.1722886e-01
 -6.2053878e-05
 -3.7373775e-05
  3.5395786e-01
 -1.5704029e-05
  3.3963672e-05
  6.0234861e-03
 -6.1191339e-04
 -1.2415728e-03
  6.1107821e-05
  1.2607507e-05
  3.1471014e-04
 -6.1830028e-06
 -8.9757247e-03
  1.2904596e-04
 -4.8929751e-06
 -1.2035027e-04
 -1.3146886e-04
 -2.9266315e-05
  1.4951963e-04
  7.8964207e-05
 -2.9962264e-05
 -3.9721526e-06
 -6.3475381e-05
  1.2208840e-04
  3.2361133e-06
 -1.0821787e-03
  6.6044864e-05
 -6.1592567e-07
  1.8650542e-04
  3.1828188e-06
  4.6228331e-05
 -8.7689750e-06
 -1.2627202e-04
  1.0605703e-04
 -3.5726516e-05
 -1.3659810e-04
 -2.1822558e-05
  3.2552471e-05
 -1.4009500e-04
 -7.0769602e-05
  1.1741490e-04
 -2.0834060e-04
 -7.1597606e-04
 -6.2165331e-05
 -1.7155253e-05
  8.2583545e-05
  2.9772022e-04
 -7.6286044e-05
  3.3622816e-06
 -1.1336899e-04
  2.2546812e-05
 -8.2375635e-05
  1.2245985e+00
 -1.3544943e+00
  9.9339300e-01
 -1.8552957e+00
  1.2299123e-01
 -7.4915141e-01
 -1.8723907e-02
  2.5735658e-01
 -4.8076546e-01
 -2.1308393e+00
 -6.3445407e-01
 -9.6103005e-02
  1.6478148e-01
 -9.4263703e-01
 -3.6084303e-03
  1.5139346e-01
  2.8578755e-01
  6.5317385e-05
 -4.9551636e-01
 -7.2632283e-01
 -5.2054744e-04
 -1.8884696e+00
  3.3774808e-01
  3.5411507e-01
  2.2883120e-05
 -6.3544023e-05
  4.9319348e-01
  1.5068183e+00
 -1.7080238e-01
  3.7894871e-02
 -3.1014811e-03
 -5.0064404e-02
 -3.5833094e-01
  2.3897760e+00
  1.8303698e-01
  9.2308098e-01
  3.6333779e-01
  6.9605374e-01
 -9.4982749e-04
 -4.7999349e-01
 -3.9939529e-01
  1.4733014e-04
  3.1775227e-01
 -5.0126705e-03
 -6.3609672e-01
  5.4703723e-05
  4.5089039e-01
 -2.1275443e-04
  7.9191583e-01
 -1.0347081e-02
  2.2231157e-05
  8.3967194e-02
 -3.0434177e-05
 -7.7435776e-05
 -9.8795958e-02
 -5.9691731e-05
  2.0717371e-05
  3.5637659e-05
  1.1758981e-01
 -2.0838101e-05
  2.9696448e-04
  2.2122476e-05
 -2.8244616e-04
 -2.3844419e-05
  1.0980634e-04
 -8.3667313e-05
  1.2372535e-05
 -3.3726479e-05
 -4.4371027e-05
 -7.0720787e-05
 -1.2487546e-06
  1.3029262e-04
 -8.2715669e-06
  1.9093572e-04
 -3.6570123e-06
 -1.0446366e-04
  5.1219617e-05
 -2.0536459e-05
  2.6981745e-05
  1.2720104e-05
 -1.1726524e-06
  4.3243443e-05
 -1.8984976e-05
  5.3178708e-05
  3.6850426e-05
 -4.3367607e-05
 -3.6859732e-05
  1.0465735e-05
 -4.5878940e-05
 -1.3832341e-05
 -7.1739873e-05
  1.5226717e-04
 -5.9933009e-06
  7.7001292e-05
 -1.0776921e-04
  4.4178363e-05
 -3.5137080e-05
  8.5070960e-06
 -6.9613811e-06
  4.1763551e-04
  7.4339409e-06
 -9.2529041e-07
  2.0943111e-04
  1.8101058e-05
  5.4182724e-06
 -1.0072242e-04
  1.7016842e-05
  4.1115400e-06
  9.2134118e-02
 -1.5362088e-02
  1.1298885e-04
 -2.7299154e-01
  1.0330189e+00
  1.1051007e-03
  4.1494364e-01
  3.9292541e-01
  1.0160534e-02
  1.3153964e-01
 -1.9133708e-01
  5.7588790e-05
 -2.1930264e-01
  4.7688031e-06
 -4.5022283e-02
 -2.6393002e-02
 -1.0717708e-05
  3.5743211e-05
 -1.1007202e-01
 -1.9991367e-05
 -2.2724023e-05
 -6.1226776e-05
  8.8449589e-05
  9.5154232e-05
 -8.5004523e-02
  7.2101779e-05
 -6.4585358e-05
  2.9110326e-05
  7.6924759e-04
  8.3581333e-05
  4.9258381e-01
  5.1051173e-02
 -1.7453744e+00
 -3.8277197e-01
 -1.2973428e-04
  2.3710898e-04
 -9.0466574e-06
 -3.2281339e-05
  1.5820862e-05
 -2.3841973e-05
 -7.6144385e-01
 -2.4503344e-05
 -1.0155288e-01
 -3.6598324e-06
 -6.8548747e-04
 -5.8314876e-05
  3.7616534e-05
  2.9537112e-05
  1.0008481e-04
 -1.0188589e-03
  7.3417418e-06
 -9.2005375e-04
 -8.0300320e-05
  2.4767711e-05
 -1.1400676e+00
  4.8744738e-01
 -5.2042818e-01
  7.4585742e-01
 -3.9289629e-01
 -6.2298244e-01
 -4.5335555e-01
  1.7915794e+00
  8.0414265e-02
  3.9448950e-04
 -1.8241090e+00
  1.4106226e-04
  2.4220676e+00
 -1.7729607e-01
 -1.5992292e+00
  5.7098508e-01
 -2.1427286e-01
 -1.9579129e-01
 -1.4741515e-01
  4.4865090e-01
  1.0742986e+00
 -3.6318481e-03
 -1.1871232e+00
 -8.4199697e-01
 -7.0719033e-01
 -5.5353451e-01
 -2.0595638e-01
 -4.2600146e-01
  3.8277870e-01
  3.9729904e-02
 -8.9188927e-01
 -6.3786334e-01
 -3.6771584e-04
  2.0843479e-01
  4.0549871e-01
  6.1784112e-01
 -3.8583730e-03
  8.6730117e-01
 -6.8300581e-01
 -1.0891694e+00
 -3.5709491e-01
 -7.0242411e-01
  3.3506203e-01
  1.0787108e-02
  1.8525909e-01
  1.0725260e+00
  1.1235351e-06
 -5.1334471e-05
 -2.0140061e-01
  6.3879651e-01
 -6.4260912e-01
  1.1093690e+00
 -1.6516425e-04
 -4.3296500e-06
  1.9594280e+00
  1.1313647e+00
 -6.7675574e-04
  6.8063480e-01
  1.5404158e+00
  3.8984928e-02
  1.8153889e+00
 -1.6645316e+00
  4.0339842e+00
  2.4181816e-01
 -8.3126485e-01
  6.0923815e-01
 -7.7909666e-01
  7.1105133e-03
 -1.6513699e-01
 -2.6029378e-01
  1.3164984e-05
  8.7416236e-05
  2.2904303e-05
  8.6401810e-04
 -9.7315286e-05
  1.4943638e-02
  1.0891478e-05
 -8.2887709e-05
  1.2430825e-02
  1.3978749e-04
 -5.1523875e-05
  4.3124372e-01
 -2.8443447e-01
 -4.3200536e-05
 -1.1072338e+00
  1.1508887e+00
 -7.8013785e-02
  1.5838405e+00
 -5.2500636e-05
 -7.2867274e-01
  4.2545661e-01
 -2.3457253e-05
 -7.0501512e-01
 -4.4297165e-01
  2.0089075e-01
  2.0110136e-04
  3.3670336e-01
 -1.9337278e-05
 -1.4221420e-06
  2.0594257e-01
  1.9729576e-05
 -7.2307921e-05
 -1.9813113e-07
  4.4467881e-05
 -3.3017518e-06
 -2.6157007e-04
  2.1199716e-05
 -3.3104774e-05
 -7.1082443e-01
  1.1515538e+00
  2.4820240e-02
  1.0295641e+00
  1.6494545e-01
  4.5288023e-01
 -1.8831207e-01
  1.7352272e+00
 -2.0093864e-02
  1.3148342e-01
 -5.3044951e-05
 -1.1582267e-01
  3.0949113e-01
 -6.6821165e-05
  5.3364260e-04
  3.3942056e-01
  1.0633132e-01
  3.9040978e-04
 -1.0272672e+00
  1.9693702e-02
 -1.9993664e-04
  1.9997367e-01
 -1.3994380e-06
  2.7792114e-01
  2.6748404e-01
  5.8608811e-04
  1.0522537e-02
 -2.1533130e-02
 -1.2226725e-02
  1.4031245e-04
 -2.8569067e-01
 -2.9106948e-01
 -5.7998741e-01
 -4.2494860e-01
  4.4138557e-01
 -4.0016529e-01
 -3.1334820e-01
  1.9447936e-01
  4.6300825e-05
  4.1520917e-01
  1.7475238e-01
 -9.7180763e-03
  2.3165788e-01
  2.3922892e-01
  1.0225591e-02
 -3.0288296e-05
  1.9350973e-03
 -4.5945682e-05
 -8.6082673e-06
  4.8442287e-03
 -4.6619902e-05
  1.9057335e-01
  7.3918301e-05
  1.9049072e-05
 -3.4142049e-05
  5.0815011e-06
 -1.8393235e-05
  4.0294803e-05
  4.9726288e-05
  3.8990524e-07
  6.5237422e-05
 -6.5854128e-06
 -1.4267116e-05
 -5.6718069e-05
  2.3363575e-06
  3.5138078e-06
  1.6231843e-05
  1.9400117e-05
  2.3816758e-05
 -5.7550376e-05
  6.2432962e-05
 -9.7761033e-05
  9.1582828e-05
 -7.0261008e-06
  8.2053470e-05
 -1.0579589e-06
  1.0141930e-05
 -2.6055909e-04
 -1.0806053e-05
 -1.0635801e-05
 -1.1194133e-04
  2.8386000e-06
  2.5232455e-06
  4.4409302e-05
 -2.1728105e-05
 -1.1851173e-05
 -2.9920900e-05
  3.6215963e-05
  1.6722235e-05
 -5.9768672e-06
 -1.1540793e-05
 -1.9198419e-06
  1.9492583e-05
  2.2338445e-05
  1.3273576e-04
 -3.6407553e-04
 -3.6873894e-06
  1.9731997e-04
  1.7726867e-05
  9.7099619e-05
  2.0887022e-05
 -3.8050803e-05
  2.1645303e-06
  1.6954131e-05
 -1.3421688e-05
  5.5296773e-06
  3.2009066e-05
 -1.9488200e-05
 -2.7997378e-01
 -8.7214565e-01
  6.7558783e-01
  1.1824781e-01
 -1.7760830e+00
 -5.4810905e-01
 -4.7748691e-01
 -8.3635104e-01
  4.1037339e-01
 -7.4534398e-01
 -1.3938870e+00
  9.9194634e-01
 -8.3115274e-01
  2.4246684e-01
  4.8343766e-01
 -4.2875221e-01
 -1.8920658e-02
  2.9011540e-02
  9.4217181e-01
 -2.1221064e-01
  2.1383231e+00
  4.3427467e-02
 -3.5901257e-01
 -1.7694272e+00
 -2.4162930e-02
 -1.1205740e-01
  2.7153939e-01
  1.6044347e+00
 -6.7658007e-02
  2.8258064e-01
 -1.1563586e+00
  7.0065409e-01
  1.0856972e+00
 -3.6401398e-02
  2.3118663e-01
  1.4178748e-01
  5.3047359e-01
  9.8132277e-01
 -4.5133460e-01
 -8.1234187e-02
  1.0127891e+00
 -3.0973129e-02
 -1.0940595e-01
 -8.8549054e-01
  5.7750422e-01
 -1.0298964e+00
 -2.6637140e-01
 -3.7394589e-04
  1.1536251e+00
 -4.4136297e-02
  2.5908023e-01
 -9.6120186e-02
 -3.1678000e-01
 -4.6450820e-02
  4.3731320e-01
 -6.5539265e-01
  5.1003712e-01
 -6.8967149e-02
 -4.9339485e-01
 -1.2480940e-01
  8.8899195e-01
 -1.4971471e+00
  1.3614774e-02
 -3.0688441e-03
  1.5544690e-03
  3.1890601e-01
  2.0775686e-01
 -3.2868081e-01
 -6.5124370e-02
 -4.9446893e-01
 -1.3014280e+00
  2.0967312e-01
  7.2717100e-01
 -2.0521216e+00
  1.7816617e+00
 -1.9192657e+00
  9.7793406e-01
 -7.1916771e-01
 -8.9791065e-01
 -3.1044272e-01
  6.2138259e-01
  8.3423281e-01
 -3.7368268e-02
  1.8543184e-02
 -3.4175059e-01
  3.6301985e-01
 -3.3707643e-01
 -1.4728507e+00
  1.5757993e-01
 -4.8287880e-01
  1.3007346e+00
  1.5893571e-01
  4.3941204e-02
  1.1348857e+00
 -1.5660205e+00
  1.5058151e+00
 -7.8127956e-01
  1.0711051e+00
  4.4372745e-02
  4.2946558e-02
 -8.8962013e-01
 -2.7951723e-01
 -9.1256285e-01
 -3.6841804e-01
  1.0882661e-03
 -2.2412224e+00
 -7.5000459e-01
 -1.4358528e-01
 -1.6064603e-02
 -1.0827004e-04
 -1.1712453e-05
  5.8178244e-05
  2.6998915e-02
 -1.7730588e-05
  5.5037977e-05
  9.3154631e-05
  1.9086769e-07
  4.6153218e-05
  1.1728642e-05
 -5.6211993e-05
 -2.7879662e-05
  5.2639002e-06
  9.5805854e-06
  3.6348356e-05
 -3.2787433e-05
  6.2044332e-05
  2.1836293e-05
  6.4617881e-05
  3.6592133e-05
  2.2933300e-05
 -1.3588968e-04
 -1.3138897e-06
  5.2457701e-05
 -4.8208978e-05
 -3.3597356e-05
  1.3633818e-05
 -2.9894711e-05
 -3.2709260e-05
  5.4117068e-06
  2.0713047e-05
 -1.7894703e-05
  1.1734700e-05
  1.9320447e-05
 -3.0330220e-05
  6.0784827e-05
 -9.3359173e-05
 -1.1374839e-04
  4.9610237e-05
  4.6285939e-05
 -8.6306376e-05
 -1.0956818e-05
  6.4953297e-06
  4.0485884e-06
 -2.2062755e-05
  1.0460403e-04
 -2.5357396e-05
  4.7893809e-05
  1.7133567e-05
 -1.1196609e-05
 -4.9074522e-05
 -1.3378238e-05
 -6.0510331e-05
 -3.8815619e-05
 -5.6375669e-05
 -4.0258416e-07
 -4.1328567e-05
 -2.8746927e-05
  9.3637601e-07
 -1.4159918e-05
 -4.1220442e-06
 -4.0035997e-05
 -1.6399381e-05
  1.2486458e-05
  3.1171083e-05
  6.9958172e-05
 -3.9560549e-05
 -3.2084215e-05
 -1.0384077e-06
  1.7726659e-05
  4.2006675e-05
  7.2013149e-06
  3.0664694e-05
  6.6270827e-06
  2.5669257e-05
  5.6043897e-05
 -3.6107599e-06
  9.0099849e-05
 -5.7461144e-05
 -3.2668584e-05
 -3.4276229e-05
 -1.9204081e-05
  1.1138139e-04
 -3.5370653e-05
 -4.1465632e-05
 -2.0659461e-06
  6.2843851e-06
  9.9403274e-05
 -2.0202264e-05
  5.2149004e-05
  1.0717735e-05
 -8.2877881e-07
 -3.8027130e-05
 -9.1957500e-06
 -8.4142273e-05
 -3.5027799e-06
  3.2721402e-06
  1.0243069e-05
 -1.4862984e-05
  7.2465802e-05
 -1.4374047e-05
  2.2907634e-05
 -2.1853766e-05
  4.8299204e-05
  1.9628387e-06
 -2.1340507e-05
  1.1019981e-04
  8.0621868e-01
 -9.3827027e-01
  6.7941821e-01
  6.6351396e-01
 -1.1802323e+00
  9.4731247e-01
  3.1015006e-05
  6.5095246e-01
 -5.4749656e-01
 -9.4336307e-01
  5.8190644e-01
  3.1023416e-01
 -5.1404124e-01
 -3.3669847e-01
  2.9668286e-01
  5.2976090e-01
 -6.2980342e-01
  3.1001329e-01
 -2.5503203e-01
 -4.7179750e-01
 -1.5825717e+00
  3.2499018e-01
  2.9114521e-01
  9.4931191e-01
  1.2150884e-01
  3.9161718e-01
  2.3172684e+00
 -3.1127799e-01
  2.3863934e-02
 -6.2390041e-01
  2.1292920e+00
 -1.1194730e+00
 -4.2746931e-01
 -1.0143571e-03
  2.3620255e-01
  1.3645899e-01
  4.4121006e-01
 -1.6890031e-01
  1.4674075e-05
 -2.8093708e-01
 -8.4750766e-01
 -1.1045729e-01
  5.4647815e-01
  2.2963408e-01
  1.4844966e+00
  1.7545065e-01
 -2.2633193e-01
  5.8095452e-06
  2.7472413e-01
 -1.5849836e+00
  8.0668797e-05
 -5.3760493e-01
  6.5747427e-04
 -4.3808222e-01
  3.1132820e-01
  3.4674563e-04
 -8.9675865e-05
 -2.2166465e-04
 -2.2783028e-01
 -1.4464411e-05
 -3.5225227e-04
 -4.9403498e-05
  2.3479590e-02
 -1.6262085e-05
 -9.5459793e-05
 -1.0504144e-05
 -3.4378667e-03
 -1.2312591e-05
  7.2857656e-04
  1.0836548e-06
 -2.4395822e-05
  2.5361431e-05
  3.2043274e-06
  1.7922618e-04
  2.9669322e-05
  5.7148969e-05
 -6.4096719e-01
  4.4359040e-05
 -3.1987969e-05
  3.4824086e-06
 -6.9325026e-05
 -4.4804176e-05
 -4.7329575e-04
 -1.8473644e-05
 -1.2512942e-03
 -1.5341091e-01
 -8.5380459e-05
  1.5984322e-05
  1.9609039e-05
 -3.4703087e-04
 -1.6868526e-06
 -1.1618233e-04
  1.9340996e-04
 -2.8767359e-05
  5.8855037e-03
 -1.6029739e-04
 -5.4339424e-05
  3.7847698e-04
 -3.3175573e-05
  1.7044149e-05
  1.0914831e-04
  7.1944646e-06
  5.3812106e-05
 -9.9055696e-06
  5.7161644e-05
  1.3212254e-04
  1.9247744e-05
  9.6733944e-05
 -2.3701251e+00
  5.5832874e-02
  1.5283625e+00
  6.3931167e-02
 -7.3237151e-01
 -3.3631444e-02
  1.3297479e+00
  7.0606947e-02
  2.8305726e-02
 -1.4261076e-01
  1.5703892e-05
 -4.2638993e-01
 -6.3497061e-01
  1.4735932e-05
  1.9622043e-05
  6.8304725e-02
  1.4089566e-02
 -1.2132380e-02
  1.4304665e-03
 -2.0185422e-05
  9.9288345e-06
  3.6322829e-01
  1.0619638e+00
  3.5803411e-02
  7.3389339e-01
  3.6471760e-01
  4.8479623e-01
 -7.4368253e-02
  1.0583985e+00
  1.6668036e-03
  1.6688060e+00
 -6.1351370e-02
  1.0253432e-01
 -2.1475499e+00
  1.7330433e+00
  7.8106856e-01
 -4.4232017e-01
 -5.3435731e-01
 -5.6856763e-01
  4.7284943e-01
  5.2230918e-01
  7.5808531e-01
 -1.3884428e-01
  2.1562432e-01
  5.4930326e-02
 -5.1922875e-04
  4.4452590e-03
 -1.0657863e-04
 -1.0174565e-04
  5.8420446e-05
 -8.7551889e-05
  3.3745375e-01
 -3.0429959e-05
 -3.3093387e-05
  1.1541076e-01
  3.2089672e-05
  7.3404954e-05
 -7.6345852e-05
 -4.8672792e-02
  5.0488674e-05
 -3.9661223e-05
  3.7043684e-08
  1.8045361e-03
  2.8773309e-05
 -5.3364132e-04
 -5.6468443e-06
 -6.4385228e-04
  2.1722570e-05
  7.9321080e-06
  5.4003708e-06
  7.4809293e-05
  1.5032489e-04
  4.1381176e-05
  4.1005780e-05
  1.2384471e-05
  1.2570377e-04
 -3.9689118e-07
 -5.4758828e-05
  6.3208113e-06
 -3.7992741e-05
 -5.1851446e-05
 -2.0656182e-06
 -4.7112277e-05
 -2.5573912e-05
 -2.4997174e-05
 -3.8147406e-05
  1.8098763e-05
  1.2623793e-05
 -1.3551168e-05
 -3.5629208e-05
 -3.7473441e-05
 -1.0224394e-04
 -3.8622616e-06
  7.7971257e-05
  8.9333720e-05
 -4.9714432e-05
  2.6972497e-05
  9.7660632e-05
  4.9455103e-04
 -6.2838015e-05
 -1.1305565e-05
  7.8877580e-05
  1.8575596e-05
 -6.9403391e-06
 -9.8164792e-06
  8.0582591e-05
  3.5142250e-05
  5.2668511e-05
  6.2588382e-01
  3.9227705e-02
 -1.0635963e-05
  2.8549051e-01
 -5.0898757e-02
  2.2147519e-04
 -1.1143623e-01
 -3.5094310e-02
 -2.3520739e-01
 -6.0770100e-05
 -2.1756305e-03
 -1.0215927e-04
 -2.4646992e-05
  7.9728125e-05
  2.5876136e-03
 -2.1271476e-04
 -3.3038108e-05
 -1.6774724e-05
 -1.3350073e-05
  6.1144397e-05
 -2.8917149e-05
  9.6880722e-05
  9.9176272e-05
  1.0979661e-05
  3.9879953e-05
 -6.6287626e-05
 -6.4294448e-04
 -1.4943810e-01
 -1.5839620e-02
  2.2763794e-05
 -1.3197983e-03
 -1.9007850e-02
  8.4569438e-05
 -1.2169641e-04
  4.4078930e-05
 -1.3910778e-02
 -3.2751836e-05
  5.1774223e-06
  1.5052050e-05
 -4.6883079e-06
  2.7125256e-02
 -7.0478360e-04
 -3.3368355e-01
  6.3756574e-04
  6.6591817e-04
 -3.0751184e-05
 -8.4255207e-06
 -4.6753874e-05
 -8.1361417e-05
  3.3251604e-04
 -4.7166600e-06
  1.8225171e-02
  5.3695589e-05
  5.1520223e-05
  3.2854122e-01
  2.1477407e-01
 -6.8778558e-05
  2.3038248e-02
 -1.0251173e-02
  2.4636609e-05
 -2.1382850e-05
 -3.3869149e-04
  2.7784009e-03
 -6.7306581e-05
  2.3135008e-06
 -7.1481454e-06
 -8.1786893e-05
  2.4556542e-05
  8.1219339e-05
  2.1215543e-05
 -2.7370401e-05
 -1.2123018e-04
  1.5943077e-05
  8.8947027e-06
 -1.0459632e-05
 -4.5471319e-05
  2.3193286e-05
  6.6334169e-06
 -2.6804460e-06
  3.9089984e-05
 -3.6954574e-05
 -8.8178349e-05
 -4.8189188e-05
 -3.2082677e-05
 -6.4717220e-05
 -1.4136783e-04
  2.1788141e-05
  7.0495364e-05
  7.2399460e-05
 -3.4389144e-05
  1.9152569e-05
 -1.6840544e-05
 -7.4618656e-05
  9.2221810e-05
  3.8183047e-05
 -3.2242673e-04
  8.8452492e-05
  7.4461950e-06
  5.5663899e-04
  1.6850376e-05
  8.2574152e-05
 -5.3988306e-06
  1.8952871e-05
  6.2504463e-05
 -1.5262332e-05
  8.3460705e-05
  1.0185963e-05
  9.4967705e-05
  4.0820193e-01
 -6.4103138e-01
 -1.6563512e+00
  3.4271958e-01
  6.2200671e-01
  5.8000146e-06
  4.7313984e-02
  1.3639249e+00
 -7.1370685e-01
  9.6777731e-05
 -1.3546276e+00
 -5.7605177e-01
 -2.0030768e+00
 -1.3107403e-02
 -6.1933380e-01
  1.4582308e-03
  3.4010474e-05
 -4.7120371e-05
 -2.1750655e-02
  1.2346994e-03
 -5.2461100e-06
  1.5257289e-01
  1.8859582e-04
  2.2078557e-04
 -1.2408964e-04
 -1.1790634e-04
  1.6902332e-01
  1.1896224e+00
 -9.3424620e-05
 -7.3607604e-05
  4.1816729e-01
 -3.1747562e-01
 -2.7909281e-04
  3.8843179e-01
 -4.9434224e-04
 -1.5976695e-05
 -7.4530616e-02
  1.1724297e+00
  1.8288552e-05
  1.8634300e-01
  3.0551574e-01
  7.0173003e-02
  1.1663681e-01
  4.2649943e-05
 -7.8407575e-05
  2.5659791e-04
 -5.1573628e-05
  4.0646302e-04
 -2.1657454e-02
 -3.9624811e-05
  1.3420301e-06
 -3.7323646e-04
 -1.1697850e-05
 -1.9133595e-06
 -1.6458494e-05
  1.2547359e-05
 -1.9726702e-05
  2.8066077e-05
  5.5924196e-05
 -4.7925667e-05
  1.2259726e-05
 -1.4512484e-05
 -1.0356270e-03
  7.5471988e-05
  8.9005756e-05
  2.9579496e-06
  5.7949642e-06
 -1.1136744e-06
 -3.1090092e-06
 -7.6798104e-05
  2.4467920e-05
  1.3886621e-05
 -5.3818163e-05
 -2.9858516e-05
  1.0752432e-05
  3.6150507e-07
  6.9766160e-05
  6.8874874e-06
  3.6686394e-04
  1.7481623e-04
 -4.2870837e-05
 -2.2623030e-05
 -1.1076845e-04
  9.8484525e-06
 -5.8864890e-07
 -2.0465621e-05
  4.4867029e-05
  2.6570377e-05
  4.5987505e-05
  7.9200508e-05
 -1.9703946e-05
  2.4942834e-05
 -4.9487073e-05
 -1.8252729e-05
  1.0089216e-05
  7.4241616e-05
 -2.8504996e-04
 -4.2322581e-06
  1.2720820e-05
  3.6564543e-05
 -3.4437060e-06
  9.4267234e-05
 -1.1225476e-04
 -2.3032593e-05
  1.6107579e-05
  2.7164324e-06
  2.8158669e-05
 -6.5164037e-05
 -3.8676101e-01
  4.3142483e-01
  5.1760316e-01
 -8.7307578e-01
  9.4628364e-02
  8.4439352e-02
 -1.4418674e+00
  8.0898225e-01
 -2.1658574e-01
  3.6068223e-02
  5.5699301e-01
 -2.7218240e-01
 -1.2152792e+00
  2.8654096e+00
  2.1503314e-02
  1.8315405e+00
 -2.6427286e+00
  1.1500614e+00
 -1.4109339e+00
 -1.1863391e+00
 -1.2392992e+00
 -1.2993202e+00
  6.7000079e-01
  1.0878184e-01
  2.2423337e+00
  7.6605737e-02
  4.7341976e-01
 -2.3419045e-01
 -1.1901685e+00
 -2.9976395e-01
  6.8160760e-01
  3.9083749e-01
 -7.3551640e-02
  1.1856862e+00
 -5.1167864e-01
 -8.9868343e-01
  5.6702095e-01
 -1.0632412e+00
 -3.8661894e-01
  4.5330752e-02
  5.9352112e-01
 -1.2553146e+00
  1.7177323e+00
 -9.2402719e-02
 -1.1714873e+00
  2.2894807e+00
 -9.9169007e-03
 -3.4617525e-02
 -7.7943319e-01
 -1.2772685e+00
  4.7353947e-01
 -4.4531938e-01
  5.4840046e-01
 -8.9118663e-07
 -1.9311698e-05
  9.5488205e-05
  7.8996578e-05
 -3.0029982e-05
 -1.3006676e-04
  2.2404856e-05
 -1.0008884e-04
 -2.7815569e-05
  2.3503751e-05
  1.1579905e-05
 -1.4260550e-05
 -1.4781497e-05
 -2.8799144e-05
  2.5365080e-05
 -1.1545400e-05
  1.0025175e-05
 -1.2933707e-06
  4.2644624e-05
  5.5138560e-05
  2.3420132e-05
  2.7412805e-05
 -1.7028738e-07
  4.0401756e-05
 -2.5189442e-05
  4.7564943e-05
  8.4181220e-06
 -3.4867291e-05
 -5.6682816e-06
  1.1690647e-04
 -5.0180438e-07
 -1.0686145e-04
  2.2935614e-05
 -4.9137111e-06
  5.6097262e-05
  3.8161024e-06
 -9.0876063e-05
 -1.5083317e-05
  2.6492957e-05
  4.1961062e-04
 -6.9290836e-05
  2.6496032e-06
 -2.4003726e-05
  1.7930033e-05
 -6.2668096e-06
  7.4710813e-05
  5.4277556e-05
 -3.9633960e-05
 -1.3800594e-06
 -6.4759224e-05
 -1.7513063e-05
 -4.7267407e-05
  9.4843301e-05
 -4.3399996e-06
  3.0504025e-05
 -2.3871894e-01
 -1.8734852e+00
  7.7498043e-01
  1.1881373e+00
 -6.5493959e-01
 -8.5565996e-01
 -1.6975410e+00
 -2.2001901e+00
  8.5397428e-01
 -1.1506885e-01
 -5.0248689e-04
  1.1674655e-04
 -5.9183729e-01
  1.8476980e-05
 -8.4091581e-02
  3.2743385e+00
  1.8342572e-01
 -1.2557648e-02
  9.9243045e-01
  8.4649379e-05
 -6.4312706e-05
 -1.9193362e-02
  5.0359929e-05
 -9.7661548e-05
  9.9113036e-05
  5.1844494e-05
 -1.3585233e-04
 -6.3802735e-03
  3.4572902e-01
 -2.7899638e-01
  1.2467114e-01
  1.1362872e-04
  4.3278549e-05
  1.9830956e-04
 -4.6831323e-05
 -4.6593374e-01
  4.2171323e-01
  2.9994011e-05
 -3.5961887e-01
 -1.4696254e+00
 -6.9278979e-01
  4.8942852e-01
  1.2208295e+00
 -4.4034421e-01
  2.9375440e-01
 -6.9475374e-07
  7.7231064e-02
  3.9477469e-05
  5.9675669e-05
  3.6444064e-02
 -2.9515011e-02
  2.8799359e-05
 -7.0029569e-06
 -2.0224352e-05
  9.5131457e-01
  2.6498279e-01
 -1.2958820e-01
 -1.2916629e+00
  6.9922203e-01
  8.7461281e-01
 -7.5347006e-02
  1.2443449e+00
 -6.2627310e-01
 -1.5286114e+00
  7.6834971e-01
 -1.3696986e+00
  1.7811455e+00
  3.5717208e+00
  5.3610897e-01
 -9.2565793e-01
 -1.7041814e-01
 -8.8504440e-01
 -3.5589144e-02
  3.1114128e+00
 -8.3089584e-01
 -9.4807070e-01
 -1.3441493e-01
 -1.3674557e-01
  2.9317629e-01
  1.2812348e-05
 -1.2302008e+00
  1.2992084e+00
  6.8565840e-01
 -3.0007598e-01
  2.3863072e+00
 -5.4123443e-01
  1.6199251e-01
 -9.0421164e-01
  1.4428594e+00
  5.2461833e-01
  9.6737671e-01
 -1.2899713e-01
  1.1536148e-02
 -1.1999115e-01
 -5.7255661e-01
 -1.1468068e+00
  7.7907825e-01
  8.2651429e-02
  1.2285081e+00
 -1.6895739e+00
 -3.5329842e-05
  5.5460628e-02
 -1.3513699e+00
  3.6353579e-01
 -7.2495632e-06
  1.0966815e+00
 -7.5013435e-01
  4.6056539e-01
 -7.4528243e-06
  3.6506219e-06
  7.1381735e-05
 -2.9731938e-05
  1.9218543e-05
  6.8435504e-05
  1.5120759e-05
 -5.2713713e-06
  5.0175638e-04
 -1.7146460e-05
  3.4606932e-05
  3.5844645e-05
 -1.7800584e-02
  2.4152741e-05
  6.6018169e-05
  4.8531587e-05
 -2.1444377e-05
 -7.3510215e-05
 -1.3297752e-05
 -4.3055166e-05
 -9.6310055e-07
  2.2908584e-04
  2.7738290e-06
  2.7172184e-06
  3.7079950e-05
  1.9411618e-06
 -2.9056462e-06
 -3.7256789e+00
 -1.1622842e-04
  6.9690643e-05
 -1.1305655e-04
 -2.3476001e-05
 -3.4829562e-05
  4.6952831e-05
  2.0613572e-05
  7.2262395e-05
 -3.4847444e-06
 -2.6521935e-05
  2.7091844e-05
  3.0133499e-05
  2.1915710e-05
  5.6026106e-06
 -2.6705232e-04
  8.4613377e-05
 -2.8171480e-05
 -1.0790577e-04
 -1.1968586e-04
 -9.4868046e-05
  2.4010635e-05
 -6.8005531e-05
 -3.5718294e-05
 -2.6166491e-04
 -6.7033329e-06
 -5.7739123e-07
 -1.1209546e-01
 -1.7426979e-02
  4.4394037e-05
  6.8908888e-01
 -3.8335178e-02
 -3.8943272e-05
  1.4825473e-05
 -5.7645811e-05
 -1.6786007e-02
 -3.2199256e-05
 -6.0651200e-06
  1.7981607e-05
  1.1091757e-01
  1.8877094e-05
 -2.1123120e-03
  2.9071262e-01
 -1.2407942e-05
 -3.9729850e-05
 -5.5013685e-03
 -1.3324158e-05
 -2.8100350e-05
 -1.3579313e-01
 -8.5699881e-05
  3.6490751e-06
  1.3644392e-04
  2.4546334e-05
  1.6271488e-05
  5.5714434e-01
  8.8337176e-02
 -5.0399405e-05
  3.5915710e-04
  4.3590561e-02
 -2.5537508e-07
  1.1433175e-05
 -4.4650602e-05
  4.3570228e-05
 -3.9138489e-05
  6.3495900e-05
 -7.6482727e-05
  1.5893979e-04
 -6.1759933e-06
 -1.4188461e-06
  6.5501064e-02
  3.5377965e-05
 -3.5155915e-02
  1.9529316e-01
 -1.5181770e-04
  4.8389935e-05
  7.8376281e-05
 -1.1485044e-04
  2.0022368e-05
 -3.6944568e-04
 -8.1061895e-05
 -7.1288887e-05
  2.5512109e+00
 -1.1739096e-04
 -4.8333675e-01
  1.8297411e-05
  1.6066384e-01
  1.1469682e+00
 -6.1835180e-04
 -1.7266233e+00
  9.7019860e-05
 -3.6324585e-05
  2.2859889e-05
 -4.5996530e-05
  3.1500866e-05
 -2.2915830e-01
  3.0806325e-05
  7.1149868e-01
  8.1310673e-06
  7.1378100e-01
  1.9539072e-01
  1.9546200e+00
 -9.8529083e-05
 -1.0708215e-05
  5.7941043e-01
 -9.6679294e-01
  4.4468730e-03
 -2.4290225e-01
 -2.7438544e-05
  1.2298641e-01
  1.1336392e+00
 -9.5842463e-01
  2.3607762e-01
  4.5772584e-05
 -1.7037344e-01
 -2.9114500e-01
  3.9737421e-05
  2.6758209e-05
  3.1925538e-01
 -1.2350220e-01
  3.9174688e+00
 -3.2058495e-05
 -2.0954753e-01
 -2.1296859e-04
  1.9021258e-01
 -2.9129620e-05
  9.6411932e-01
  1.6156555e-05
 -7.4299900e-03
  2.4799530e-01
  1.1540946e-04
 -5.2167881e-01
 -4.0005139e-01
 -1.1077489e-04
  6.0169405e-01
 -3.3712119e-02
 -5.6485486e-01
 -1.3514171e+00
 -3.8120016e-01
  4.5194301e-01
  3.3079774e-05
  1.1648838e-05
 -2.1187469e-01
 -2.0982325e-01
  8.5403872e-06
  1.3929460e+00
 -8.0020621e-02
 -4.6056935e-01
  2.1060763e-01
 -1.2644148e+00
 -1.3936278e+00
 -7.9141384e-01
 -3.6607705e-06
 -7.8690961e-02
  4.3215212e-01
  1.0521228e+00
  2.9889598e-01
  5.6656736e-01
  1.5259176e-01
  4.1944614e-01
 -6.5073174e-01
  1.3619028e+00
 -3.6901900e-01
 -1.7073215e-04
  1.8569180e+00
  1.2508972e+00
  1.9557310e-05
 -2.6732310e-05
  2.1530113e+00
 -3.3094612e-01
 -1.0018332e+00
 -1.9885553e-01
 -3.4406307e-01
 -2.0712902e-01
  4.2311791e-01
  2.4230262e-02
  1.2715149e+00
 -2.7081786e-02
 -5.8253765e-01
 -1.0387501e+00
 -5.7862040e-02
  3.1677961e-01
  5.6311026e+00
 -3.1493217e-01
 -6.0807562e-01
 -3.8675186e-01
 -5.0545141e-02
  1.0938984e+00
  7.2016519e-01
 -7.3071080e-01
  2.9025006e+00
  5.8240449e-01
  8.3374500e-01
  3.5126194e-02
 -2.3655298e-01
  7.3792703e-02
  1.4165114e+00
 -7.1851283e-01
 -1.1184714e+00
 -2.0589421e+00
  4.9295303e-01
 -1.4028447e+00
 -7.5390786e-01
 -7.1616828e-01
  5.7440765e-02
 -1.7830987e+00
 -6.7220122e-01
  7.1034360e-01
 -2.2415044e+00
  2.5384337e-01
 -1.3285733e+00
 -4.5314950e-01
  6.0036153e-01
  8.5150045e-01
  2.0158343e+00
  1.9320475e-02
  6.6567355e-01
 -1.9648037e+00
  7.7050507e-01
  3.9158651e-01
  1.3182393e+00
  2.8140756e-01
 -3.7919885e-01
 -2.6933637e-01
 -1.9279629e-01
 -5.5570848e-02
  1.6749977e-01
 -8.8427043e-01
  9.2729917e-03
  9.6800655e-01
 -2.1870206e-01
 -1.5429550e-01
 -7.2314203e-01
  3.0043086e-02
  4.1414517e-01
  1.1942540e+00
  8.5459739e-01
  6.7334503e-02
 -1.1390399e+00
  5.0849072e-03
  9.6399361e-01
 -8.0370223e-03
  3.6729908e-01
 -2.4185548e+00
  1.4577278e+00
 -8.5290658e-06
  9.6041083e-01
 -1.4057952e+00
 -7.5885785e-01
  1.0495688e+00
 -1.3664063e+00
  8.9743622e-03
  1.3061655e+00
 -9.1238672e-01
  1.5511261e-01
  5.1350772e-02
  6.1981404e-01
  4.6628386e-01
 -3.3913657e-02
  5.8924756e-03
  3.3769518e-01
 -7.4013978e-01
 -5.8825964e-01
  1.0674287e-01
  5.4371201e-02
 -5.8858965e-02
  6.5588212e-01
  7.5149262e-01
 -1.8217283e+00
  1.7253348e-01
  1.3356703e-02
  1.8703994e-01
 -1.9921091e+00
  6.6764975e-01
 -1.0367550e+00
 -2.1022815e-01
  6.4357966e-01
  1.3142835e-03
 -7.4023950e-01
 -2.3736006e-01
  1.2352643e+00
 -1.7851537e+00
 -9.0636700e-02
  1.3511944e+00
  1.8184514e-01
  1.2203915e+00
  4.2348495e-01
 -1.0564462e+00
  1.2525679e+00
 -3.9265442e-01
  6.3407111e-01
 -1.5265672e-05
  1.5310252e+00
  3.9657530e-01
 -3.6767485e+00
 -8.3754516e-01
  1.1764615e-01
  9.8177171e-01
 -1.0182320e+00
 -1.4680997e+00
 -2.4376152e-01
  3.9058453e-01
  1.4689479e+00
  4.8660964e-01
 -1.8429849e+00
  1.5178978e-01
  1.8912529e+00
 -1.1609558e+00
  1.1016136e+00
  1.0208533e+00
 -2.7455790e+00
  1.4121701e+00
 -7.0476210e-01
  1.5737966e+00
 -1.4005935e+00
 -1.9378181e+00
  2.9128754e-01
  5.5346668e-01
 -5.3415006e-01
 -1.6148329e-01
  1.1919645e+00
 -5.1530027e-01
  1.0409744e+00
 -1.2326454e+00
  1.3521762e+00
  2.7588424e-01
 -4.4696391e-01
 -1.5051601e+00
  6.5851584e-02
  5.7257247e-01
 -8.5477096e-01
 -8.4799325e-01
 -2.0585136e-01
 -3.6426300e-01
  5.4325145e-01
  3.3994192e-01
 -2.3724847e-01
  5.2584124e-01
 -5.0762780e-02
  7.5268751e-01
  4.2789161e-01
 -1.9136006e-01
 -1.7651849e+00
 -1.9437291e-04
  1.2552896e+00
  8.3288141e-03
 -1.9361848e+00
  4.5636404e-01
  3.7720140e-02
  2.1519949e+00
  3.7989208e-01
 -2.0954852e+00
 -9.0265179e-01
 -1.2996901e+00
  6.6040260e-01
 -2.2088067e-04
 -2.0198958e+00
  2.6225954e-01
 -2.5188196e-01
  4.0712141e-02
  2.6422438e-01
  3.2206470e-01
  8.1129998e-01
 -8.6474068e-02
  2.2202775e-01
  1.5508475e+00
 -5.3354305e-01
 -2.5147631e+00
  3.9836711e-01
 -1.1357040e+00
 -1.4282086e+00
 -9.1709119e-01
 -1.2941935e+00
  1.2066538e+00
  2.4440067e-01
  4.3051448e-01
 -9.1925633e-01
  1.6821457e+00
  1.2604649e+00
  7.2025347e-01
  9.6179962e-01
 -8.9306377e-02
 -3.2070255e-01
  5.8148968e-01
 -4.7740662e-01
  4.9869284e-02
  6.4680958e-01
  6.1736602e-01
 -7.5723745e-02
 -1.2144979e+00
 -9.8258615e-02
  4.7588628e-02
  1.3783760e+00
  5.7552153e-01
 -4.5864427e-01
  1.6345415e-05
  3.9333758e-01
  1.3299717e+00
  1.3956810e+00
  4.2527542e-01
 -1.3244747e+00
 -1.4477931e+00
  7.1299279e-01
 -1.9473644e-01
  8.3296216e-01
 -1.2068399e-01
  1.8524016e-01
 -1.0852575e-01
  8.4287870e-01
  1.5459179e+00
 -1.0118710e+00
 -4.1717255e-01
 -2.8886530e-01
 -9.8976439e-01
  1.6247739e+00
 -8.5497655e-02
 -1.7205386e+00
 -1.4802444e-01
  1.9132496e+00
 -2.6361817e-01
  8.3823204e-01
  1.6978079e-01
 -1.5463713e+00
 -1.6698356e+00
  1.0885221e+00
  2.0679953e+00
 -2.8001082e-01
  2.5250545e-02
  6.2056673e-01
  1.5283990e+00
 -2.2596140e-01
 -1.1275312e+00
  6.3339436e-01
  4.0585870e-01
 -4.3377161e-02
 -6.8460330e-02
 -1.5944395e+00
 -4.4919807e-01
  6.4730686e-01
  4.9759427e-01
 -1.4298840e+00
  7.6251388e-01
 -6.1424917e-01
 -1.4632547e+00
  1.8335978e+00
  4.4730853e-02
 -2.4526648e-01
  5.6531429e-01
  1.3593721e+00
  5.3586078e-01
  2.9781020e-01
 -1.8902116e+00
  9.4376899e-02
  5.7057238e-01
  3.0601889e-01
 -1.7725378e-01
 -1.2923815e+00
 -1.5650537e+00
 -2.6887884e-02
  1.5095748e+00
 -7.7368832e-01
  5.0512892e-01
 -1.7600992e-01
 -2.4200122e-01
 -2.8408578e-01
  2.0489941e+00
  8.6387061e-02
  1.0991471e-01
  7.9869270e-01
  3.2143905e-03
 -1.0199091e+00
  9.8774868e-01
  2.2030392e+00
 -5.3986794e-01
 -4.2632070e-01
 -1.3306813e-01
  4.8143291e-01
 -5.3920513e-01
 -7.8083563e-01
 -1.1824821e+00
  8.8178575e-01
 -5.8400925e-02
  1.1021706e+00
  1.3874897e+00
  5.7276136e-01
 -8.8323343e-01
  9.1651964e-01
  1.9828419e-01
  5.9639090e-01
 -4.3854851e-01
 -7.8306520e-01
  1.6727172e-01
 -8.5727739e-01
 -6.2593049e-01
 -1.0384820e-01
  9.5119935e-01
  1.2731823e+00
 -2.4746103e+00
  2.2756012e-01
 -8.9549649e-01
 -3.6581550e+00
  1.4818298e+00
  2.1214862e-01
 -4.2723730e-01
 -4.6125641e-01
 -1.3977134e+00
  1.5402119e+00
 -2.3059411e+00
 -3.3440578e-01
  9.0853286e-01
  2.0687890e+00
 -2.6477344e+00
  5.3738719e-01
 -6.5643984e-01
  3.9145327e-01
  2.3016286e-01
  5.0693864e-01
  9.5916563e-01
  1.4851346e+00
 -8.1717622e-01
 -9.9352109e-01
 -1.3592733e+00
  4.6252364e-01
 -7.8033149e-01
  3.7453040e-01
  1.1757822e+00
  5.3703290e-01
 -3.2887670e-01
  1.9059193e+00
  9.0159208e-01
 -4.0322253e-01
 -5.3015125e-01
  1.6979599e+00
  5.9380418e-01
 -2.3910819e-01
  7.2033721e-01
 -2.1791646e-01
 -3.7007234e-01
 -1.2030900e+00
 -7.7857739e-01
 -1.0792733e+00
  1.0980588e-01
  8.3398722e-02
  2.4836648e-01
 -1.4818591e+00
 -3.0709660e-01
 -5.4074788e-01
  1.6897136e+00
 -4.5928910e-02
  6.1708993e-01
 -7.3230273e-01
  6.6841822e-05
 -2.8813037e-01
  4.3720549e-01
 -1.3135899e+00
  1.5676683e-02
 -7.3737162e-01
 -1.1065086e+00
 -2.3360674e+00
 -2.7573329e-01
 -1.8373998e+00
 -7.9711896e-01
  1.0419247e+00
  8.2193810e-01
  4.8803344e-01
  7.0938295e-01
 -1.4000825e+00
 -5.4864246e-01
 -4.5077360e-01
  1.7739598e+00
 -6.8258934e-02
  1.1683155e+00
 -1.1229634e+00
  9.8449147e-01
  6.3857991e-01
  6.9314665e-01
  2.8638723e-01
 -1.7807593e+00
 -6.5734315e-01
 -4.1921401e-01
  2.1350524e+00
  3.0755118e-01
  1.0892694e-01
  2.8318834e-02
 -3.1025644e-02
 -1.4510570e-01
  8.9883018e-01
  2.5432977e-01
 -1.6970379e+00
  1.6940854e+00
 -7.4913645e-01
 -1.9168706e-01
 -2.6777712e-01
  1.3904992e+00
 -4.9449828e-01
 -7.2316903e-01
 -6.3516349e-01
  6.4547944e-01
 -8.6385679e-01
 -2.5656576e+00
  6.3686353e-01
 -1.7806807e+00
 -7.5527781e-01
  3.1128433e-01
 -5.0305115e-04
  1.0952137e+00
  1.5816494e+00
  3.4805489e-01
  5.1498908e-01
  5.9210849e-01
  6.4331025e-02
  1.7360394e-01
  1.9172452e-01
 -2.1329803e+00
 -6.3336533e-01
  3.7696284e-01
  7.0008415e-01
  8.6568415e-01
  9.9284083e-01
  9.7838724e-03
 -2.3640494e-01
  1.3544227e+00
 -1.9916457e-01
  1.0285343e+00
  1.5911722e+00
  6.0857260e-01
 -7.0768329e-03
 -3.1997192e-01
  9.1093972e-02
  7.1484381e-01
  8.8750291e-01
 -5.5450499e-01
  1.1130666e+00
 -1.0957536e+00
 -1.2861389e+00
  4.6611911e-01
 -2.2211487e+00
  1.8557627e-01
 -5.9520155e-02
 -6.2572730e-01
  6.8512142e-02
 -9.6184820e-01
  1.1624036e-02
 -6.0504341e-01
  3.0862713e-01
  1.3017565e-01
 -8.0674064e-01
 -8.2971817e-01
  1.5552933e+00
 -1.0932102e+00
  5.8850521e-01
  1.6286575e+00
 -3.9123237e-01
  9.5000237e-01
  1.3608569e-01
  1.7636564e-01
 -4.9957147e-01
  1.7692351e-01
  9.3618959e-01
 -1.2397063e-01
 -6.3455206e-01
 -3.5135477e+00
  2.6531526e-01
  1.8776672e-01
 -8.1449896e-02
 -3.6607552e-01
  1.4821565e+00
  2.6640271e-05
 -8.6424723e-02
  1.3895073e+00
  1.4672683e+00
 -6.2355447e-01
 -1.7252567e+00
  3.2596633e-02
 -7.8975964e-01
  1.0105109e+00
 -1.4769036e-04
 -4.1867929e+00
  2.0194502e+00
 -3.4211800e-05
 -8.8064468e-01
  1.0352503e-01
  1.5732710e+00
  6.5755889e-06
 -1.6596117e+00
 -1.6474636e-01
  5.7022250e-01
 -8.2379661e-04
  3.1329817e-01
 -7.2088665e-01
  1.1048814e-01
  1.8350204e+00
 -2.5365720e+00
 -1.2435532e+00
  1.1686311e+00
 -1.2017791e+00
 -1.6857986e+00
  1.5938039e+00
  1.7611339e+00
 -1.3474917e-01
 -3.2626492e-01
  2.2511492e+00
 -1.2321075e+00
 -5.9783024e-01
  1.9483833e+00
  1.2940191e+00
 -1.1749999e-01
 -3.2516256e-01
  3.1145098e-02
  2.5271606e+00
 -4.1896019e-06
  5.0614074e-02
 -2.2592305e-05
  4.0229388e-05
 -1.9278574e+00
  2.7905527e-01
  1.6152442e+00
  6.7510456e-01
  1.3292340e+00
 -1.1962856e+00
  4.8747337e-01
  1.1831110e+00
 -6.4911914e-01
  1.2480494e+00
  3.3847126e-01
  8.1690180e-01
 -7.5885528e-01
 -3.1956604e-01
  1.2015686e-01
  1.0218291e+00
 -2.0721009e-01
 -4.9070346e-01
 -5.2556194e-02
 -2.3626475e+00
 -2.6662173e+00
  4.4243303e-01
  3.0677297e+00
  5.2055639e-01
 -8.5892266e-01
 -1.0228635e+00
  9.9768293e-01
  2.6665132e+00
 -1.2849207e+00
 -8.4659535e-01
 -2.1479738e-01
  1.5209420e+00
 -1.1901129e+00
 -1.5663050e-04
 -1.6992472e+00
 -2.5714731e-01
 -6.4505965e-01
  2.6838323e-01
 -9.8374003e-01
 -4.3899506e-02
 -1.0797235e-01
  1.0393807e+00
 -8.8470840e-01
 -9.2522681e-01
  4.9608094e-01
  1.0879101e+00
 -2.5869079e+00
  1.6533719e+00
  4.9072325e-01
 -1.2040335e-03
  1.1391122e+00
 -3.0945084e+00
 -8.5062438e-01
  3.9623387e+00
 -4.9278978e-01
 -3.7480211e+00
  5.4377341e-01
  2.8807086e-01
 -2.2311194e+00
  3.2090237e+00
  1.2843733e+00
  3.2857639e-01
 -1.0520115e+00
 -1.7877195e+00
 -1.2349468e+00
  8.9136928e-01
 -1.1081762e+00
 -3.0546405e+00
  1.9458560e+00
  1.9127969e-02
  2.4578351e-01
  1.3394876e-01
  5.4878289e-01
  1.3105856e+00
 -1.2031494e+00
  1.0541987e+00
 -5.6164467e-01
  4.0054393e-01
 -5.4140544e-01
 -3.4835687e-01
  4.1555639e-02
  5.7157981e-01
  1.1914283e+00
 -3.7111965e-01
  1.7294909e+00
  6.3518435e-02
 -7.9864597e-01
  1.7033134e-01
 -1.8312339e-01
  1.5781391e-04
  5.7426840e-01
 -1.9896897e+00
  1.9769512e-05
 -5.1591527e-01
  2.2721128e+00
  1.7349175e+00
  5.7660401e-01
  5.9050262e-02
  1.0423292e+00
  1.7172545e+00
 -4.0860787e-02
 -2.5914153e-01
 -1.5824414e+00
 -1.1519123e+00
 -1.0565203e+00
  1.3003596e+00
 -1.2747700e+00
 -1.5455159e+00
 -5.8402282e-01
  3.3651659e-01
  2.3698113e+00
  7.6195791e-02
 -1.9060843e-01
