nep4 2 C H 
cutoff 5 5 112 112
n_max 8 8
basis_size 12 12
l_max 4 2 0
ANN 50 0
 -4.4339336e-04
 -6.5960749e-06
 -5.5825299e-01
  3.4535633e-04
  6.7319088e-06
  1.0270244e+00
 -1.1026896e-04
 -9.6020543e-05
  2.4800834e-01
  4.6920645e-04
 -1.3560508e-04
 -6.0323562e-04
 -2.1206894e-05
  2.7699149e-04
  2.3836604e-01
 -4.5457535e-05
  9.0623714e-02
  6.3554564e-04
 -3.0213154e-03
  1.3618317e-04
 -3.1654816e-04
 -8.3521486e-04
 -1.3715083e-04
  8.5317623e-04
 -6.7168800e-04
 -8.2447741e-04
 -3.3819009e-02
  9.0153739e-02
  4.4717485e-01
  1.6209453e-04
  5.2777238e-02
  1.3488076e-04
 -1.1375957e-05
 -8.7153749e-04
  1.6495858e-04
  5.1293353e-04
  7.6632382e-04
 -4.5457279e-04
  1.0656395e-04
  5.7586672e-05
  1.8709454e-04
  6.6257472e-04
  1.3958004e-03
  5.1214181e-05
  1.4983727e+00
  1.0538886e-03
 -2.8000920e-04
 -9.6827158e-04
 -9.9261885e-04
  4.6308877e-04
  1.8593299e-04
  6.5874623e-04
 -9.7600912e-04
  4.6484591e-04
 -7.1976404e-04
  5.5429444e-04
 -3.4221605e-04
  1.1921867e-03
  1.7835753e-04
 -9.1786183e-05
  4.0802706e-04
  4.5376542e-04
  4.5508708e-04
  9.9062345e-05
 -1.4655186e-04
  2.9760742e-04
  4.6571589e-05
  6.0535053e-04
  2.9840914e-04
  2.0813124e-04
 -7.3457049e-05
  3.2172690e-04
 -2.4669358e-04
 -1.4935204e-04
  9.3851349e-04
 -5.9113884e-04
 -5.0150738e-05
 -6.1219172e-05
  1.9698131e-03
 -4.5097613e-04
 -1.6024780e-04
  6.3911039e-01
  1.8712379e-04
  5.8041471e-05
  3.9784968e-02
 -2.7118105e-04
  7.6013518e-04
 -4.4107824e-03
  4.2258095e-04
  1.1623794e-04
  1.1501853e-04
 -2.0454649e-04
 -6.8297800e-06
  4.7313169e-04
  1.9805551e-04
  4.2157230e-04
  1.8597577e-02
  8.1458733e-05
 -1.0899568e-04
 -1.0716388e-03
  7.1732292e-04
 -6.5351732e-04
  2.3735478e-04
  1.0610778e-04
 -1.8032243e+00
 -7.3735107e-04
  1.3181756e-04
  7.9788244e-04
 -3.6339173e-01
 -7.5183809e-02
 -2.8422123e-01
  5.9887612e-01
  2.9292138e+00
  1.6372877e+00
 -1.2982788e+00
  5.1685303e-01
 -1.4847010e+00
  5.9811246e-01
 -6.3007558e-04
  3.4930494e-01
  7.0994985e-01
  1.5186708e+00
 -2.5317314e-01
 -8.5486257e-01
  2.6569582e-04
  1.3586992e+00
 -1.5237502e+00
 -1.7133811e+00
 -7.0614403e-01
  1.6728830e+00
 -4.2019293e-01
 -4.6119414e-02
  9.9070352e-01
  9.7649890e-01
  3.5504279e+00
 -1.0590221e+00
  1.0205514e+00
 -2.2948143e-01
 -3.4239285e+00
 -7.0708597e-01
 -1.0168030e+00
 -1.0154725e-01
  8.3982950e-01
  1.1206238e+00
  6.7212415e-01
  4.2725745e-01
  5.4009551e-01
  5.5685055e-01
 -6.6918278e-01
  4.6442103e-01
  4.8445487e-01
 -8.7551421e-01
  9.4644749e-01
 -1.5588059e+00
  9.2109315e-02
  5.8488542e-01
  1.9855937e+00
 -2.1577754e+00
 -3.8548445e-04
 -1.0889469e+00
  4.8640874e-04
 -1.5350140e+00
 -4.1043785e-01
 -7.3657173e-01
  2.2986336e+00
  6.6240585e-01
  2.6946821e+00
 -6.3833272e-01
 -1.1560602e+00
 -6.6228229e-01
  1.8698223e+00
  7.5934787e+00
 -9.6284699e-01
  5.2304614e-01
  4.3125567e-01
 -1.9338129e+00
 -1.5786625e+00
 -3.0742636e-01
  9.1251671e-01
 -2.2658048e+00
  1.4998642e+00
  2.0893540e+00
 -1.8523366e+00
  1.0653812e-01
  1.3863763e+00
  4.0605845e+00
 -1.3324227e+00
 -2.5255913e-01
 -2.7744954e+00
  1.7944096e+00
 -5.0790334e-01
 -4.2302701e-01
 -2.5636368e+00
 -1.6123887e+00
  2.2598135e+00
 -1.0926026e+00
 -1.2124778e+00
  3.0907849e-02
  5.3255093e-01
 -8.7546086e-01
 -9.1957390e-01
 -1.5954462e-01
  5.5107296e-01
  3.3411002e-01
 -2.8896082e-02
 -1.6665868e-01
  9.3120933e-02
 -4.2269182e-01
  3.7401173e-01
 -2.5290329e+00
  3.9008514e-03
  2.0093995e-01
  3.6279788e+00
 -3.8539895e-01
 -4.4258028e-01
  5.9913174e-04
 -1.4265984e-01
 -1.2379817e+00
 -8.7098575e-01
  2.5224632e-02
  3.6434941e+00
  7.8741145e-01
 -4.4776969e+00
 -3.1149232e-01
 -1.3689462e+00
 -1.0485888e-04
 -2.7817601e-04
  7.7689003e-04
  9.6008145e-05
  1.3771276e-04
  6.6820961e-05
 -8.3304924e-04
 -1.7767931e-04
 -3.6905330e-04
 -1.3497682e-01
  1.0793002e+00
  3.3134595e-03
  1.7601966e+00
 -3.1703812e-01
  4.8362932e-01
  1.5826823e+00
  1.6229668e-01
 -1.5109699e+00
 -1.2370548e+00
 -1.1719081e+00
 -6.5805099e-04
 -2.2652524e+00
  7.5041538e-04
  1.0624483e+00
 -3.8383457e-01
  7.1229398e-01
  8.5764291e-04
  1.7099011e+00
 -1.6244549e+00
 -2.2945997e-01
  2.4493461e+00
  6.4340377e-01
 -1.5132735e-03
  9.1568834e-01
 -1.3409993e-04
 -3.6068866e-03
  6.9256979e-01
 -3.1462216e-05
  2.7792496e-04
 -2.1821598e-03
  9.7418594e-04
  2.8831004e-05
 -1.2409642e-03
  1.7254437e-04
  3.1955238e-04
  4.1892193e-04
 -1.3831485e-04
  1.7718843e-04
  4.6449219e-04
  2.0753425e-05
 -3.7205478e-05
 -4.9586539e-05
 -7.5702643e-04
  9.7462849e-05
  1.9462086e-03
  1.0218452e-04
 -1.1398080e-03
 -6.5872102e-04
  8.3046907e-04
 -4.7753365e-05
  4.7428531e-04
  2.0439854e-04
  6.3539199e-05
  1.3124775e-05
 -3.5826478e-04
  6.7031497e-06
 -1.3340854e-03
 -6.7880878e-04
 -1.4554671e-04
 -8.7810622e-04
 -4.1865819e-04
 -1.6954629e-03
  5.5871095e-04
  6.0466587e-06
 -2.0879922e-03
 -3.4726231e-04
 -3.5043849e-04
 -2.9211413e-04
 -4.5658779e-01
  4.5921290e-04
  1.9916006e-04
  1.7523297e-04
  5.0837855e-04
  1.7804863e-04
 -7.7631581e-04
 -1.0868590e-03
 -6.6057098e-04
  5.3227413e-04
 -2.7719393e-04
 -5.5227720e-05
 -3.1601093e-03
  7.6966120e-05
 -5.9993297e-04
 -3.0863818e-04
 -9.3681883e-05
 -1.4865609e-04
 -7.5745935e-05
  2.8095761e-04
 -3.9025770e-05
  6.3789195e-01
  5.0427175e-01
  2.2163272e-01
  5.1757938e-01
  1.3710040e+00
 -1.9120539e+00
 -1.5155526e+00
  2.3524215e+00
 -1.0720187e-01
  5.7312083e-01
 -6.1930101e-02
  1.5821860e-03
 -3.2984119e-04
 -6.4503187e-01
 -4.4280550e-01
  1.0491238e-04
 -3.9438424e-03
 -1.2111030e+00
  9.8222375e-01
 -4.8905581e-01
  1.2035415e-01
  1.7259710e+00
  1.2212791e+00
  9.6530783e-01
 -6.5809035e-01
 -1.0325861e-03
  1.5553168e+00
 -3.5147250e-01
 -2.0484765e+00
  8.2304067e-04
  1.8729435e+00
  2.4640286e+00
 -8.2933617e-01
  5.6375676e-01
  4.4304445e-01
  8.2911327e-03
  2.2812617e+00
  2.9366357e+00
  1.9407781e+00
 -1.9577398e+00
  4.2000622e-01
  1.1947744e-01
 -2.4399027e-04
 -3.7166649e-01
 -4.4833934e-01
 -4.3439513e-01
  1.3293415e-04
 -6.2281340e-01
 -2.3128226e-01
 -2.0307077e-03
 -1.4366440e-01
 -2.9835240e-03
 -1.3743198e-03
 -6.5803993e-05
  8.1242907e-01
  2.2634718e+00
  1.5628253e+00
 -1.2021074e-01
 -1.9795244e+00
 -1.3609155e+00
  3.6809809e+00
  1.4381243e+00
  9.5441520e-01
  2.8386146e-01
 -1.5245989e-03
 -1.1593096e-03
  2.4693274e-01
 -6.1886822e-04
 -7.2659051e-01
 -9.3816849e-04
  2.0307684e+00
  3.6013678e-02
  5.3424871e-01
 -2.2601615e-01
 -9.8686045e-01
  1.9758890e+00
 -1.7641826e-01
  1.1273594e+00
 -2.5118861e+00
  1.4056918e-01
 -2.0669596e+00
 -9.6695256e-01
 -7.7438158e-01
  1.6789746e-01
 -1.7085497e-01
  2.5439887e+00
  1.4901272e+00
 -3.0515319e-01
 -1.0016595e+00
  7.1258533e-01
  1.5843139e+00
  2.2909470e+00
 -3.1321564e-01
  4.5142749e-01
 -1.4962552e+00
  3.7316661e+00
 -2.7226937e+00
 -2.3017919e+00
  4.2747397e-02
 -1.3203002e-04
  1.8113693e-02
 -2.3900013e-04
  1.2397726e+00
 -9.7298631e-03
  2.7628839e-01
  8.8970065e-01
 -2.8855365e-03
 -2.9416955e+00
 -1.0063454e+00
 -1.3478960e-01
  5.3199965e-01
  1.0630178e+00
 -3.2799160e-01
  2.1162117e-02
 -2.2448080e+00
 -1.5157722e+00
  6.0133177e-01
  2.0929179e+00
 -1.0254375e+00
 -7.5819522e-01
  4.8044240e-01
  5.2319411e-02
 -4.7983202e-01
 -1.8448690e+00
  1.4057511e-01
 -2.5228214e-01
  3.0255842e-01
  6.8731290e-01
 -8.3107740e-01
  8.0655515e-01
  5.5984527e-01
  1.8479080e+00
 -1.2748656e-01
  3.8406160e-01
  1.7152107e+00
  9.9028170e-01
 -9.0643978e-01
 -2.4927294e+00
 -1.4383779e+00
  2.2606962e+00
  6.3613348e-02
 -5.9380251e-01
 -1.8577359e+00
 -8.1214625e-01
  1.5484537e-01
  1.5684491e+00
 -2.3706697e-01
 -9.4367325e-01
  4.0174990e+00
 -6.5136306e-02
 -7.7062708e-01
 -1.5687326e+00
  1.7637058e+00
  3.7971419e-01
 -3.1541783e-01
 -8.7015852e-02
 -6.2147796e-05
  1.9998649e+00
 -8.1861228e-01
 -2.3685996e-01
  5.3171243e-04
  1.9493649e+00
  3.1660116e-01
 -7.8123951e-01
 -1.5228128e-01
  9.3600392e-01
  2.6643294e-01
 -2.3258017e-01
  7.5708401e-01
  4.2179817e-01
 -5.8819611e-02
  1.7497826e+00
  1.1512500e+00
  2.7511559e+00
 -2.6476139e-01
  2.9862604e+00
  1.7028418e+00
 -1.3631427e+00
 -4.3900785e-01
 -1.9271773e+00
  8.5791278e-01
  3.9593193e-01
  1.2887253e+00
 -9.4573122e-01
 -1.2731992e+00
  2.8601229e-01
 -2.2625412e-01
  2.2563745e-01
 -6.5913033e-01
  7.7546805e-01
 -2.7502084e-01
 -1.9033281e+00
  4.7183648e-01
  1.2334189e+00
 -3.8250688e-02
 -1.0769275e+00
 -6.6871309e-01
 -1.6600630e+00
  5.2906066e-01
 -4.8813426e-01
 -1.2612137e+00
 -7.5362372e-01
 -1.1480265e+00
 -2.1275041e-01
 -1.4929447e-01
 -2.0013382e+00
 -7.0756888e-01
  1.0827121e+00
  3.5007626e-01
  2.4641791e-01
  2.1626770e+00
  8.5125536e-01
 -4.9545113e-02
 -2.2900610e+00
  5.5701011e-01
  6.3988411e-01
  2.4107261e+00
 -3.5132816e-01
 -2.4253960e+00
  1.9013040e+00
  1.4927716e+00
 -4.6380991e-01
 -1.0121666e+00
 -6.6091275e-01
 -1.9173831e+00
  1.9274765e+00
 -2.0734836e-01
  2.6091849e-02
  1.9022861e+00
  1.1541584e+00
  2.5781423e-03
 -1.0845184e+00
 -1.0703932e-01
  1.2997937e-01
  2.5311511e+00
 -8.0657762e-01
  7.3256224e-01
  8.6578077e-01
 -2.4848427e-01
 -4.1178346e-01
  7.1645045e-01
 -1.9748665e-01
 -3.3148393e-01
  1.2888874e+00
  1.9488275e+00
  9.4061399e-01
 -2.4653417e-01
 -2.5812450e-01
  9.3426466e-01
  1.6454326e+00
  1.7737910e-02
  4.6367660e-02
 -2.1587338e-01
 -8.7226786e-02
 -2.7266154e-01
 -1.1729545e-02
 -5.3265993e-02
 -1.3003778e+00
  1.6102972e+00
 -1.5315605e+00
  4.1734555e-01
  8.8202393e-01
  4.5249425e-04
 -4.9382955e-04
 -1.3951254e+00
  3.9635670e-01
  7.9774552e-05
  6.1962202e-02
  1.9888388e-01
  1.3738526e-01
 -2.9404455e-01
 -1.1866258e-01
 -2.5818934e+00
 -1.2526324e+00
 -2.9362884e+00
  2.1266957e-01
  1.4013011e+00
  3.8845410e+00
 -8.0189663e-01
  7.8597790e-01
  6.9083625e-01
 -2.0961048e-01
 -1.1716390e+00
  2.8781165e-05
  1.0267068e-01
  2.6699831e-04
  3.1483656e-04
  1.0417452e-01
 -8.7868780e-01
 -9.8645020e-01
 -1.2861983e+00
 -5.1260251e-01
  6.7864174e-01
 -1.0361710e-02
 -3.2435760e-01
 -7.7124482e-01
  3.8757139e-01
  1.0207082e-01
 -1.0403523e+00
  1.7243414e+00
  5.5206364e-01
  2.9485202e-01
 -8.7644684e-01
 -2.2245318e-01
 -2.6156777e-01
  1.0170593e+00
 -2.3104541e+00
  2.6422713e+00
 -7.7848475e-05
 -4.5298219e-01
  1.8587758e-04
 -2.0769263e-04
 -1.2892332e+00
  2.7573371e+00
  6.5502626e-01
  4.9313411e-02
 -1.1265031e-03
  7.3603797e-04
  3.1633979e-01
 -1.0939734e-03
  5.8025646e-04
  1.2530230e-01
 -1.3515471e+00
  1.4849422e-02
 -9.7267461e-01
 -6.7749292e-01
 -5.1644492e-01
 -1.0060047e+00
 -5.7818361e-02
 -3.5733569e+00
  5.7995385e-01
 -1.0815645e+00
  2.3057166e-01
 -1.2633829e+00
  4.4427547e-01
 -4.7258550e-04
  3.4407361e-03
  4.2348146e-03
  1.3470824e-01
 -1.9964478e-04
 -3.5428908e-02
  1.0574509e-04
  1.6095415e-01
 -5.2924469e-02
 -9.1540843e-01
  1.6685333e+00
 -1.7817194e+00
 -3.2489941e-01
  4.3304875e-02
  2.4039673e-02
 -7.8313448e-02
 -6.0850218e-02
 -2.2487087e+00
 -2.7961475e-01
  1.2394900e+00
  2.5248417e-01
  2.7096496e+00
  3.0144043e+00
  1.5263270e+00
 -2.0495784e-02
 -2.5708635e+00
  5.0676382e-01
 -2.1191853e-01
 -1.6315826e+00
  1.6843525e+00
  6.7612284e-01
  5.9962350e-01
  7.3784947e-02
 -1.0768627e-01
  1.2242658e-01
 -7.3877770e-01
  5.6616902e-01
 -1.7402369e-04
 -3.4152027e-04
  1.2621780e-02
  7.3240489e-01
  3.9866993e-01
  8.8124156e-01
 -5.8402914e-01
  2.1094074e+00
 -6.3768941e-01
  1.4076935e-03
  7.2566319e-01
 -1.6099128e+00
 -3.2206416e-01
 -2.2219956e-01
  1.5953867e+00
 -6.2359482e-05
  7.9559111e-05
  8.3641335e-04
 -2.4078132e-04
 -7.4203985e-05
 -1.4963825e-06
 -5.1803534e-05
  2.7418390e-04
  6.6560472e-04
 -2.2078310e-01
 -6.0816426e-02
 -1.8685861e-01
  4.4174588e-01
 -9.6726889e-04
 -2.4410601e-01
 -1.0461730e+00
  1.1843102e-01
 -1.0572863e-02
 -2.9185989e+00
  1.9273908e+00
 -1.0293527e-03
 -1.0950502e+00
  5.7341673e-05
 -3.4771997e-02
 -7.6185930e-01
 -2.0255873e-04
  1.5142362e-04
 -3.5233725e-02
 -5.7762023e-02
 -1.4581934e-03
 -4.7299209e-01
 -1.8869273e-02
 -3.2712856e-01
 -1.1175967e-01
  6.8427194e-05
  3.1014934e-01
  7.7143453e-02
  7.0710818e-04
 -2.7252140e-04
  3.5495057e-05
  6.5572181e-04
 -6.9189191e-05
 -6.9483696e-04
 -2.4950519e-04
  5.7402664e-05
 -1.8019022e+00
 -9.9863791e-01
 -5.8874589e-01
  1.7535802e+00
 -1.1073954e+00
  1.8679031e+00
  1.2251527e+00
  1.5586271e+00
 -7.8641050e-02
 -2.4102650e+00
 -7.2046567e-04
 -1.1250435e+00
 -1.2120852e+00
  3.0199593e-02
  8.3922404e-01
 -9.9925708e-04
  9.9221349e-01
 -3.0748972e-01
 -6.8380868e-01
 -6.8297386e-01
  1.0314598e+00
 -1.6832067e+00
  1.1699165e+00
  7.9667914e-01
 -4.1402638e-01
 -4.6138185e-01
 -3.3058250e-01
 -3.4266546e+00
 -2.2851148e+00
 -7.4350667e-01
  5.7801503e-01
 -1.3910119e-01
  7.1992487e-01
  3.7754527e-01
  9.4976908e-01
 -1.3718975e+00
 -6.2864825e-02
  1.2426429e+00
  1.6695145e+00
 -8.8687617e-01
  1.4934087e+00
 -4.2570609e-01
 -1.1459200e+00
 -6.0423788e-02
 -9.9274784e-01
  6.9553159e-02
  3.3035586e-04
 -5.7977492e-01
  9.5287972e-04
  7.9802106e-05
  4.1452080e-02
  4.4345260e-03
 -5.5354863e-04
  5.3392893e-01
 -5.6822670e-01
  3.6337233e-01
 -6.6546762e-01
 -2.2554648e+00
  9.7882497e-01
  1.7773858e+00
  1.5439460e+00
  6.6573834e-01
 -1.1405885e+00
 -1.6557945e+00
  1.6680227e-04
  1.8253825e+00
 -2.8991073e-04
 -3.6845074e+00
  3.8566465e+00
 -5.5040044e-01
 -1.3107069e+00
 -9.7916353e-01
 -2.2976410e+00
  9.5316434e-01
  8.8882864e-02
 -3.2366656e-02
 -2.2031910e+00
  3.0300528e-01
  2.4743202e+00
  9.9262148e-01
 -4.5826453e-01
  1.6431931e-01
  4.5192237e+00
 -6.0710227e-01
  4.5086828e-01
 -1.6986361e+00
  5.7815063e-01
  2.8440395e-01
 -9.6989929e-04
 -3.8535795e+00
  1.6324135e+00
 -2.8788247e+00
 -1.0141861e+00
 -3.7045628e-01
 -1.8806202e+00
  9.0870231e-01
 -7.7376616e-01
  1.1448864e+00
 -1.7435303e+00
 -5.4378438e-01
 -1.8699111e-04
  1.7422453e-03
  9.5888734e-01
 -6.3465759e-02
 -5.5746031e-01
 -1.8090595e-01
 -3.6311042e-01
 -4.1034746e+00
 -8.4206194e-01
 -1.8028749e+00
  1.4159392e+00
 -2.5656232e-01
  5.1978409e-01
 -1.9604924e+00
  2.4792418e+00
 -1.4192556e+00
  3.4912130e-01
 -4.5788088e-03
 -3.6913115e-03
 -5.8840164e-05
 -2.6106776e-04
  4.0313769e-02
 -3.1868959e-04
 -5.1858697e-05
 -5.0120525e-05
 -1.5926431e-04
  2.4254320e+00
 -7.5559127e-01
  2.0827040e-01
 -3.9800375e+00
 -1.9964418e+00
  6.9432539e-01
 -5.8986402e-01
 -8.9481415e-04
 -8.7073460e+00
  8.4243424e-02
  2.3064620e+00
 -1.2215900e-03
  3.1736965e+00
  1.1745547e-03
  3.9962553e-05
  2.4008034e-02
  1.8399502e+00
 -6.7713834e-02
 -2.8577100e-05
  8.0056830e-05
  1.2582527e-01
 -3.9947358e-01
 -3.2391563e-02
 -1.4763756e-01
  5.0998881e-04
 -2.9156951e-04
 -2.7601591e-01
 -8.6856191e-04
  1.1059058e-04
 -3.7393914e-04
  3.8458090e-03
  8.8962275e-05
  1.4749590e-04
 -2.9133150e-04
  2.9761027e-04
  8.2074729e-04
  5.2982444e-01
 -6.2996864e-01
 -3.1461138e-01
  9.9663401e-01
 -1.3645713e+00
 -8.2267350e-01
 -8.6708263e-02
  3.8076001e-01
 -1.4301230e+00
  1.1144629e+00
 -2.2319806e-04
  7.9245079e-01
 -4.7024856e-05
 -3.1815916e-01
  1.6987893e-01
  1.5087935e+00
 -8.3047479e-01
 -8.4980136e-01
 -2.7025425e-01
 -1.6154921e+00
 -6.1569858e-01
 -7.8464180e-01
  1.2768604e+00
  1.0566552e+00
 -1.4462819e+00
  7.2512025e-01
 -1.0509919e+00
  1.9086231e-01
 -1.4590125e+00
  9.3804739e-02
 -1.6060099e-01
 -6.7297274e-01
  9.8926789e-01
 -5.5756563e-01
 -2.2628033e+00
 -2.8855661e-01
  2.2831745e+00
 -2.5872320e-01
  2.2700446e+00
 -8.6086565e-01
  3.0368059e+00
 -2.0366588e+00
  6.8478294e-02
  1.0455383e+00
  4.6589115e-01
  1.0714372e+00
  2.3456128e+00
 -7.2798485e-01
  1.7032548e+00
 -1.7900352e-01
  1.1470807e+00
  1.5031378e-01
 -2.9298556e-01
 -8.6722940e-01
 -1.7225412e+00
 -3.1725284e-02
  5.5672830e-01
 -1.3507553e+00
 -1.4535758e+00
  2.9118630e-01
 -3.6981505e-01
 -2.2595397e-01
  1.2125355e-01
 -1.5201844e-01
 -2.3364142e-04
 -8.0150604e-04
  1.3280398e-01
  9.1510679e-04
 -3.9643067e-04
 -4.7065885e-05
  2.5589308e-03
  3.2273568e-03
 -2.1324847e+00
 -2.8743098e+00
  1.8515027e+00
  8.6939317e-01
  2.2406883e+00
 -1.6350076e-01
 -9.6567601e-01
 -1.4375405e+00
  2.5089692e-02
 -9.2038155e-01
 -7.1424469e-03
  1.4407390e+00
 -6.5593813e-03
 -3.3495642e-04
 -3.4163961e-01
  9.4908023e-01
 -1.4723208e+00
  2.2948565e-04
  4.0290079e-01
 -9.7834483e-02
  2.4111249e-02
  3.2597762e-01
  2.8343740e-01
 -3.9652333e-01
 -4.3592343e-01
 -8.9617097e-05
  2.4998640e-03
 -2.3205929e-01
  1.0597268e-03
 -1.9655457e-04
  2.6259264e-03
 -2.5727322e-02
 -1.9510469e-04
  4.6457659e-05
  2.8454626e-04
 -2.5289228e-02
  9.7114294e-05
  2.8193515e-04
  1.7443449e-04
 -4.9753382e-04
  6.4980159e-06
 -4.1838691e-02
 -4.2437570e-04
 -1.5981585e-03
 -4.5740933e-04
 -5.7899870e-04
  2.8478735e-05
 -4.9702788e-04
 -6.1541877e-04
 -8.7034023e-05
  3.5798323e-04
  2.8420141e-04
  3.8491690e-04
 -2.2291651e-04
  5.7449299e-01
 -6.2302535e-04
  7.9270481e-05
  3.6830208e-04
 -6.7048986e-04
  2.3083263e-03
 -9.2485257e-05
  1.7683196e-04
  1.8219058e-04
  1.1432647e-04
 -8.0572999e-01
 -4.3201732e-04
  3.9797527e-04
 -2.5468966e-04
  4.4186370e-05
 -1.0307698e-02
 -6.6197768e-05
  5.6332524e-04
 -2.3678082e-04
 -6.9790555e-04
  2.5072501e-05
  1.4483731e-03
  4.5993252e-04
  2.9960644e-04
 -3.9968628e-04
 -1.6760563e-04
  5.7910784e-04
  4.9674988e-04
  1.0485764e-04
  2.5265428e-04
 -4.4465266e-04
  7.4550643e-04
  1.7188814e-04
 -1.9056210e-04
  4.2607131e-05
  1.9805596e-04
 -1.4291961e+00
  1.9272752e+00
  1.0591177e+00
 -8.0481315e-01
 -5.1782150e+00
 -1.2700293e+00
 -9.8142695e-01
 -3.8876015e-01
 -1.8985902e+00
 -1.0460450e-01
  1.2859604e-03
  8.4940746e-02
 -1.3162570e+00
  2.7170072e+00
  1.3139625e+00
  7.9748333e-03
 -2.4690821e+00
  8.5262506e-04
 -5.8788317e-01
  1.5624379e-02
  1.2646136e-01
 -6.6082913e-01
  1.4854871e+00
 -1.3053715e+00
 -8.5952783e-01
 -5.8746904e-01
 -3.0374184e-01
  1.6417625e+00
 -1.6509060e+00
  3.5787904e-01
 -1.5567431e+00
 -1.1303633e+00
  9.1213584e-02
 -4.5230988e-02
 -3.3326249e+00
  3.4323341e-04
  2.0952754e+00
 -8.5808891e-01
 -9.6622426e-03
  1.1295725e+00
 -9.9394459e-01
 -4.2816159e-06
 -3.6047859e+00
  6.2234718e-01
 -3.2689314e+00
 -6.8431759e-01
  1.3629223e-05
  3.8175949e-01
  3.9696824e-04
 -2.9661611e-04
 -9.0215975e-01
  4.6162462e-04
  4.3224678e-05
  6.3578054e-02
  1.5029721e-01
 -2.6191616e+00
 -1.3834393e-01
  9.9340516e-01
 -2.6964178e+00
 -1.1503587e+00
  2.6044772e+00
 -1.0309409e+00
 -3.3798490e+00
  5.6491005e-01
 -3.7934736e-04
  7.1833166e-04
 -2.4478586e-04
 -1.7413309e-04
 -4.9803057e-04
 -1.0465206e-04
  6.2554417e-04
 -9.2567694e-05
  1.9948875e+00
  8.8812548e-01
  1.5964535e-01
  2.2125719e-01
 -2.4149457e-03
  8.5143578e-01
 -5.0526792e-03
 -3.0190498e-01
 -2.9938689e-01
  1.0236449e+00
 -3.4388640e+00
  5.0697756e-05
 -7.7498543e-01
  1.9821536e-03
 -6.6890422e-04
  4.3949461e-01
  7.2935800e-04
  3.0974322e-04
  1.1337389e+00
 -8.1937701e-01
  3.6982133e-04
  5.5736013e-02
 -8.9682750e-03
  1.4133221e-01
 -8.6887479e-01
  6.2714416e-01
  1.9733867e-04
 -2.4775225e-05
  5.1291200e-04
 -1.5375921e-06
  3.0965745e-03
  6.9625495e-04
 -1.0005068e-03
 -4.5037759e-04
 -1.3084285e-03
 -3.7478865e-03
  6.0938345e-04
  4.1842162e-05
  2.2227407e-04
 -2.4788445e-05
 -1.4751460e-04
  2.4083727e-04
 -3.0404073e-05
  8.7329373e-04
 -7.9558633e-04
 -6.9250207e-04
 -2.5439198e-04
  2.1876996e-04
 -1.2852685e-04
 -7.3190453e-04
 -3.3362077e-05
 -9.7677845e-04
  1.5634682e-03
  8.8251931e-05
 -5.0623674e-04
  4.9530773e-04
  1.3040366e-03
  6.6102744e-04
 -5.4157485e-04
 -7.5725293e-05
  4.1923494e-04
  4.3520615e-03
  3.7033844e-04
 -3.5883137e-04
 -5.1196152e-04
  1.4783354e-05
 -1.1894386e+00
 -2.4115630e-04
  3.4450847e-04
  4.7199818e-04
 -5.1399926e-04
  2.2067712e-04
  1.1249267e-03
  1.0336171e-03
 -1.8592970e-04
 -1.0438418e-04
  9.6618423e-05
  2.1343699e-04
  6.1500716e-05
  6.6037942e-04
 -2.1990969e-04
  1.3193800e-04
  1.7880407e-04
 -1.0673341e-03
  5.4571492e-04
  3.4708422e-04
  2.4567868e-04
  3.7754196e-04
 -1.3643888e-05
  1.9467645e-04
 -1.8456330e+00
  1.3677481e-01
  7.0201069e-01
  3.6910564e-02
 -1.3322440e-01
 -1.9496719e+00
  3.1535923e+00
  5.8347398e-01
 -1.6736850e-01
 -6.1630493e-01
 -1.0630757e-01
 -7.2015274e-01
 -1.8500231e-01
 -1.1564536e+00
 -2.3935208e+00
  1.5910878e+00
  9.1261007e-03
  2.3361082e-01
  2.2087207e+00
  1.4005764e-02
 -4.0318179e+00
  5.6184989e-01
  3.6976281e-01
  6.3852167e-01
  1.8164592e+00
 -6.6831615e-03
 -2.0694695e+00
 -5.8434361e-01
  1.4025100e-01
  1.1966747e-01
 -6.5531641e-01
  7.4662113e-01
  1.3267565e+00
  3.5935402e-02
  4.8987217e+00
  7.8315807e-06
 -5.5397582e-01
  2.0519488e+00
  1.7833053e+00
 -9.5757085e-01
  2.6859937e+00
  8.1872547e-01
 -6.5189594e-01
 -1.0279123e+00
  4.8588898e-02
 -8.3056492e-01
 -3.7030849e-01
 -3.4378695e+00
 -1.2538000e+00
  3.6137235e-01
  9.7704714e-04
 -1.7759870e-03
 -4.1751040e-04
 -5.4102522e-01
 -9.8596168e-01
 -6.2148595e-01
  1.0780957e-01
 -1.5214863e+00
  3.4244701e-01
  1.8761712e+00
 -2.0344114e+00
  1.0208337e-01
  9.0305179e-01
  2.7987792e+00
 -1.9314894e-03
  3.5310470e-04
 -5.9204055e-03
 -3.8284417e-03
 -3.6231456e+00
  1.2069653e-03
  1.8859879e-03
  5.8864139e-04
  7.0090717e-01
 -1.3362417e+00
  7.3651344e-02
  1.3400983e+00
 -6.8319952e-01
 -7.6796782e-01
 -2.3092367e-01
 -2.8454730e-01
  1.3841951e+00
  9.9538928e-01
  7.0624650e-01
  2.0623749e-01
  5.9944350e-01
 -2.4843063e+00
 -1.2170819e+00
 -5.8222616e-01
 -2.4994038e-01
  1.1769522e+00
  1.0493293e-01
 -3.7879905e-01
  1.4221252e+00
 -5.2569878e-01
 -5.3542578e-01
  6.2154138e-01
 -1.2368551e+00
 -2.3318236e-01
  3.1967251e+00
  2.0752097e-03
  6.3664854e-01
 -4.3521956e-01
  3.1105722e-03
  4.2291317e-04
  1.1730343e-03
 -1.0539776e-03
 -1.7849942e-01
 -1.4738035e-03
  2.1391931e+00
 -1.8004500e+00
  1.3279025e-02
  1.1936003e+00
 -2.2423376e-01
 -1.3555481e-01
 -2.2088637e+00
 -2.4215209e+00
  3.8367116e-01
 -3.5362688e-01
 -8.7518842e-05
 -5.5806839e-01
 -3.1811802e-04
 -5.6774527e-02
 -1.1966659e-02
  2.9129958e-02
  3.1799483e-03
  4.4772873e-04
  3.6251840e-01
  4.0795214e-02
 -1.6652482e-03
 -2.6087052e-01
 -2.2802329e-05
 -9.2830061e-07
 -2.5540176e-01
  4.9878642e-02
  8.5252196e-01
 -1.2302543e+00
  9.8807955e-01
  1.5841324e-04
  2.0035684e+00
  3.0666108e-03
 -1.7965252e-04
 -2.7255517e-01
  9.7637862e-01
 -5.9771095e-04
  1.6713382e+00
 -8.4915227e-01
  2.9979581e-01
  7.0063525e-01
  1.4562544e-01
 -1.5140949e-05
 -6.8020768e-02
 -1.9154134e+00
 -4.9270166e-04
  1.4073559e-04
  5.6882494e-04
 -4.3309357e-02
 -7.9530437e-04
  5.2394153e-04
  1.0950086e-04
  1.3957878e-04
 -3.8704983e-04
 -3.3566412e-03
 -3.0384706e-03
  2.9670965e-04
 -9.2813524e-04
 -7.5757253e-04
  3.5421347e-04
  1.1270973e-03
 -1.1264969e-04
  5.8275671e-04
  1.1654269e-04
  9.9968165e-04
  9.1577327e-05
  5.0798565e-04
 -1.0200220e-04
  1.2254246e-04
  1.4445838e-04
 -5.7785166e-04
  2.7325290e-04
  3.5582478e-05
  5.8233377e-04
  7.9902318e-05
 -8.8951207e-04
  1.7422074e-04
  3.9970293e-04
  5.9821607e-05
 -2.3366998e-04
 -2.0798574e-04
 -1.5086173e-04
  5.6049641e-04
  2.2323486e-04
  2.4946856e-05
  9.8034588e-04
 -1.3004960e-03
 -3.4779569e-04
 -3.4455842e-04
 -1.6760678e-04
 -1.7036617e-04
  7.9116190e-04
 -6.2357508e-06
 -7.0263748e-04
 -5.3012272e-04
  2.4074642e-03
 -2.2512516e-04
 -2.8271397e-04
  1.0036065e-04
 -4.9079087e-04
  3.5656535e-04
 -7.4690266e-04
 -3.4045585e-04
  6.1887054e-04
  4.2328007e-05
 -9.2519028e-04
  2.0641077e-04
 -3.3489394e-04
 -1.7361884e-04
  2.6099750e-01
  7.2602618e-01
  2.3447703e-01
  4.1388068e-01
 -1.5752773e+00
 -7.7802584e-02
 -1.6985614e+00
  2.2936393e-02
  2.2503996e+00
 -6.3182027e-03
  4.0982795e-04
 -2.2058146e-02
 -1.7543777e-03
 -3.9098302e-01
 -1.2625706e-04
  1.7884386e-01
  1.4344318e-03
 -9.6490405e-02
 -2.8079152e-01
  2.9197326e-01
  6.7260909e-01
  6.3535422e-01
 -2.2660220e+00
 -1.2108784e+00
  1.0230296e+00
 -1.5720850e+00
  1.7616852e-03
  1.5380756e+00
 -1.6842496e+00
 -1.5806516e+00
  1.2423276e+00
  6.6966852e-05
  3.1980225e-01
  1.2693290e+00
 -3.0080641e-03
  4.0987316e-01
 -2.4144034e+00
 -9.7591627e-01
 -1.0684869e+00
 -1.4340265e+00
  2.3210596e-01
  3.2402733e-01
 -5.7286692e-01
 -2.2840626e-03
 -6.7652690e-01
 -9.8592967e-01
  1.1762197e-03
 -1.6331382e-04
  1.7080592e-03
 -1.3374969e-04
 -1.8366054e-01
  1.6620916e-01
  1.6696958e-04
 -6.2749332e-01
  2.0588338e-01
  1.9985121e-01
 -1.3361721e+00
 -2.8326142e+00
 -1.7597958e+00
  7.1561944e-01
 -3.0544522e-01
  4.1974798e-01
 -6.3273460e-01
  1.1268954e-02
 -1.8663858e+00
  4.9873540e-01
  8.8169270e+00
  1.0734851e+00
 -8.2109487e-01
 -2.5032198e+00
 -1.5593940e+00
 -9.5740455e-01
  1.0675399e+00
  4.1764423e-01
 -7.6152366e-01
  3.1793694e+00
  2.3127712e-02
  7.7554286e-01
 -2.4766693e-01
 -7.2024620e-01
  4.2788011e-01
 -1.4312096e+00
  1.7724633e+00
  3.3894424e+00
 -5.0516024e+00
  5.7197756e-01
  3.4946841e-03
 -3.0907315e-01
 -1.0394934e+00
 -2.1655142e+00
  9.2695504e-02
 -7.0689136e-01
  1.3314859e+00
  6.3461554e-01
  2.2634282e+00
  8.7780487e-03
  2.4954808e+00
 -1.2054820e+00
 -8.6807197e-01
 -1.8413540e+00
  6.6400903e-01
 -3.7002119e-01
 -1.2718338e+00
  2.2054457e-05
 -3.9887126e-04
  1.8450630e-01
  9.3818539e-01
  4.1643673e-04
 -1.3497140e+00
 -3.2641237e+00
  1.0285004e+00
  1.8428267e+00
 -9.2690337e-01
 -4.3105069e-01
  4.7376123e-01
 -1.2597647e-01
  1.2943963e+00
  4.4366848e-01
  1.1291457e-04
  5.2366208e-04
  5.8637224e-02
 -1.2473667e-01
  2.7933923e-04
 -3.8102432e-04
 -1.9642745e-01
 -1.9848526e-03
 -6.7362273e-01
  1.2808927e+00
  1.4066879e+00
  1.7823259e+00
 -2.1855228e+00
 -1.4589585e+00
  4.7680821e+00
 -5.4851579e-03
 -6.7790574e-01
  1.5982279e+00
 -1.2711586e+00
 -1.9500146e+00
  1.0239824e+00
 -1.1488914e+00
  1.4458110e+00
 -6.0049182e-01
 -3.2366338e-04
 -4.4868773e-01
 -1.0774432e+00
 -1.2436973e+00
 -9.5783550e-01
  2.1887684e+00
 -4.4412806e-04
 -2.5310743e-01
 -5.9129602e-01
  1.5136865e+00
  1.2066480e+00
  2.8496304e+00
  6.7679961e-05
  3.3603064e-05
  5.2263256e-04
  6.7708100e-04
  4.3114773e-03
 -3.3291623e-01
 -3.0037388e-04
 -8.4346721e-06
  1.7789237e+00
  6.7457968e-01
  8.9717954e-01
  1.1049237e+00
 -1.1180621e+00
 -2.0846713e-01
 -2.0977764e+00
  2.1641067e-01
 -4.9692258e-01
 -1.4644116e+00
  1.0560591e+00
 -1.5395268e+00
 -4.0258893e-01
 -1.1603731e+00
 -4.1528744e-01
  2.1199507e-03
  6.5121531e-01
 -1.9692745e-04
  6.1669618e-01
  1.0003536e+00
  5.9798103e-02
  1.6604548e+00
  5.2455729e-01
  4.5281127e-01
 -1.6342860e+00
 -1.1726574e+00
 -2.7295819e-02
  1.9503000e+00
  2.5381333e-01
 -3.1007433e-01
 -2.2153163e+00
 -5.7538938e-02
  7.0286405e-01
  1.3181653e+00
 -6.5542483e-01
  1.5531143e+00
 -1.6200829e+00
  7.5371075e-01
  1.5032490e+00
  3.6497705e+00
  1.6682286e-02
  7.7680862e-01
  8.3529824e-01
 -6.6153431e-01
 -1.4259699e-01
 -3.2123700e-01
  1.0913265e-02
  7.4536914e-01
  2.9450989e+00
 -9.5553774e-01
  2.3602459e-04
 -1.2819082e-01
 -4.3759032e-04
 -1.8402664e-01
 -3.0741949e+00
  6.7250210e-01
 -2.8180280e+00
 -1.3360904e-01
 -5.8243078e-01
  1.3128657e+00
 -2.1874981e+00
  2.1364565e+00
  5.6776261e-01
 -5.1267003e-04
 -7.2987081e-04
  2.2641951e-04
  1.6271236e-03
 -3.3551466e-03
  2.9513299e-01
 -4.2286974e-05
  2.3586856e-05
  8.9274312e-05
 -4.1871002e-01
 -3.0507663e-01
  5.8395427e-01
 -1.6203099e+00
  8.6997861e-01
 -1.8566176e+00
 -4.8391051e+00
  1.8900467e-01
  2.1658180e+00
  7.6668072e-01
  1.1535773e-01
  2.1760732e-01
 -1.6677672e+00
  5.4791683e-01
  6.9596849e-02
 -2.5783429e-02
 -3.5983374e-04
 -2.2683308e+00
  2.0826674e+00
  3.3135110e-01
  1.7458275e-02
 -3.9964876e-01
 -5.2055740e-01
 -2.3468322e-04
  1.4750994e+00
 -5.0989068e-01
 -1.2682164e-03
  1.7935085e-05
 -2.2174369e-01
  2.7354059e-04
  6.7206925e-01
  2.7868440e-04
  3.3567445e-03
  7.0757861e-04
  4.2205187e-04
  5.7588547e-04
 -1.3465720e+00
  1.3102741e+00
 -1.8063688e+00
 -5.0345463e-01
  3.2230645e-01
 -3.6754012e-02
 -1.0879203e+00
  2.8087693e-01
 -3.4463814e-01
 -5.3856462e-01
  1.8275756e-03
  1.5643911e+00
 -7.3726690e-01
  2.2522452e-01
  7.7973211e-01
 -1.0613499e-03
 -1.3262043e+00
 -1.9814558e-02
  3.0421855e-02
  3.2862702e-01
  1.0519290e-01
 -7.5948048e-01
  1.2244226e+00
  1.1309155e+00
  1.5189672e+00
  1.6481303e+00
  1.4785324e+00
  2.6841316e-01
  5.3216845e-01
 -9.4215110e-02
  6.0206228e-01
 -1.5669829e+00
  5.9073699e-01
  2.1734064e+00
  3.6753276e-01
  1.3193260e-04
  9.8966557e-01
  1.4946348e-02
 -2.4637046e+00
 -2.1305588e-01
  8.4806675e-01
 -1.1958070e+00
  4.9392250e-01
 -4.2569971e-01
 -3.2150153e-02
 -1.4431518e-01
  3.4533390e-01
  2.1237352e+00
 -3.1860844e-05
 -8.7119127e-04
  1.2318595e-01
 -7.8440964e-02
 -1.6802381e-01
 -9.7997427e-01
  2.9148154e-05
 -3.4947743e-04
 -2.8813380e-04
  1.2156575e-04
  8.6174405e-05
  3.1068467e-04
 -1.4834281e-04
  1.8344663e-05
 -3.0880266e-05
 -8.0780759e-05
 -8.3436217e-04
  4.2987461e-04
  3.7849529e-04
 -1.4052865e-04
  5.1220803e-04
  3.7882410e-02
 -4.2513795e-05
  7.9844496e-05
 -2.7621866e-04
  1.3223849e-04
  4.1263577e-04
 -1.2067319e-04
  3.0280705e-04
 -1.3234961e-04
 -3.3195040e-04
 -1.4412049e-04
  8.1727852e-04
 -9.9450575e-05
 -1.1041640e-04
  5.2523865e-05
  2.3389814e-02
  5.8638025e-04
 -8.9469104e-05
  1.9193087e-04
  9.4436505e-04
  2.2540848e-04
  1.1916503e-03
 -6.0599614e-05
  1.9282699e-04
  2.1542738e-04
  7.6051423e-04
  1.0459233e-03
 -3.2522820e-04
 -1.1880030e-03
 -6.1653118e-04
  2.8815994e-04
  3.6634374e-05
 -7.7081311e-01
 -1.3017342e-04
 -1.3111746e-04
 -4.4589286e-04
 -5.0348154e-04
  2.4690575e-04
  2.0194230e-04
  2.8334918e+00
  2.4738167e-01
  8.4415686e-01
 -4.0886381e-01
  1.7941429e-01
  2.2808976e+00
  1.7562826e-01
 -4.2225595e+00
 -3.8263616e-01
  2.6923439e-03
  1.5213759e+00
 -4.0589606e-05
 -9.0219587e-02
  2.4383395e+00
  3.6547340e-02
 -2.8072846e-01
  1.2013958e-01
  1.9194913e+00
 -5.2030802e-01
  1.6031959e+00
 -1.1186125e+00
  5.4384064e-02
  4.1270381e-01
 -1.0966590e-01
 -6.8252695e-01
 -1.8954884e+00
  8.5987628e-02
  6.1733598e-01
  7.3739201e-01
  1.9323403e+00
  1.9161457e-01
  3.1487563e-01
  1.0432748e+00
 -1.0343090e+00
 -8.1792289e-01
 -1.3674268e+00
 -1.5858896e-01
  6.7078286e-01
 -3.5004839e-02
  3.8549662e-01
 -1.4938970e+00
 -1.5648893e+00
  1.1964291e+00
  3.5242361e-01
  1.4994795e+00
  7.9792607e-01
 -3.0394295e-01
  5.8480495e-01
  8.8455647e-01
 -1.6076981e-01
  6.4026224e-03
  7.7897243e-02
  1.1958864e-01
  1.1080111e+00
  3.0128958e+00
  1.9118346e+00
 -7.8714901e-01
 -4.0319365e-01
  2.7462807e-01
 -2.5318561e+00
  3.3799115e-01
 -2.2269844e-01
 -4.1345373e-01
 -1.6172238e-03
 -5.1326537e-01
 -7.1368869e-03
 -3.4497163e-04
 -6.0964954e-05
 -1.4332597e-04
 -1.6456775e-04
  3.8162983e-04
 -8.6286389e-05
 -9.2968607e-01
 -6.7548978e-01
 -1.0723968e-01
 -1.1874217e-04
  9.9662517e-05
 -5.6384903e-01
 -8.9197791e-01
  2.6767087e-04
  3.9243784e-02
 -1.8997711e+00
 -5.7141685e-01
 -4.2758998e-03
  3.3225458e+00
  5.9962845e-01
  3.6051302e-04
 -2.6306921e-01
 -8.7114768e-03
  3.4881213e-03
  1.4754049e-01
 -1.0678821e-03
  5.4439006e-06
  1.8292733e-01
 -8.9436668e-05
  6.8229456e-05
 -9.9832029e-04
  1.8800528e+00
 -5.7200587e-04
 -5.8214547e-04
  4.3012065e-04
  3.3276104e-03
  1.3621073e-04
  5.1645224e-04
 -1.0150172e-03
  1.0974440e-03
  5.1574071e-04
  9.7809228e-05
  2.0010847e-01
  4.3031578e-03
  4.8662919e-01
  5.4245645e-01
 -9.7515643e-02
  5.1645815e-02
  9.0690368e-01
 -7.2287299e-02
  4.2491019e-01
 -2.6155461e-04
 -5.7001109e-04
  2.0259041e-03
  9.3048235e-04
 -4.6634441e-04
  9.5422473e-04
 -1.7174956e-04
 -1.2038329e-03
 -1.1589063e-03
  5.1387656e-01
 -6.0475424e-02
 -6.3878441e-01
 -1.7852382e-01
  4.4957269e-03
 -4.2824205e-02
 -9.9034822e-03
  2.1535943e-04
  9.0362698e-02
 -7.5099193e-02
  1.2140755e-04
 -1.9844773e-04
  8.6215097e-01
 -8.5775010e-02
  2.8495150e-02
  4.9819258e-01
 -1.5642545e-04
 -8.2575157e-03
 -3.0144948e-01
  3.4213963e-01
  4.9785839e-04
 -1.0457451e-02
 -8.2120103e-01
 -1.1134501e-04
  4.4511205e-01
  9.3525194e-02
  4.3984791e-04
 -8.7904882e-01
 -4.7620702e-05
  5.2989691e-07
 -2.4882245e-06
 -1.3154401e-03
  9.6721889e-04
 -8.9514389e-04
  7.3732866e-05
 -2.5289499e-05
  2.6054029e+00
  2.0803931e+00
  1.2602277e-01
  2.4262700e+00
  1.6483501e+00
  1.0225177e+00
 -2.2847610e+00
 -8.9465243e-01
  9.3201429e-01
 -1.1724968e+00
  1.9210101e-04
  1.1048946e-03
 -4.8195552e-03
  3.5616118e-01
 -9.8737795e-04
 -7.1638621e-02
 -2.9616565e-03
  6.3370091e-05
 -2.4804027e-01
 -2.3673482e-01
 -2.1087475e+00
  2.3097627e+00
  7.0958827e-03
  3.6870408e-01
 -1.5652267e+00
 -4.6743894e-01
 -3.8923395e-01
  2.9769364e-01
 -4.7925287e-01
 -6.9558655e-04
 -1.1475284e-02
 -6.5906334e-01
  2.9025547e-04
  7.2641224e-01
 -9.7267377e-01
  1.6661965e-04
  1.4126446e+00
  1.4783446e+00
 -2.8629684e-01
  1.3686249e+00
 -5.8634281e-01
 -3.1786206e-01
 -1.1776513e-02
  8.7802666e-01
  6.6516072e-01
  8.9965898e-01
 -5.1787823e-01
  2.6286090e-02
  1.7130518e-04
  6.8363130e-05
  1.2118916e-04
 -3.7164849e-04
  1.7055957e-02
  1.4878221e-01
  3.5531360e-03
  2.6452988e-01
  3.4130499e-01
 -1.1818259e-04
  6.8142884e-03
 -2.3829322e-02
 -6.5407443e-01
  2.4456312e-01
 -8.6188979e-02
 -2.6961911e-01
 -2.1553121e-03
 -3.2708098e-04
  6.9983356e-04
  1.0277702e-03
 -5.8063716e-02
  8.2137649e-06
  5.8124213e-05
  1.2849050e-03
 -3.2077578e-01
 -9.5904380e-01
  3.3189699e-03
 -1.2650967e-01
  1.3048695e-03
 -5.1308689e-03
 -4.3426197e-02
  1.9169544e-04
 -8.7616026e-02
  2.2004203e-01
  3.6540523e-01
  6.6276570e-03
  1.7962971e-01
 -4.9792026e-04
  5.1311473e-04
  4.1887414e-02
  7.1001799e-05
 -2.7519754e-01
 -5.8117704e-03
  4.7465253e-01
 -1.1548427e-04
 -2.6204631e-01
  1.7813377e-02
 -2.3679127e-01
 -3.2377057e-02
 -2.6080811e-02
 -4.9919894e-05
 -2.7862987e-05
 -1.8370456e-04
 -3.7408917e-04
 -6.8484223e-04
  9.3632354e-04
  2.2674487e-03
  9.6802018e-05
  1.6119583e-03
  4.5633623e-03
  2.4674350e-02
  5.4968327e-02
  1.1365076e+00
 -7.7302390e-01
 -8.9148897e-01
 -1.7646329e-01
  2.7968150e-01
  7.0292962e-01
  8.5118249e-02
  2.9880488e+00
  7.0987851e-04
  2.3009102e+00
 -9.7935075e-01
 -4.3692889e+00
 -1.1324570e+00
  1.0072256e-01
 -2.7701526e+00
 -2.3609190e+00
  6.9958940e-02
 -1.6822124e+00
 -1.3469051e+00
  8.6030483e-01
  1.3575552e+00
  1.9764096e+00
 -1.0352725e+00
 -1.1822951e+00
  5.1933253e-01
  8.5414067e-02
  3.4871471e-01
  6.8306404e-01
  6.5955108e-01
 -7.5551796e-01
 -4.1766822e-01
  1.9980553e+00
 -7.3954039e-03
  1.6558545e+00
  8.6680371e-01
 -1.9597679e-01
  3.4278524e+00
  2.3834579e-01
  1.9662187e+00
 -1.4174457e-01
 -5.0155652e-01
  6.0134482e-01
 -1.0004665e+00
 -7.5018615e-01
  1.0815747e+00
 -1.8198154e-04
 -1.3040713e+00
  2.1788347e+00
 -9.0662706e-01
  1.3139857e+00
 -4.5280987e-01
 -3.1735280e-01
 -7.7297723e-01
 -3.6562908e-01
  7.2968394e-01
 -2.8591573e-01
  9.6461916e-01
 -9.2684609e-01
 -1.8870699e+00
 -1.1226918e+00
  5.8751792e-01
 -3.9852077e-01
 -4.5478225e-01
  8.4128056e-05
 -8.0479379e-04
 -2.3951291e-01
  1.2252587e-04
 -5.9661120e-01
 -4.4028741e-01
 -2.3249466e+00
  3.2886026e+00
 -1.4660226e+00
 -2.9052620e+00
  1.7669615e+00
 -7.6344411e-04
 -1.1636499e-01
 -1.6631885e-02
  7.4963197e-02
 -7.0473844e-01
  5.7026684e-01
 -7.5315529e-01
  2.8391621e-01
  1.2146326e+00
 -1.9263390e-01
  2.4082641e-01
 -2.4986107e+00
  1.7407885e+00
  6.6218525e-01
  1.9756131e+00
  2.1976001e+00
 -6.5255262e-02
  7.4737632e-01
  1.1471726e+00
  1.8501052e+00
  2.3888528e+00
 -1.0081830e+00
 -3.8135130e+00
 -1.2778488e+00
 -6.9628720e-04
  1.6485752e-01
  1.8573531e-03
  2.2536847e-04
 -1.0038316e-03
 -4.5274544e-05
  1.5331698e-03
  1.3326932e+00
 -5.9032112e-01
  7.4862218e-01
  5.0274736e-01
  5.8378398e-01
  1.6298828e-01
  1.1149083e+00
 -9.5560288e-01
  3.7548861e-01
 -6.0898250e-01
  8.2978016e-01
  1.6892927e-02
 -1.4093764e-01
  2.9837565e-05
  1.9692863e+00
  3.5574707e-01
  4.2826324e-04
 -9.3709975e-03
  2.0793579e+00
  2.5380129e-01
 -4.1713312e-01
  1.0668426e+00
  6.7612451e-01
 -2.4163090e-01
 -9.7415590e-01
 -1.9268972e+00
 -1.5617850e+00
  2.2157472e-01
  7.7476335e-01
 -1.3267413e-02
 -8.6183780e-01
 -1.2784518e+00
 -3.8701858e-02
 -3.3391249e+00
 -1.4732935e+00
 -3.1010336e-01
  2.6502383e-01
 -4.5722872e-01
 -3.2863338e-02
 -2.5565585e-01
  1.9876132e+00
 -3.5169122e-01
 -3.2567912e-01
  1.0467047e-02
 -2.6343229e-01
 -7.9620916e-01
 -9.6118242e-01
 -5.6745893e-01
  5.5594379e-01
 -5.8269912e-01
  6.2991763e-05
  3.0811810e-01
 -4.4371141e-04
  4.2692390e-01
  3.0964318e-01
 -6.8817824e-01
 -1.6568512e+00
  4.9237508e-02
 -2.5632913e+00
 -2.3423300e+00
  3.1486380e-01
  2.1464818e+00
 -2.9493136e+00
 -7.7664667e-01
 -3.9370093e-01
 -3.8487312e-01
  9.5083886e-01
 -1.8512814e-03
 -9.1301310e-01
  1.2769187e-05
 -1.3618057e+00
 -1.5146005e+00
 -2.1794873e-01
 -4.6371889e-01
 -3.4025955e-01
 -8.1350976e-01
 -5.9391129e-01
  7.9084551e-01
 -2.1723796e-01
 -3.7999418e-02
 -2.6774228e-01
 -1.4150903e+00
 -6.0040390e-01
 -4.4467937e-02
 -1.3474474e+00
 -1.1492178e+00
  3.0471903e-01
 -5.1460385e-01
  9.7461474e-01
  6.7673308e-01
  1.4567780e-02
  2.0229282e+00
  1.6566613e+00
 -1.2759228e+00
 -4.2605245e-01
  2.9208872e-01
  1.4350622e+00
 -6.7650658e-01
 -3.9063779e-01
 -1.0973760e-01
  3.5723321e-02
 -5.3915428e-04
 -2.4379445e-04
 -3.1953102e-01
  1.5856759e-04
 -6.2337652e-02
  8.4063591e-04
  2.7130352e-04
 -4.2758742e-03
 -6.3636452e-01
 -1.5531255e+00
 -9.5569003e-01
 -1.3220899e+00
  8.7319277e-02
  1.5390532e+00
  1.2184843e+00
  2.3070025e+00
 -6.6024590e-01
  2.2097955e+00
  1.3809160e-03
  1.5216339e+00
 -1.6617990e-01
  1.4275456e-03
  2.0687170e+00
 -3.6296022e+00
 -6.2740457e-01
 -1.6544647e+00
  1.5559781e-01
  1.9321755e+00
  1.8105973e+00
  7.8497362e-01
 -6.0980082e-01
 -4.0748796e-01
  2.5239322e-02
 -5.1778316e-01
  1.9235643e+00
  9.2250526e-01
  1.6563258e+00
  2.7355230e+00
 -7.7650493e-01
  1.4526293e+00
  1.6760692e-01
  1.8047222e-01
 -1.2632226e+00
 -1.7197152e+00
  4.0622741e-01
  4.5468397e+00
  5.0765777e-01
  2.1903327e+00
  6.7337245e-01
  1.5677520e+00
  5.7502913e-01
  9.1113216e-01
  1.3142780e+00
 -2.3828857e+00
  4.3156505e-01
  2.8411846e-04
 -1.0305393e+00
  3.0517632e-01
  5.6225407e-01
  1.6853471e+00
  2.5650771e-02
  3.4551141e-01
 -6.0037059e-01
 -9.9624224e-02
 -2.7346323e+00
 -4.0166360e-01
  5.5075133e-01
 -1.0029115e-02
  7.7198672e-01
 -1.7074562e+00
 -2.3067663e+00
  1.1444599e-03
  1.1167568e-03
 -1.2498712e-03
 -1.3096700e-04
  1.2005485e-03
 -1.6624534e-03
  6.5554783e-04
  5.3023361e-04
  1.5601948e-04
 -1.3876656e+00
 -5.1126266e-01
 -2.8870142e-01
  1.5405355e-03
 -1.7431430e-03
  5.1285821e-05
 -7.6751374e-03
  9.8971778e-01
 -6.9830875e-04
  2.9307854e+00
  2.8408551e-01
 -2.6469992e-04
  2.4594612e+00
  1.1681123e-03
  3.3312768e-02
 -1.8037611e-01
  9.3197685e-01
  1.6754927e-01
  1.3590630e+00
  8.1855208e-01
 -2.4559298e-01
  3.1735597e+00
  1.1949507e-05
 -5.0690857e-04
 -3.5793863e-02
 -5.9576370e-03
  2.6415917e-04
  8.5075516e-01
 -1.8200341e-03
 -8.6039263e-06
  9.5988973e-04
 -1.3366701e-03
 -7.0275433e-05
  6.7605742e-04
  3.0540230e-04
 -1.8968835e-04
  3.1083059e-01
  2.0282358e-01
 -5.6311923e-01
  7.3146313e-01
 -5.8308673e-01
 -4.4790867e-01
 -1.3110048e+00
 -2.6175604e+00
 -2.4901140e+00
 -1.0766096e+00
 -1.0648715e-04
 -3.5585079e-02
 -1.3728660e-04
 -4.1347338e-04
 -2.9972699e-04
 -1.4941893e-05
 -6.5010093e-04
 -7.8859041e-04
 -1.2956077e+00
 -1.5991005e-01
  1.4041692e+00
  2.4788794e-01
  2.1230294e-01
 -9.1980590e-04
 -2.6283212e+00
  3.5843593e-01
  1.4850512e+00
 -1.8022149e+00
  6.7465462e-02
 -7.8861600e-01
  6.7493266e-01
  1.3207071e+00
  6.0130988e-04
  5.4611051e-01
 -2.5789556e-03
  3.5063893e-01
  4.5084038e+00
  6.7311227e-01
 -6.1280954e-01
  4.2903146e-01
  1.7054589e-01
 -8.7484304e-04
 -2.8283587e-03
 -8.0589545e-01
  2.5102764e-04
 -9.6840031e-06
 -7.1194442e-04
  9.4304578e-03
 -1.8409882e-01
  2.1298816e-04
  1.4326088e-03
  6.9633592e-04
  1.0746887e-03
  7.7696024e-03
  3.5778579e-01
  2.4875811e-01
  3.9596877e-01
 -3.5540007e-02
  1.7714716e-01
  4.6010323e+00
 -3.6855468e-01
  5.3201818e+00
  1.8667849e+00
 -2.0034470e-02
 -2.1573776e-04
  2.6011522e-04
 -2.9692280e-01
  7.5583412e-06
 -2.8156274e-04
 -1.5438358e-04
 -1.4498668e-03
  2.6535342e-04
 -3.8479644e-01
 -6.4433523e-02
 -3.5319041e-05
  2.4275170e-01
 -8.0144546e-06
 -2.3783634e-04
 -1.1996295e-05
  3.8033041e-01
 -8.2814898e-03
 -6.8331450e-02
 -1.3165675e-04
 -1.0304889e-01
 -1.5673486e+00
 -2.4978208e-04
  3.9495656e-04
 -1.3663728e+00
  3.4706201e-04
  1.8483108e-02
 -1.3837739e+00
 -6.3528173e-04
 -2.5534236e-01
 -3.4245878e-02
  8.4442517e-04
 -8.2353706e-04
 -5.4483884e-04
  3.2030756e-04
 -3.2979433e-04
 -4.1417545e-04
  4.6943802e-05
  1.1288209e-04
 -8.4557821e-04
  4.2128953e-04
  9.4676373e-04
  7.7995576e-04
 -5.5032617e-01
 -4.8845577e-05
 -2.7287525e-01
  8.4207112e-01
 -6.7428958e-01
  7.9512906e-01
 -5.2385759e-01
 -4.9986312e-01
 -1.4357221e+00
  7.3257345e-01
  7.6297261e-02
  1.8695557e-04
  5.5791279e-05
 -4.0428811e-05
 -1.6076900e-03
 -8.7361759e-01
  1.0935670e-04
  7.8368007e-04
 -1.0412948e-02
 -1.3962998e-04
  2.8165570e-02
  1.1486622e+00
 -1.1467412e-01
 -1.3136916e-01
 -9.3911642e-01
 -5.8181196e-01
  8.8887161e-01
  8.9391684e-03
 -2.6715329e-01
  4.6206072e-01
  3.4218602e-02
  3.4752712e-02
 -1.2898017e+00
  9.3464576e-02
  2.5184387e-01
 -2.1349695e+00
  1.5011673e-01
  6.9586538e-05
  3.6768949e-01
 -4.4630480e-01
  5.4256278e-01
  6.3761556e-01
  9.4126157e-02
 -9.8099030e-05
 -2.6015906e+00
  3.8796084e-04
  1.8602586e-01
  8.3748855e-02
  2.6919472e-06
  1.2816328e-03
 -1.6260932e-01
 -3.4563171e-05
 -1.5969534e-05
 -6.4064371e-03
 -5.5267481e-04
 -4.7103819e-04
 -1.7635992e-02
  4.5120072e-01
 -7.0742512e-01
 -5.7085788e-01
  1.1851398e+00
 -3.1140153e+00
  1.8592464e+00
 -9.0534633e-01
  3.0599837e+00
 -4.9000606e-04
 -6.9442034e-02
  2.8732668e-03
  2.1363621e-05
 -6.1408231e-05
  2.7239090e-04
 -1.8729242e+00
 -4.9580383e-04
 -2.9464131e-03
 -1.8960433e+00
  7.6033604e-01
  4.4960639e-04
  1.1531793e+00
  2.9628634e-01
 -4.6177971e-01
  7.1854139e-04
  1.4118266e-01
 -6.1892200e-01
 -9.7495270e-01
 -1.3544306e-04
 -4.5730621e-01
  4.2687054e+00
 -1.0048387e-02
 -9.7188784e-04
 -8.0914778e-01
 -5.1927433e-04
  2.2365166e-01
 -5.7665437e-01
 -8.3069497e-01
 -1.1341186e-03
  1.1285440e+00
  2.8857747e-01
  4.2660129e-01
 -6.5395515e-04
  2.6573651e-03
 -4.6387475e-04
  1.4293513e-05
  2.7099831e-04
 -9.2139951e-04
  1.0193749e-05
  2.3223733e-04
 -5.6680301e-06
  1.2240543e-02
 -9.0293310e-05
  2.3010469e-04
 -3.6735233e-02
 -1.0410017e+00
 -5.9383172e-01
  7.0434185e-03
 -3.8998467e-03
 -6.7555559e-01
 -5.6630325e-02
  1.2359977e-01
  1.1424611e+00
  1.0786427e-04
  2.6873857e-01
  9.1523840e-04
 -4.7869791e-04
  4.4011016e-04
  1.4745268e-04
 -1.1095466e-04
  3.3841825e-05
  2.5632929e-05
 -5.5930489e-03
 -1.1847079e-03
 -1.0914402e-01
  2.1689189e-05
  2.4774859e-05
  7.1646311e-05
 -2.7101787e-02
  6.8775349e-05
  3.8493265e-04
  1.8320668e+00
  1.4370230e-01
  5.7596312e-04
 -1.4070802e+00
  1.2515478e-04
  1.9098439e-03
  6.0888135e-01
  1.5215557e-04
  3.4637126e-04
  1.2573268e+00
 -3.6524210e-04
 -2.0547630e-03
  1.5199922e+00
 -1.2081112e-05
  5.0413620e-04
  2.3826763e-04
  1.7583721e-04
  5.5707589e-04
  2.1295935e-04
 -1.4727349e-04
 -7.4157363e-04
 -3.1498534e-04
  8.2415179e-04
 -7.2753616e-04
 -9.8854052e-06
 -3.6845912e-04
  3.7867797e-04
 -7.5527906e-01
 -2.2544645e-04
  3.8392693e-01
  1.1678367e+00
 -2.1748834e+00
 -4.2641841e-05
  4.7957522e-01
 -3.5507891e-01
  5.0334859e-01
 -2.4365200e-01
  7.5382429e-01
 -9.9406511e-01
  1.7419839e-01
 -1.4334500e+00
  1.3911257e+00
 -9.4057405e-01
 -1.2389516e+00
 -1.9838159e-01
  1.1542643e+00
 -6.3836540e-04
 -2.3082612e+00
 -6.4767325e-01
 -1.4823758e-04
 -4.7638810e-01
  2.4795236e-01
  2.2638918e-01
  3.2166878e-04
  1.3843381e+00
  6.4388645e-01
  6.4787698e-01
  6.2044823e-01
 -2.6321816e-01
 -1.1101757e+00
  2.7815037e-04
  1.1509632e+00
 -1.9894207e+00
 -8.6874676e-01
  7.3314404e-01
 -1.5386810e+00
 -5.6248760e-01
 -1.4763324e+00
  5.9392673e-01
 -8.8308209e-01
  7.4248564e-01
 -5.6627345e-01
  8.7914497e-01
  5.1619381e-01
  6.2366086e-01
 -9.6431202e-01
  1.7112318e+00
 -4.3764916e-01
  8.6612981e-03
  1.2495786e+00
  1.1064914e+00
  1.2843882e-01
 -3.9691175e-04
 -1.6398876e+00
 -2.9499054e-01
  6.9952673e-01
 -1.6335771e+00
  8.9274520e-01
 -2.3422700e-01
  1.1228175e+00
  9.2554137e-02
  3.0115250e-01
 -1.5378107e+00
  2.4045722e-01
 -1.1987224e+00
 -2.8393272e-01
 -3.9849091e-02
 -2.4611731e-01
 -9.9466324e-02
  2.1505691e-02
 -3.7676099e-01
 -8.5454184e-01
 -1.8124539e-01
 -1.9822891e-04
 -2.6509503e-01
  1.0311486e+00
  3.1136099e-01
 -1.2259254e+00
  5.7872659e-01
 -2.9023256e+00
  1.4106628e-02
  2.6245463e-01
 -7.8228474e-02
  8.9066267e-01
  1.6020438e-01
  5.6633455e-01
 -9.0991753e-01
  1.4342865e+00
  7.4467224e-01
 -1.2095774e+00
 -6.8521988e-01
 -4.1347626e-01
  4.3815956e-01
  1.0095609e-01
 -6.2717462e-01
  1.2721357e+00
  7.1340561e-02
  6.9716370e-01
  6.5216881e-01
  8.1263018e-01
  2.8843698e-01
 -7.4897625e-02
  6.0054481e-01
  1.2219223e+00
  2.1270146e+00
 -2.5088353e+00
  1.3407747e-01
 -1.2258908e+00
  1.6361337e+00
  1.3610344e-01
  3.1506503e-04
 -1.9072343e+00
  1.0641636e+00
  4.2756909e-01
 -1.9826535e+00
 -5.2737898e-01
 -2.6994029e-03
  4.2845975e-03
  3.1434745e-02
  5.1127809e-01
 -1.5589818e-01
 -4.3445504e-01
  1.2602960e+00
  1.6127348e+00
  1.5784082e-01
 -3.8026355e-02
  9.3518473e-02
 -2.8728809e-02
  1.0582010e+00
 -4.1335544e-01
 -4.9165273e-01
 -8.1073445e-01
 -4.5910800e-01
 -2.2580875e-01
  5.6667457e-04
 -2.3833911e-01
  2.8718674e-01
 -1.0601931e-01
  2.7349487e-01
 -1.0765787e+00
 -1.3488463e+00
 -2.0960088e-01
  3.2270586e-01
 -2.6617266e-04
 -2.0705270e-04
 -1.8795802e-01
  1.5186358e-04
 -6.8098612e-02
 -1.0600177e-02
 -4.5389861e-01
 -1.1909447e-04
 -2.2585696e-01
  3.9632460e-01
  2.1807184e+00
  1.2693963e+00
 -2.0538070e+00
 -1.0178529e-01
  8.8165000e-02
 -2.8914554e-02
 -2.8596648e-03
  1.6845706e-04
  1.8302926e-05
  5.2185141e-04
 -1.1234550e-03
  1.4822913e-03
 -3.5261657e-04
  6.9009824e-05
  4.9301196e-04
  4.5235392e-02
 -2.0588279e-01
  9.1496529e-04
  1.6693531e-04
 -5.7628832e-04
  2.6743495e+00
  7.1446608e-05
 -1.6536651e-02
 -1.5034319e-01
  1.8497568e-01
  1.9801749e-04
  8.4102433e-04
  6.5888169e-05
  5.6095060e-04
 -1.2655223e-03
 -6.2075938e-04
 -1.1145774e-03
  1.7605241e-03
  8.3090432e-05
 -2.6075486e-05
 -3.1899512e-04
 -4.3316284e-04
 -1.9235737e-03
  3.2682379e-04
 -3.3526201e-04
  2.1473560e-03
 -1.8363900e-04
  1.7707009e-02
 -7.4546158e-05
 -2.2871147e-03
 -6.0382798e-05
 -6.8808376e-04
  6.8960886e-04
  5.2552181e-04
  1.1328735e-03
 -2.4225241e-04
 -2.9574157e-04
 -9.0549278e-01
 -1.3624301e+00
 -1.0459840e+00
 -4.3071718e+00
 -7.4782568e-01
  3.0736544e+00
 -1.4700083e+00
 -2.8107016e+00
  5.3960645e-01
 -2.0139245e-04
  3.2404889e-04
  8.0632657e-04
  2.8007779e-01
  8.5803895e-04
 -1.2914540e-03
 -1.1150424e-03
 -1.2807205e+00
 -7.5732476e-01
  7.7624276e-02
  1.0778122e-01
  9.3698455e-03
 -5.3165817e-01
  1.0993620e+00
 -6.6390174e-04
  1.7656022e+00
  9.9831764e-03
  1.1881129e+00
  1.8408356e-04
 -1.2040655e-03
 -2.4557937e-04
 -1.4021078e-02
  4.1457742e-01
  1.2964636e-01
 -1.3058000e+00
  2.0058978e-01
  9.8114765e-01
  3.6194807e-04
 -5.0750736e-04
  3.9468791e-02
 -1.3295413e-02
 -1.4556863e-04
  9.5683034e-04
 -9.4518989e-01
  2.9047921e-02
  5.7579880e-04
 -1.0490188e-03
 -2.6837125e-04
 -4.2203220e-04
  2.3771021e-04
 -6.9089551e-06
 -1.3491068e-04
 -4.0159982e-01
 -6.9997698e-04
  3.0352757e-04
 -1.1109349e-04
 -8.3138538e-04
 -2.4602225e-04
 -3.5451457e-02
  5.9744390e-04
  3.6506397e-03
 -6.8526418e-04
 -1.2143322e-03
  1.5612524e-03
  3.3173463e-04
 -6.6925579e-04
  3.8288257e-05
  1.2324561e-03
 -3.7715734e-05
 -2.7064196e-04
  7.1668770e-04
  2.3813869e-04
  4.6180715e-04
 -9.5854848e-05
 -9.7215682e-04
  6.4703217e-04
  5.4811244e-04
  5.9948012e-04
 -2.3114670e-04
  2.9885006e-04
  1.7075201e-02
 -4.4464064e-04
 -2.7170661e-04
 -9.5529866e-04
  3.4450839e-04
  8.1635837e-05
  3.5768357e-04
 -1.0649915e-06
 -3.6722157e-04
 -2.9019589e-04
  3.5065683e-04
  1.0535986e-03
 -3.7973077e-04
  5.2734686e-04
  2.9214018e-04
 -5.9846974e-05
  3.7650802e-04
  3.1866840e-04
 -3.5602818e-04
 -5.2694505e-04
 -1.5854657e-04
  4.6499219e-04
  2.4588697e-04
  8.9312220e-05
 -7.2181778e-04
  7.0673166e-05
 -1.2892940e-04
 -1.4448237e-04
 -4.2573159e-04
 -5.8370326e-02
  7.4006647e-02
  7.8610063e-02
 -1.0009371e+00
  2.3784888e-01
 -1.8165227e-02
  1.0151987e+00
  1.1053193e-01
  1.8916333e+00
 -2.1911828e-01
 -1.8909320e-06
  1.5949989e-02
 -4.0025101e-05
  4.9461739e-04
 -4.0077448e-01
  5.7188362e-01
  4.6409824e-01
 -1.5511681e-01
 -4.0955376e-02
  2.4267370e-01
 -4.0164953e-01
 -2.2716951e-04
 -2.1866307e-02
 -1.2411323e-01
 -4.3948352e-01
 -1.7546520e-02
  6.5704039e-03
 -3.5077272e-05
  3.9418711e-04
 -1.1214530e-03
 -2.6720177e-04
  1.2362032e-03
  2.5766687e-03
  2.1292348e-01
 -3.1864305e-04
  1.1746139e-01
 -2.4164100e-01
  8.4173620e-02
 -6.8391062e-04
  8.8583427e-03
  1.5083792e-05
  2.5900663e-03
  5.1249363e-03
  2.7054441e-01
  1.2584550e-03
 -7.6085115e-03
 -1.1674153e-03
  2.0282241e-03
 -5.6421929e-03
  3.7506464e-04
  6.6803537e-02
  1.1613998e-04
 -1.4106642e-01
 -5.6865864e-04
  3.3927450e+00
  1.2219685e+00
  2.8899167e+00
  1.0894234e-01
  5.5121744e-01
 -1.0200843e+00
 -5.4626971e-01
 -4.9084252e-01
 -1.1459846e+00
  7.0237452e-01
 -8.0926507e-04
  3.4207329e-03
  1.7665818e-04
 -2.7330017e-01
 -5.9635144e-01
  2.8628230e-04
 -2.5070456e-01
 -1.5013461e-04
 -7.9331285e-01
 -1.8558927e+00
 -6.9640237e-01
  8.4467940e-02
  1.3036802e+00
 -6.0403883e-01
 -5.8876330e-01
  8.4632981e-01
 -3.1028776e+00
  1.4842352e-01
 -6.3859340e-04
  7.6725107e-01
 -3.9576329e-04
 -5.0134137e-02
  7.3766559e-01
 -3.8917455e-01
  1.2755820e-01
 -1.0273793e+00
  4.4151264e-01
 -6.3170314e-01
  1.5782334e-01
  1.0080237e+00
  5.8270490e-01
 -2.1113172e+00
  1.2630333e-01
 -7.6072407e-01
  9.9916395e-04
 -1.7749280e-02
 -4.9375529e-05
 -4.1123007e-05
  7.1808738e-01
 -2.6389003e-05
 -3.1215511e-04
  7.0508039e-01
 -3.0177222e-03
 -9.2535488e-02
  3.8914734e-01
 -1.9628234e+00
 -6.2431091e-01
  1.0304756e+00
 -1.8531109e+00
 -2.7751887e-01
 -3.7406189e+00
 -1.7677739e+00
  3.3151338e+00
 -1.7515328e-04
  1.3066764e-03
 -7.6972740e-04
 -6.8541495e-03
 -9.2324629e-02
  2.4276058e-05
 -3.7337002e-01
  6.1654998e-03
  5.1109662e-04
 -3.4428552e-01
  3.7182406e-02
 -1.8889126e-01
  5.5395602e-03
  1.1119804e+00
  8.5994917e-01
  1.8339231e+00
  3.4903279e-01
 -5.1989913e-01
  1.5533765e-01
 -1.0524066e-05
 -1.0393367e+00
  1.9151347e+00
 -1.0230340e+00
 -2.4537584e-03
  1.2134991e+00
 -3.6454506e-03
 -7.6890457e-01
 -7.8495538e-01
  2.8138182e-03
  8.4650248e-02
  6.8504566e-01
 -3.5079989e-01
 -7.2727174e-01
 -2.1578549e-01
  5.6580179e-03
 -5.8491158e-01
  3.9100426e-04
  1.9946569e-03
  8.1583690e-05
 -1.4590519e-04
 -6.1100654e-05
 -2.3351930e-01
  1.0304336e-03
  7.7843112e-01
 -4.5202971e+00
  1.8423735e+00
  1.3071701e-02
 -9.4078697e-02
  2.2547610e-02
  7.1573114e-01
  3.4614077e-01
  2.2390563e+00
  1.8579228e+00
 -1.3226484e+00
  9.5217049e-01
 -1.0561377e+00
 -1.4439741e+00
  1.0185760e-02
 -1.9401504e-01
  6.5280542e-02
  4.9552995e-01
 -2.6106927e+00
  1.4179567e+00
  3.7615117e-01
  9.0038800e-01
 -1.6539406e+00
 -1.1498840e-01
 -3.1565235e+00
 -1.8393290e+00
 -2.2411649e-01
  4.8344120e-01
  2.3454313e+00
 -8.2307674e-02
  8.0209132e-04
 -1.0643101e-02
 -1.9382548e-02
 -2.5702541e+00
  1.4946755e+00
 -2.1256194e-01
 -5.4084879e-01
 -7.2849828e-01
 -3.0741671e-01
 -3.5433675e-04
  2.6342241e-02
 -7.1243203e-01
 -1.4595436e-01
 -2.1277702e+00
 -1.2683401e+00
 -2.8637303e-02
  8.8483763e-01
 -1.5074441e-02
  1.1726673e-01
 -9.0032222e-04
  3.4175536e-01
 -3.2521677e-01
  7.7175684e-02
 -1.1206121e+00
  2.4592315e-01
  3.1769297e-01
 -6.7218626e-01
 -1.7198970e+00
 -7.7182138e-01
 -3.7195903e-01
 -2.9584619e-01
  1.6229981e-01
 -1.2183368e+00
 -7.0012879e-01
  1.8033576e+00
  1.4930034e-01
 -2.6291991e-03
 -7.4800937e-06
  1.0662638e-03
  4.1181382e-04
 -1.8671110e-01
 -1.7052222e-05
  2.9564262e-04
  6.0527160e-05
 -4.5425832e-06
  5.4478797e-04
 -2.3372294e-04
  7.7472246e-01
 -1.2539796e-05
  1.0906111e-01
 -4.1887355e-01
 -3.3766124e-01
 -1.4873302e+00
  1.3629260e-03
 -2.8513678e-04
  9.9626882e-04
 -7.4300589e-04
  1.7777884e-03
 -3.9461767e-04
  6.5267025e-03
 -1.1231883e+00
  3.2233726e-03
  2.6306071e-04
 -7.6996672e-01
  5.5384557e-05
  4.0599585e-01
 -4.6711005e-04
  1.1893510e-02
  9.9780597e-02
  3.8163453e-01
 -5.9932824e-02
 -3.1153232e-04
 -4.2347136e-04
  6.4296044e-05
  1.4752020e-03
 -1.4337680e-03
  1.8748720e+00
  5.2067288e-04
  3.5582297e-04
 -2.8093686e-04
 -1.6816025e+00
  5.6795543e-01
  3.5152146e-01
 -5.0118968e-02
 -1.0531890e-01
 -8.8748628e-01
 -5.4923409e-01
  3.9031412e-02
  1.0854663e+00
 -4.9127865e-01
  4.4996822e-01
  2.5506338e-04
 -2.7617162e-01
  7.6723760e-01
  1.0716242e-02
  1.7105639e+00
 -4.4435689e-01
  7.2288848e-02
 -1.1866742e+00
  1.9497173e+00
  3.7081223e+00
 -1.0349597e+00
  4.0511899e+00
 -2.7463084e-01
 -2.1341570e-01
 -4.2649606e-01
  1.4287098e-02
  2.5977984e-01
  9.9162102e-01
 -9.2654049e-01
 -6.1752447e-03
  2.6947405e+00
  1.3474009e+00
  3.0176997e-01
 -1.8781184e+00
  1.8517869e+00
 -1.5067773e-02
  1.3889526e+00
 -2.7271107e-01
 -9.5693469e-01
  1.5725717e-01
 -1.9341666e-04
  2.7194136e-01
 -4.3361931e+00
  2.1630886e-01
 -1.5830451e+00
 -1.0181134e+00
  4.3701530e-01
 -2.9079398e-04
  6.3551390e-01
  4.1852453e-01
  6.0505491e-01
  1.6714823e-01
  9.8181397e-01
 -1.7945876e+00
 -9.7740453e-01
  2.6261265e+00
  7.8735334e-01
 -3.5555124e-02
 -3.2236651e-01
  1.5590782e-01
  1.0794058e+00
 -1.4415660e+00
 -1.2517997e-04
 -2.4049195e-02
 -4.7337208e-03
 -4.2371124e-01
 -1.3235998e+00
  1.2889331e-04
 -1.6230263e-01
 -1.3950397e-01
 -2.4852896e-02
 -1.5974592e-01
 -1.3803303e-01
 -1.5875691e+00
 -1.0466509e-02
  1.1779725e-01
 -1.0082359e-02
 -5.2301341e-01
  8.9418620e-01
 -2.9626215e-01
 -1.4758280e-04
 -1.0577750e-03
 -2.9980716e-01
 -5.0254585e-04
 -4.8336908e-01
 -1.8310600e-03
 -1.0921797e-04
  1.8382713e-02
  2.4741301e-03
 -1.0887525e-03
  5.0266436e-04
 -2.4916092e-01
  6.2285388e-01
  5.5427846e-02
 -4.8601620e-02
  1.2853296e+00
  3.7284058e-03
  4.1920114e-01
 -3.6480933e-04
  4.5799963e-05
 -1.2636451e-03
 -1.4475045e-05
  1.7972307e-04
  2.1682057e-04
 -1.2667944e-04
 -9.1503782e-04
  2.5292829e-01
  5.9245569e-01
  7.5517118e-02
  1.1338160e-04
  7.7860147e-01
 -5.8033222e-01
  2.3900012e-03
  1.1044177e-01
  6.0314238e-01
 -1.9256811e-04
 -1.5447706e-04
  4.0878795e-04
 -8.7840919e-05
  3.1403359e-04
  1.2998168e-03
 -1.8145870e-03
 -2.8780250e-05
  3.1835674e-03
 -6.0847531e-05
 -8.7376839e-01
  2.1405000e-04
 -1.6822785e-05
  1.3473856e-04
 -1.5635811e-03
 -8.1677428e-03
 -8.9733772e-02
 -4.9786365e-01
  1.5630682e-01
 -6.7394064e-04
  1.3198048e-03
 -1.3944627e-04
 -6.7663132e-05
  6.1511103e-04
  6.4389850e-04
 -2.1609173e-03
  7.2555309e-03
 -1.6543279e-04
 -5.8316323e-04
  2.8317649e-04
 -2.0084745e-01
 -5.4400397e-04
  6.6149456e-04
  5.0427667e-03
  1.5048018e+00
  1.6970064e-04
  2.2206374e-03
 -1.0128476e-03
  4.6820819e-04
 -1.8937975e-04
 -4.3269224e-03
  1.1211088e-03
  3.9498036e-04
  7.9625330e-05
 -2.6844004e-05
  8.8138200e-05
  1.1461564e+00
  1.5009443e+00
  1.6590539e+00
 -8.9522386e-01
  2.0531285e+00
 -1.8243624e+00
  5.4339409e-01
 -1.6418347e+00
  1.7113962e+00
 -9.8134226e-01
  2.0961089e-01
  4.6123142e-04
  1.1868014e+00
  9.7968395e-06
 -4.2975333e-02
  2.1490555e+00
 -1.8970283e+00
 -5.1744068e-01
 -9.3897557e-01
  8.2261600e-02
 -3.7415414e+00
 -2.1597288e+00
 -1.3769768e+00
 -1.3846418e+00
  8.4752005e-01
 -2.1503091e-02
  6.4996667e-02
  1.5403122e+00
  7.5404639e-03
  3.1041918e+00
 -2.6442671e-02
  9.7931542e-02
  1.6056317e+00
 -2.2984424e+00
  1.0546886e+00
  4.2207363e-01
  1.9443630e+00
  2.8881365e-01
  1.3468591e+00
 -6.2668103e-01
 -3.1891823e-01
 -7.3304772e-01
 -1.5814976e+00
  8.0802393e-01
 -3.2688835e-01
 -2.0410398e-04
 -5.9487419e-03
  9.3831558e-04
 -6.2504458e-01
  9.7380765e-02
  7.7601343e-01
 -3.8114390e-03
 -1.7358596e-02
  1.6864823e-04
 -2.2290039e-04
  1.9501659e-04
  2.8679808e-04
  1.1602202e-02
 -1.1498125e+00
 -6.5845036e-04
  1.2759297e-02
  6.1954510e-01
 -4.7093400e-04
  3.0088774e-04
 -3.0779690e-04
 -7.8841852e-04
 -2.0685871e-05
  5.5196381e-04
 -1.0768146e-04
 -2.7910393e-04
  5.4863642e-04
 -3.2168094e-04
  1.8563232e-03
  1.9901893e-04
 -3.1906259e-04
  9.9660392e-05
 -5.5734563e-04
  2.7916569e-05
 -7.5789574e-03
  1.7380519e-04
  2.5242122e-04
  1.5017844e-03
  5.5471319e-04
 -2.3527478e-04
 -2.0124983e-04
  2.4292155e-04
 -4.9821538e-04
  1.2073189e-03
 -3.4785126e-03
 -6.0639897e-04
 -5.9311674e-04
 -3.3778031e-04
  4.9426325e-04
  1.5555897e-05
  1.6084674e-04
  5.4910884e-04
 -2.3994565e+00
 -3.8996350e-03
 -2.7885407e-04
  1.6344342e-04
 -4.2505559e-04
 -4.3700699e-04
 -8.9778792e-04
  5.6300004e-04
 -1.1231463e-04
  7.0755347e-04
  2.9543109e-04
 -3.9260118e-05
 -6.1182994e-02
 -4.7697598e-01
  5.8155447e-01
 -5.1423101e+00
  2.8191564e+00
  6.0511118e-01
 -5.3758729e-01
 -1.5254617e+00
 -1.1096827e+00
 -3.2295489e-01
 -9.1638714e-05
 -7.9068908e-04
  1.1041184e-03
  1.4102448e-02
  7.8452670e-04
 -2.4231693e-01
 -1.4664415e+00
 -1.5221436e-04
 -3.4869945e-01
 -4.9997895e-04
  2.6850631e-02
  5.2141130e-01
 -8.5407776e-01
 -1.2092656e+00
 -1.0089738e+00
 -9.5141459e-01
 -1.5151507e-01
 -2.0624843e-04
  1.9231510e-01
  5.4825360e-01
  1.3598969e+00
 -8.5217465e-04
  8.1440317e-04
  1.0863353e+00
 -5.7464606e-01
 -1.0453734e+00
  1.9776603e+00
  7.2028663e-05
 -6.0033373e-04
 -2.1551126e-03
 -1.3347621e-05
 -1.0213210e-01
  2.0832369e+00
  1.0848270e-04
  8.1193888e-01
 -2.0253198e-02
  4.5728731e-05
 -3.5411427e-05
  2.0218873e-04
  8.0199953e-04
  7.4544534e-02
  6.5775751e-03
 -1.8340024e-03
 -6.6541448e-02
 -2.8586966e-01
  2.3651817e+00
 -2.4626975e+00
  8.4882700e-01
  2.4958567e-01
  5.8401216e-02
  3.5073477e-01
 -1.6776627e-01
 -1.1123194e+00
 -1.6073753e-01
  2.1034967e-04
  2.3697561e-02
  1.3885305e-03
  9.2361582e-04
  4.7508255e-04
 -5.7336269e-03
  4.5082822e-01
  1.5491681e+00
  1.7249388e+00
  2.7323142e-01
  2.9549035e-01
  2.6399070e-01
 -3.2542437e-01
 -1.1105019e+00
 -4.4001633e-01
 -1.2894531e-02
 -1.1338122e+00
  1.6148174e-02
  7.6515431e-04
  2.3252945e-04
  3.4577376e-04
  1.0515496e-03
 -4.0822247e-01
 -1.0353972e-02
 -6.5360717e-02
 -2.9779831e-01
 -2.0399460e-01
  7.2441399e-02
 -7.2705656e-02
  2.6287720e+00
  1.5631689e-01
 -1.1789361e-02
 -4.2919624e-01
  1.8135397e-03
 -4.1368871e-04
 -6.9618796e-04
  3.2512032e-04
  1.7072717e-04
 -1.2974159e-04
  1.5523682e-03
  4.0997684e-04
 -7.3931134e-01
 -6.3306879e-04
 -3.2241979e-01
 -5.4772611e-04
  6.8767113e-05
  1.7244169e-03
 -4.5742393e-03
 -9.4944442e-04
  3.1266751e-04
  3.5014051e-05
  2.8880749e+00
  4.5629180e-04
  6.5938372e-04
 -8.4966472e-05
  1.6578131e-04
  1.5496669e-05
  3.6859882e-04
  3.2047520e-03
 -3.2601308e-04
 -2.7865963e-04
  1.7413152e-04
 -8.9025538e-04
 -2.2001313e-05
  8.5849356e-04
 -1.6903211e-04
 -8.1674716e-06
  3.2033480e-04
  5.1920879e-06
 -4.6215043e-04
  1.4006175e-03
 -7.4201339e-04
 -1.8890432e-04
  3.9691091e-04
  1.0695833e-03
 -1.3173873e-03
  3.1508901e-04
  2.0131745e-04
 -1.4657651e-04
  4.7215915e-04
 -1.3287485e-03
 -3.6352951e-02
  1.9385004e-04
  4.8899103e-04
  2.1628181e-04
 -2.8594663e-05
 -5.6254183e-04
 -3.8453870e-04
 -3.3947648e-04
 -1.5223712e-04
 -2.0369241e-04
 -8.3688571e-04
  2.3962332e-06
  4.3135078e-04
  2.1601419e-04
  1.3919824e-04
 -3.6618029e-04
  1.2251407e-05
 -3.9261714e-01
 -3.7235670e+00
  2.1930772e-03
 -3.1503055e-02
  1.0533900e+00
  2.1295820e-01
 -1.2789603e+00
 -7.6000232e-01
  1.0733285e-04
 -3.0594615e-03
 -9.4850385e-04
 -4.1375966e-03
 -2.8853776e-02
 -2.6806557e-04
  8.3370187e-04
  2.4137746e-03
 -2.2238889e-03
 -2.6688323e-04
 -9.9532135e-02
  6.6530949e-04
  4.6657902e-04
 -3.3205675e-03
  4.9304679e-05
  3.9734311e-02
  6.4695197e-01
 -9.2157580e-02
 -1.5192252e-01
  2.0135097e-04
  8.9019341e-05
 -7.8374278e-03
 -3.0109336e-04
 -2.8034656e-03
 -2.1951903e-04
 -8.2853097e-05
 -1.1557459e-03
  8.3583052e-04
 -2.1606375e-04
 -9.7208445e-05
  6.1462386e-05
 -3.9779829e-05
 -1.6479271e-03
 -1.0243700e-01
 -4.1978281e-02
  6.4239051e-04
 -7.9085235e-05
 -3.1450120e-04
  7.0637360e-04
  4.5201977e-04
  3.0243548e-03
 -8.5795479e-04
 -8.9220055e-05
 -1.1193606e-04
  3.8816829e-04
 -1.2658430e-03
  4.6944052e-01
  1.3581209e-01
  1.3726625e-01
 -7.1159971e-01
  2.3777809e+00
 -6.1264265e-01
  1.5026425e+00
  1.8109230e+00
 -8.5387671e-01
 -7.7898413e-01
  1.1410107e-01
  7.9085660e-04
 -2.9416481e-01
  5.5632945e-02
 -1.0602641e-03
  3.9831123e-01
  2.2483008e+00
 -5.0975889e-01
 -1.5357918e+00
 -7.0753050e-01
  9.0199554e-01
  1.8836485e+00
 -3.1602837e-04
  2.0431051e+00
  8.0647439e-02
 -1.8322886e+00
  1.6727184e+00
  1.2811049e+00
  1.5450772e+00
  1.1094161e+00
  3.4390543e-02
 -1.1302326e-04
 -1.0719523e+00
 -2.4989769e-01
 -1.4605142e-01
  1.3471184e-03
 -8.0923843e-01
  1.5269336e+00
  1.5885364e+00
 -6.2025976e-01
  5.0731969e-01
 -1.1565704e+00
 -5.9247470e-01
  2.7648890e+00
  1.0545681e-01
  5.1241356e-04
  8.9705503e-04
  3.1704276e-05
 -2.5829181e-01
  2.9623905e-01
  9.1805291e-01
  1.1853168e-02
  2.0106746e-02
  3.4426543e-01
  1.7507832e-01
 -1.6158155e-01
  1.9814569e-01
 -3.1161565e-01
 -1.1349720e-01
 -1.7038590e-03
  3.4155757e+00
 -2.6937929e-01
  1.7264407e+00
  1.0608967e-03
 -4.3170632e-05
  4.5605404e-03
 -9.0959191e-04
  1.2216538e-03
  1.1858055e-02
 -4.8193049e-02
 -5.6373882e-01
  2.7698702e-03
  1.5287460e-01
  5.2048897e-05
 -1.2678867e-03
  2.0219164e+00
  2.8364427e-04
  1.9619050e-02
  1.1833478e+00
  9.1502172e-01
  5.3240389e-01
 -6.2189800e-05
 -2.2081947e-03
  1.7986761e-04
  3.0326037e-05
 -2.3882161e-04
 -6.0011089e-01
  2.3735676e-05
 -1.3476066e-01
 -2.6493329e-01
  1.2723407e-01
 -1.3529222e-02
  1.5831945e-03
  1.1354869e-02
 -1.8001805e-03
 -1.2142215e-03
 -2.7272737e-01
  8.5811332e-02
 -6.5331662e-01
  3.4405189e-04
  8.6083869e-04
 -5.1272748e-04
 -3.7519421e-04
 -7.3653246e-05
 -9.9214783e-04
 -2.2360349e-04
 -1.0360732e-03
  7.1395511e-06
 -8.5413709e-02
 -9.3312055e-02
 -2.7147970e+00
 -8.3575636e-01
  2.1285405e+00
 -2.6029615e-02
 -1.5513523e-02
  4.4365540e-01
 -1.9821359e-01
  4.1289896e-02
 -3.9109445e-04
 -6.3018226e-03
  1.7373095e-04
 -9.4416020e-05
 -3.2964017e-05
  2.9543838e-01
 -3.0181004e-02
 -9.6649027e-01
 -1.5582875e+00
  1.2468429e+00
  4.0245199e-01
  7.8389335e-01
  1.1459854e-02
 -4.1101467e-02
  2.3827293e+00
 -1.7792413e+00
 -3.0768701e-01
  3.4003172e-02
 -1.0318533e-03
  1.0875841e-02
 -4.5537096e-04
  3.5800764e-04
 -3.1132862e-04
  6.4855145e-04
  2.2091609e-01
 -1.5317470e-01
  2.3913801e-02
 -7.7463112e-05
  1.1165304e-01
  3.5095236e-01
 -3.4986719e-04
 -4.4572711e-02
 -7.5865388e-01
 -7.5151932e-01
 -7.2111219e-01
  7.1427482e-03
  6.3575710e-05
  4.4742596e-04
  2.4802404e-04
  1.0823008e-04
 -9.2836871e-04
 -5.6984164e-03
  1.7638588e-02
  2.5386699e-02
 -1.4587873e+00
  2.0246134e+00
 -1.1350007e+00
  1.0357461e+00
 -1.7894715e+00
 -4.3943033e-04
 -1.0704676e-01
  2.2502701e+00
  6.3402289e-01
 -1.0278805e-03
 -6.4344436e-04
 -1.8381677e-05
 -1.8556575e-01
 -1.5229589e-03
  2.6485133e-03
  1.2108994e-04
 -2.6701523e-03
  8.8595221e-04
  9.9599726e-02
 -5.7577518e-06
  3.5303048e-04
  2.3911086e-04
  6.9868518e-05
  3.3002615e-02
  1.1292607e-01
 -1.0372736e-02
  1.8246370e-04
 -7.6074888e-05
 -7.3788030e-04
 -4.3014450e-05
  6.6280991e-05
 -1.9988070e-04
 -1.4060362e-03
 -2.8714279e-04
  3.8329404e-04
  7.0526724e-04
  9.9785626e-05
 -8.3489774e-04
 -1.3865377e-01
 -8.0581696e-04
 -5.8175036e-04
 -4.1590710e-04
 -1.4910883e-03
 -1.8340406e-04
  2.8298184e-04
  1.2012589e-04
  7.7132601e-04
 -1.1680171e-04
 -2.6407931e-04
  7.8350503e-04
 -1.2183040e-04
 -7.7699908e-05
 -9.0274988e-03
 -1.7230931e-03
 -3.7202504e-04
 -1.2576244e+00
 -1.3819396e-01
  9.2569385e-03
 -1.3199495e+00
 -6.4617017e-04
 -8.7494713e-01
  9.9810213e-01
  1.2023454e+00
  1.7119222e-04
  7.5021747e-04
 -4.0719903e-04
  7.6678471e-04
 -1.1618758e-04
  1.5312811e-05
 -6.9400757e-03
  2.1916296e-04
 -3.9001220e-06
  5.3064162e-01
  8.3383939e-06
  1.7733227e-04
 -6.1183957e-05
 -8.3927596e-05
 -2.3644550e-03
 -3.0889763e-02
 -3.3837888e-01
 -6.4537042e-01
  4.7358777e-04
  1.2817074e-03
  2.9225118e-04
 -1.8574194e-04
 -2.2556227e-04
 -1.6704047e-04
 -1.7333215e-03
  2.8623348e-05
 -3.9611442e-04
 -2.8574167e-04
  1.2281983e-03
  2.7697026e-03
  6.4681197e-04
  9.6085406e-04
  3.6441514e-04
  4.6504478e-04
  7.0504379e-04
  6.2111657e-02
  3.6419646e-03
 -4.4958133e-01
  1.5088446e-03
 -1.0863517e-03
  6.9660548e-04
  7.4424577e-05
 -2.7939754e-05
  3.8648606e-03
  1.5167546e-04
 -8.8127983e-01
  3.7448335e-01
  8.3241664e-02
 -4.1076854e-02
 -2.8416869e-01
  2.9934267e-02
  3.9653368e-02
  6.3579357e-01
 -9.7371694e-03
 -1.3749453e+00
 -5.0245881e-01
 -1.2168601e+00
 -3.0944586e-01
  6.6808192e-05
  1.0786361e-01
 -1.5709873e-01
  3.6837635e-05
  1.2923237e-04
 -1.9568123e+00
  6.1689937e-01
 -2.7069604e-04
 -9.9114340e-04
  4.1368343e-03
  4.3112290e-01
 -2.4567926e-01
  6.3021678e-01
  4.1828933e-01
  3.7857386e-05
  8.0934030e-01
 -1.9933401e-01
 -2.3927544e-01
 -3.2800473e-02
  3.0324233e-04
  1.2633135e-04
  5.5561382e-02
 -2.2620549e-04
 -1.2434455e-01
 -8.2260340e-05
 -1.1037756e-04
 -9.5851999e-04
 -2.4739932e-04
 -6.0472101e-02
 -4.7207591e-03
  7.0366018e-02
 -2.3498867e-01
 -1.9470575e-05
  3.0225824e-04
 -1.2774746e-03
  2.0939460e-02
 -5.4624566e-04
  4.0039243e-04
 -1.4207488e-03
 -9.5851542e-03
 -3.4734773e-04
 -1.4061756e-01
  3.4875217e-01
  4.8733689e-04
 -1.9779125e-02
  7.2320735e-01
  2.8344066e-04
  1.1793559e-02
  6.4811355e-01
 -5.0025102e-04
 -2.3660818e-03
 -2.7763145e-04
  1.5047393e-04
  3.8267075e-04
 -4.0499415e-04
  1.0573425e-04
  5.9087778e-04
  5.7721074e-04
  3.1785652e-04
 -8.7689012e-02
  6.0831342e-04
  6.9985812e-04
 -9.7321057e-01
 -2.7506697e-04
 -1.7560945e-01
  2.2236680e-04
  1.5077769e-04
 -3.1806764e-04
 -5.0417260e-05
 -1.1698751e-04
 -1.5205005e-04
  1.3807948e-03
  2.1772122e-04
  2.4058206e-04
  2.5606359e-04
 -2.8523541e-04
 -2.9996975e-04
 -4.2770285e-04
  2.0535572e-03
  5.4301046e-02
 -3.6731755e-04
  7.6147274e-04
 -1.5166400e-04
  1.0802021e-03
  1.7547725e-04
 -1.5000756e-04
  8.1422197e-04
 -1.5881512e-04
 -6.0538036e-01
 -5.9914764e-04
  6.5735425e-05
  4.6377830e-04
  8.4196770e-05
 -1.1157301e-04
 -3.8836469e-04
  3.0254078e-01
  7.6317155e-01
 -3.3053476e-01
 -1.3017602e+00
 -8.7462318e-01
  4.3246951e-02
 -2.2645895e+00
 -2.8635805e+00
 -1.8416595e-02
  1.3549151e+00
  1.3271130e+00
 -4.9335930e-01
  4.0633377e-01
  2.8131172e-04
 -7.8876925e-01
 -1.2788221e-01
  4.9834506e-04
 -3.1497318e-01
  7.5848512e-02
  5.3191584e-01
  5.5300546e-01
 -1.3020860e-05
 -4.1263778e-04
  1.3062143e-01
 -1.8872620e-01
  1.1058944e+00
 -1.2060618e+00
  2.0766351e-02
  6.7365599e-01
 -3.3274817e-03
 -1.1511679e-01
 -8.8299006e-01
  5.5328675e-02
  2.2176924e+00
  1.6180933e+00
  3.4629453e-02
  9.3730271e-01
  1.3949560e+00
 -2.1811882e-01
  1.7244756e-02
  2.9487240e-01
  2.5030923e-01
  9.8599887e-01
 -9.8233205e-01
  4.7576282e-02
 -2.6388383e-03
  7.1432725e-05
 -1.3555406e-04
 -1.2541190e-04
 -6.8202913e-02
 -1.6027392e-03
  1.7813165e-04
  5.4547745e-01
  7.0901667e-03
 -6.6215932e-01
  9.1586351e-01
 -7.3987074e-02
 -3.1083158e-01
 -1.1350970e+00
  1.4742857e-02
  1.1126254e+00
  2.3699520e+00
  1.6234630e+00
  3.9710182e-01
  8.0729008e-01
  9.7967160e-05
  3.3429810e-01
 -8.6916029e-04
 -6.0557880e-02
 -8.4034747e-01
  1.0496366e-01
 -4.3367053e-04
  6.2793177e-01
 -4.0077345e-04
  6.9899851e-04
 -3.3270756e-03
  6.1536801e-01
  8.4737760e-01
 -3.9424036e-02
 -1.6851643e-01
  1.3049788e+00
  8.8617885e-01
  4.0901257e-05
  4.4113687e-01
 -1.1511361e-03
  3.5062760e-01
 -5.5099481e-01
 -8.0156103e-03
 -5.9481198e-01
  1.2033033e-03
  3.4062695e-02
  1.8493222e-01
 -2.0570909e-03
  2.0606831e-01
  1.6419329e-03
  1.3621598e-01
  1.9790109e-03
  3.7230107e-01
  2.7965151e-02
  1.4936057e-01
  9.0166744e-05
 -7.4775540e-04
 -4.7794092e-02
  8.3967589e-06
  5.6724501e-04
 -4.7827972e-04
  1.4891890e-03
  4.6676894e-05
  4.0357265e-01
  1.1770949e+00
 -6.1965072e-01
  9.3245524e-01
 -5.5073231e-01
 -2.2294500e-01
  3.5049064e+00
 -1.1217349e+00
  7.3102242e-01
  8.3815758e-05
  1.8968762e-04
 -2.8524638e-04
  2.6197100e-01
  2.0034953e-03
 -3.4599664e-04
  6.8660025e-05
  1.0714612e-03
  3.4393209e-01
 -6.2270012e-02
 -1.9266758e-03
  7.8311110e-01
 -6.2005275e-01
  2.3894569e-01
 -1.0410718e+00
 -3.9314157e-03
  5.5919254e-01
  6.2727648e-01
 -1.0539814e-02
 -2.4009099e-02
  7.9797733e-01
  5.9764642e-01
  1.2031078e+00
 -3.7330580e-03
 -8.1602615e-01
 -3.0494961e-01
 -1.4605267e-03
 -1.3264319e-01
  5.8277901e-02
  3.9651938e-02
 -1.8862421e-02
  3.2434833e-01
  7.4463838e-01
 -7.0732832e-01
 -1.3051865e-01
 -8.5814342e-02
 -3.2378943e-03
  3.2953219e-04
  2.2642815e-03
  2.4261758e-04
  4.2389158e-05
  2.2623644e-03
 -3.5898082e-02
  2.2748145e-04
 -8.7220711e-04
  3.4228823e-01
  5.0369728e-02
 -1.1859075e-02
  1.7258887e+00
  9.9114627e-02
 -1.1641622e-04
 -3.0956912e-01
  2.7807525e-01
  1.0475112e-03
  6.9054557e-05
  5.1199631e-03
 -8.2705279e-05
  2.7285135e-04
 -2.4740855e-04
 -9.8845586e-02
  5.7085732e-04
  3.9465354e-05
 -6.5074308e-04
 -5.5413085e-01
 -4.8471522e-04
 -7.1140984e-03
  1.8069127e-03
  1.5028116e-01
  3.5163115e-03
 -1.3570413e-01
  5.6296164e-01
  3.5746262e-04
 -2.5667481e-03
 -2.3357797e-02
  6.9996854e-04
 -1.0950159e-01
  1.4474221e-04
 -1.3893769e-03
  1.1352154e-02
 -4.0993706e-04
  5.0137859e-02
 -3.4389213e-02
 -1.8348593e-03
  1.1290642e-04
 -1.6765721e-04
 -4.4461506e-04
  1.0843970e-04
 -2.9451965e-04
  3.6134087e-02
  1.2014501e+00
 -6.2703926e-05
  3.2651613e-05
  1.6281231e-04
  2.9685118e-03
 -9.4717128e-05
 -1.4328137e-02
 -1.3141800e-03
  2.7690404e-03
  4.3408707e-02
  5.8682626e-01
 -6.6402799e-01
 -2.4677606e-01
  2.1095181e+00
 -4.3932301e-01
 -7.9177159e-01
  6.5685409e-01
 -6.4391989e-01
  1.2376410e+00
 -1.8572921e-02
  2.2661195e+00
  3.9365128e-01
 -1.7770396e-03
 -2.2841835e-02
  2.5264995e+00
 -2.3270185e-01
 -3.6788981e-02
  3.6001871e+00
  9.3311235e-02
  5.6739432e-01
 -4.5500728e-01
 -8.5655206e-01
  7.4073547e-01
  7.4178016e-01
 -2.4235344e-01
  5.5479527e-01
  4.0175676e-01
  8.8019842e-01
  1.1220924e+00
 -3.5131156e-01
  5.7782221e-01
 -3.6224931e-01
 -3.0361480e-01
 -7.3146206e-01
  6.4681858e-01
 -1.3508723e+00
  2.8070326e+00
  3.4662956e-01
 -1.0133747e+00
 -6.1594909e-01
  8.7867808e-01
 -1.4633977e+00
  6.1859560e-01
  5.4587847e-01
  1.8380852e+00
  3.1104149e-02
 -5.8733218e-04
  1.2092627e-01
 -1.7159568e-01
  1.1332469e-03
  5.4512788e-02
  3.7420312e-01
  2.1268767e-01
 -3.5021892e-03
 -5.8116391e-03
  1.5261553e-02
  4.0729788e-01
  4.5168757e-01
  1.8064995e-01
  6.3404336e-04
 -1.3967842e+00
 -1.0719367e+00
 -4.1673568e-04
 -7.2884664e-02
  1.2340559e-01
  7.4547992e-05
  2.1471174e-03
  1.5120721e-05
 -4.5438058e-04
 -2.1386282e-04
  2.2830559e-02
  4.7913822e-04
 -8.9269614e-01
 -2.3469825e-01
  4.6794326e-03
  3.0063625e-04
 -2.8799325e-01
 -1.3776673e-02
  1.4265822e-01
  2.5638524e-01
 -7.4688029e-01
 -4.1865191e-04
 -3.2762365e-04
 -1.2646396e-04
 -2.6992339e-04
 -2.0110285e-01
 -1.1026504e-03
  7.7486364e-04
 -1.4381332e-04
  4.8079764e-05
 -5.2091084e-02
  8.2053745e-04
 -3.2516869e-04
 -8.2733966e-02
 -4.3301098e-04
  1.5286238e-01
 -1.4982676e-02
 -2.2970001e-01
  3.9279438e-04
 -3.6557686e-01
 -8.8202730e-03
 -4.2960813e-04
 -4.6561781e-04
 -2.3217853e-04
  1.2658274e-03
 -1.6612175e-03
 -2.2663432e-03
 -4.6179703e-05
  2.4751542e-02
  4.7624767e-01
 -1.7091161e-01
  3.4367703e-03
 -3.3172771e-01
 -7.0722448e-04
 -1.2596730e+00
  7.1559805e-01
  2.6580665e-02
  2.4889750e-04
  3.6962377e-04
 -1.7801123e-05
  2.6578450e-04
  2.2580628e-03
  4.3514636e-05
 -4.0494377e-04
  3.7850995e-04
  6.8820620e-05
 -1.0228095e-03
  1.3456710e-03
  3.5510943e-04
 -1.3769361e-04
 -8.4944878e-04
 -2.1303172e-04
 -1.6642137e-03
  3.0189671e-05
  7.7327498e-04
 -1.2732138e-05
  4.3124906e-03
 -2.9322747e-04
  4.3590760e-04
  2.9528580e-04
  6.7758880e-04
  6.2445150e-04
 -1.0026217e-04
 -1.1470995e-04
 -1.1065806e-03
 -1.9148574e-04
 -6.6038192e-06
  7.2874461e-04
 -2.7854327e-04
  4.9655828e-05
 -5.2524392e-05
 -1.9345043e-04
  2.0439220e-04
  4.2185296e-05
  8.8085327e-04
  2.1700238e-04
  3.0108975e-04
  4.7334860e-04
  8.7240500e-05
  5.3104694e-04
  3.6735121e-06
 -5.7823776e-04
  1.4927506e-04
  1.7996806e-04
 -8.6781220e-04
 -7.9763995e-04
 -6.8769598e-04
 -2.3690527e-03
  2.5738747e-04
 -5.1639499e-06
  3.2720491e-04
 -3.9610840e-04
 -1.9584886e-04
  1.7865420e-04
  2.9899224e-04
  5.5528490e-04
  7.1796298e-05
  1.3652993e-03
 -4.3181083e-04
 -3.4112716e-05
  2.3912569e-05
  1.9370723e-03
 -2.3290892e-04
 -1.8903913e-04
 -1.1292524e-03
 -1.2558158e-03
 -1.4197058e-04
 -1.4764381e-03
  1.8550832e-04
  4.1661956e-04
  3.9048356e-04
  9.8410703e-04
  3.4946055e-04
 -2.9831810e-04
  5.2322418e-04
  2.1513233e-04
 -8.3715335e-04
  8.9499180e-04
 -1.6326740e-04
 -1.5637942e-04
 -1.7834462e-04
 -3.3927671e-04
 -2.3883965e-04
 -1.2259015e-04
  6.5191573e-04
 -1.4797089e-03
 -3.3511678e-04
  2.4386400e-05
 -4.9376936e-06
 -1.6931424e-04
 -1.0911537e-03
  1.6667582e-03
  2.8769637e-04
 -2.4227584e-04
  1.0982078e-04
  5.1726343e-05
  3.7111816e-04
 -5.3318357e-01
 -6.7400615e-05
 -6.9755442e-02
 -2.3666209e-01
  1.1516878e-03
 -1.4940275e-02
 -1.9085949e-04
  2.9544457e-04
  2.5209379e-01
 -1.2236102e-03
 -1.3991637e-04
 -8.3158351e-04
  5.9659946e-01
  6.4458713e-05
  1.1074737e-03
 -6.9658779e-02
 -5.4015611e-05
  6.2802173e-05
  7.1408307e-05
  2.0228498e-04
 -3.4280246e-04
  4.7239411e-04
  7.6713334e-03
 -1.0053980e-02
  1.1003736e-02
  2.1283784e-04
 -1.3066233e-03
 -1.0809139e-02
 -8.9472777e-04
 -1.0366564e-03
  2.4586567e-04
 -1.5787288e-03
  1.2032075e-03
 -1.4082002e-03
 -9.6814510e-05
 -1.3308314e-03
 -7.0557297e-05
  9.0243528e-04
  1.7553075e-03
 -9.7297947e-04
 -2.5758923e-03
 -6.4194226e-04
 -1.0853965e-03
 -2.6182912e-04
 -5.8765967e-05
  2.4564425e-04
 -1.9627416e-03
  1.2584708e-03
 -2.2328534e-04
 -8.9495750e-03
  5.1958818e-04
  3.2304055e-05
  5.1032691e-03
 -1.7658654e+00
  4.5592600e-01
 -1.8175744e-01
  9.8671395e-01
  8.9711845e-01
 -8.7753594e-02
 -7.9931229e-01
  1.1698188e+00
  3.3428741e-04
  5.5654033e-04
  8.9891917e-05
 -1.9706480e-04
 -2.6201803e-04
 -6.8737994e-05
  6.8654408e-05
  2.5524012e-05
 -1.1498781e-03
  2.9038879e-01
  4.2294750e-01
 -1.6650568e-04
 -1.1670672e-04
 -3.8284675e-04
 -4.7479048e-03
  2.3919283e-01
 -4.4570509e-01
 -6.2598340e-02
 -1.2415445e+00
 -1.6682409e-04
 -1.6240667e-03
  8.4517401e-04
 -4.0503038e-04
 -3.6943643e-04
  7.9758414e-05
 -3.6453340e-02
 -6.7548366e-04
  6.8241282e-04
  1.6752681e-05
  1.2457800e-04
  7.7154309e-06
  1.7999612e-01
  1.1423570e+00
 -6.7675188e-02
 -2.3914250e-02
 -1.1463397e-03
 -9.2568301e-04
  1.5242441e-04
 -2.6215971e-04
  5.1246756e-05
 -1.0871825e-04
 -2.6610022e-04
 -2.9911736e-05
 -5.7143212e-04
  8.6201295e-02
 -2.8771712e-04
  4.7086319e-03
 -5.5762648e-04
 -5.1561987e-04
  3.5758004e-02
 -1.3304699e-03
  2.7040442e-05
  1.0371509e-01
  7.5552678e-01
  3.3340239e-04
  2.8463666e-04
  1.0377934e-03
  1.1970352e-04
  1.1783692e-03
 -7.6364528e-04
  3.1890784e-05
  8.1131706e-04
 -4.1458132e-03
 -5.6427211e-04
 -5.6074228e-04
  5.0895119e-06
  9.2023792e-04
  3.1607286e-03
  9.5276418e-04
 -2.0116256e-04
 -4.2564720e-01
  4.0640631e-03
  1.3232566e-03
 -4.8170477e-04
  2.0464396e-04
  7.5074943e-04
 -2.7450913e-04
 -2.1579288e-04
 -6.8251087e-05
  2.0472000e-03
  1.9075973e-05
 -3.8770767e-04
  3.7832209e-04
 -9.8491542e-04
 -1.8557410e-04
  1.0602953e-04
 -3.3538850e-04
 -2.1071492e-03
 -8.1641320e-04
 -1.8639154e-03
 -3.0332967e-04
 -4.3874288e-06
 -3.1813403e-04
 -7.2118419e-05
  2.7083242e-04
 -1.5100781e-03
 -1.0000984e-03
 -1.4748366e-03
 -5.6644480e-05
  4.0950658e-04
 -1.5221684e-03
  3.7488189e-05
 -4.7509084e-04
 -6.1624800e-05
 -5.5840833e-04
 -1.5290143e+00
 -6.4385065e-04
 -6.6259387e-04
  4.7690721e-04
  2.9947967e-04
 -3.5846877e-04
  2.0706789e-03
 -8.1177976e-04
  1.3730547e-04
  1.1897258e-03
  2.6086991e-04
 -1.0888007e-05
 -4.1415900e-04
 -1.9700400e-04
 -9.0624113e-04
  6.7368906e-04
  1.3459215e-04
 -3.7975176e-04
  1.4310639e-04
 -1.3529161e-03
  9.5693758e-06
  8.0178690e-04
 -4.0469909e-04
  3.2112122e-04
  1.1176014e-03
  3.6814708e-01
  9.3806280e-05
  2.3518219e-04
 -1.4101861e-04
 -5.3234445e-04
  1.6359737e-04
  1.1459208e-04
 -1.6436883e-04
 -6.4646039e-04
  3.1984338e-05
  1.4646063e-04
  3.1352605e-04
  9.7472526e-05
 -6.5958698e-04
  4.0809790e-04
  3.5683506e-03
 -3.1866992e-04
  2.0019680e-04
  4.0360034e-04
  5.5590936e-04
  7.1959698e-04
 -2.5099451e-05
  1.8030494e-05
 -5.9883718e-05
 -1.7873985e+00
  6.3792038e-01
 -5.4595798e-02
 -1.6038706e+00
  3.3642504e+00
  9.4280928e-02
 -2.5353651e+00
 -7.4972779e-01
  3.9431090e-03
  1.3940915e-01
 -8.4162911e-04
 -6.3762243e-05
  1.5230224e-03
  5.4068171e-04
 -1.3062233e-04
  2.9529254e-05
 -4.6296072e-01
  1.9753972e-04
  4.5034334e-01
 -5.6801056e-03
  3.8626716e-03
  5.0902052e-04
 -2.4399281e-04
  2.1229833e-01
 -8.9905339e-01
 -1.1297580e-01
 -3.5155278e-01
 -4.1631563e-04
 -2.9958006e-02
  7.0001179e-04
 -2.1176222e-01
 -7.3618510e-05
 -7.7622496e-02
 -2.3672207e-01
 -1.1437509e-04
  2.1558763e-03
  6.0094311e-04
 -1.9948921e-04
  2.2757713e-01
  1.0020786e-03
  3.8624567e-04
  5.8427897e-05
 -1.6420698e-02
 -2.8290034e-03
  2.5328809e-01
  1.1040346e-03
  8.3922343e-05
 -1.2312299e-05
 -2.0611606e-04
 -1.7443518e-03
 -2.6011615e-04
 -2.2501706e-03
 -5.0960592e-04
 -3.4015632e-04
 -7.6755106e-01
 -4.2273300e-03
  1.5192452e-03
  5.1613563e-01
 -2.3923302e-01
  1.0062202e-04
 -1.0819317e-01
 -1.0771631e-01
 -2.6098627e-04
  3.6847507e-04
 -1.0950555e-03
 -1.9584362e-04
 -7.7035525e-05
  6.0635788e-04
  1.8757029e-05
  6.3255182e-05
  1.2343032e-04
 -5.3579537e-03
  3.3851166e-04
 -2.9009898e-04
 -3.8477333e-04
 -2.4837640e-04
  2.5476355e-04
  2.9562318e-04
 -1.5360836e-04
  1.6572126e-03
 -5.0815332e-01
 -7.6998047e-05
  9.7576261e-04
 -8.1907315e-03
 -4.3341072e-04
  6.3152198e-05
 -1.2511879e-03
  1.7646775e-03
 -1.1940514e-03
  1.0385580e-04
  2.2647106e-04
  3.1214819e-04
  4.4318259e-04
  7.4196380e-04
  2.1591970e-05
 -1.4759108e-03
 -2.4556791e-04
 -5.5080384e-04
  4.4146864e-04
  2.5084446e-04
 -2.2427065e-04
  3.3198652e-04
  5.9202325e-04
  2.3534874e-04
 -8.4107235e-04
  5.4838462e-04
  2.8484839e-03
  1.4247671e-04
 -7.7893591e-01
  1.5192902e-04
  7.0635072e-04
  1.6613135e-03
 -2.2496257e-03
  3.8112506e-05
  9.8166731e-04
 -1.7278190e-01
  3.9356123e-04
  4.8755217e-04
  2.3261808e-05
 -9.7825192e-05
  1.9979759e-06
  1.5158877e-04
  1.2617341e-04
  1.7920273e-05
  2.7608004e-04
 -3.8307131e-05
  2.4392273e-01
 -2.7746664e-04
 -8.7398512e-04
  3.8489333e-04
 -1.1033588e-04
  4.3277346e-04
 -4.3479580e-05
 -1.2591340e-05
 -6.4094662e-04
  4.0267836e-04
  1.0902380e-03
 -6.7340839e-04
  9.2498469e-04
 -2.6971515e-04
  1.8192150e-05
 -5.2601983e-05
 -1.2408050e-03
  1.4587675e-04
 -7.5219962e-04
  1.9942636e-03
  3.8964380e-04
  2.8456471e-04
  9.5889460e-05
  3.8830200e-04
 -2.6607353e-05
 -5.6891382e-04
  3.8954142e-01
 -2.3439167e-04
 -4.0333744e-06
 -2.2379812e-04
  9.6634787e-04
  1.4078412e-04
  6.3083530e-04
  3.5938596e-05
 -1.9091521e-03
 -1.1269731e-04
 -9.6853602e-01
 -9.3777835e-01
  1.0009342e-01
 -3.8273188e-01
  7.0674556e-01
 -5.4815197e-01
 -1.1244540e+00
  2.2661310e-01
  5.2408304e-02
  1.2643003e+00
 -4.7828998e-02
  9.8681025e-02
  4.5413083e-01
 -7.3131472e-01
  5.4611993e-01
  2.8491064e-03
 -6.9282323e-01
  7.6497975e-04
  6.0604442e-02
 -7.4287015e-01
 -1.1385400e+00
  7.2387300e-02
  5.8720279e-01
 -1.5502349e-01
 -4.0933865e-01
 -6.6807419e-01
  5.5937195e-01
 -3.3151692e-01
 -4.0453416e-01
 -1.2670219e+00
 -2.6275361e-01
  2.4721128e-04
 -2.3937315e-01
 -1.3278300e+00
 -7.6740541e-02
  6.0627204e-03
  7.0920604e-01
 -2.3083603e+00
 -3.4613598e-02
 -1.5437312e+00
 -1.9908640e-01
  2.7494924e-02
  6.0709506e-01
 -2.9261902e-01
  1.3324411e-01
  1.8732612e-01
  1.4893434e-03
 -5.1902966e-03
  3.3810949e-01
 -2.5430375e-01
 -3.9077121e-01
 -2.9731911e-04
 -1.2104644e+00
  3.7269592e-01
  3.3285317e-01
  3.3211105e+00
 -4.9818242e-03
 -1.7806960e-02
  3.5718495e-01
 -8.2187253e-01
  7.7350622e-01
 -1.7894970e+00
  1.2610384e+00
  1.5298917e+00
 -3.3771601e-03
 -3.1745969e-03
  1.5695721e-01
 -5.5601285e-04
  7.2386760e-01
 -2.1691865e-03
  1.2460011e-01
 -1.2488152e+00
 -1.4140993e+00
 -8.1149304e-01
  6.5197656e-03
 -3.4035397e+00
  1.3974272e+00
  2.1916826e-01
 -7.9889798e-01
  3.5456216e-01
 -1.0013813e+00
 -2.3634303e-03
 -5.2101368e-01
 -5.0882667e-01
 -3.5107590e-03
  1.1681101e+00
 -1.9506329e-03
  3.7992381e-02
 -5.7202685e-01
 -8.2777387e-01
  9.2060275e-02
 -4.1151714e-01
 -5.6994259e-01
 -8.7019646e-01
 -7.0195264e-01
 -5.1215243e-02
  5.6869566e-02
 -2.5921082e-02
 -1.8872030e+00
 -6.4677483e-01
  5.8848260e-04
 -1.8491822e-03
  2.6509175e-01
 -2.3917739e-01
 -8.8626899e-02
 -5.7304926e-05
  4.5992996e-04
 -2.1009680e-04
 -1.4376482e-02
  4.7884455e-01
  2.4955233e-03
 -8.3812553e-01
 -4.1101715e-03
  3.2597454e-04
  2.5203475e-01
 -2.3462260e-03
  1.1257479e-03
 -9.9476936e-05
  1.1335815e-04
 -3.3089987e-04
  1.9985302e-04
  2.2023744e-03
 -1.0490309e-03
 -3.9128349e-06
  2.2435531e-03
  7.3386247e-05
  8.2806521e-04
 -4.0554776e-05
 -5.3420855e-04
 -5.0340608e-05
  3.7863087e-05
 -2.7337740e-03
  3.5389956e-02
  3.0057223e-03
  8.9750543e-02
 -7.7534496e-04
  4.3384560e-05
 -1.8803440e-03
 -2.2359035e-04
  1.4404316e-03
  6.3270098e-05
 -1.1506972e-01
 -6.4620539e-04
  2.0330147e-01
 -1.3418413e-03
  7.8815001e-04
 -1.0167881e-03
 -7.5162406e-04
  4.2456758e-04
 -5.4189906e-04
  9.9078854e-05
 -2.2837533e-04
 -3.5438885e-04
  8.8198623e-04
  5.8503682e-04
 -2.6212499e-04
 -1.0876643e-03
 -2.6185001e-04
  3.7927704e-04
  1.1688604e-03
 -9.6200011e-04
  1.7069567e-04
  7.2924122e-02
 -2.7655537e+00
  2.7828624e+00
 -2.7092240e+00
  9.2485732e-01
 -2.4908362e-02
 -1.2106587e+00
 -1.6328779e-01
  6.1327851e-01
  3.9719221e-01
  1.4233710e-04
 -5.0659064e-04
  3.1735343e-01
 -6.2289409e-04
 -3.0963188e-03
 -2.8707553e-04
  8.4664172e-01
 -3.3232808e-02
 -1.5292555e+00
  9.2992723e-01
  1.1399323e-01
 -2.4050851e-01
  5.8076119e-01
  1.4583603e+00
  5.1544213e-01
 -1.7399973e+00
 -6.8120873e-01
 -3.1782401e-04
 -3.4513057e-04
 -2.9960900e-04
 -7.8900594e-01
  1.9770087e-01
 -2.5064579e-01
 -3.1901978e-02
 -3.7007487e-01
  6.8742287e-01
  1.9892028e-03
  2.8333312e-04
  3.6052565e-04
  2.0459003e-03
  5.9378964e-01
  2.8261867e-01
 -3.1162658e-01
 -5.4723024e-04
  1.9280342e-04
  3.4408465e-03
 -2.0489952e-04
 -1.0088097e-03
 -5.4754416e-04
 -3.6474006e-04
 -1.4301349e-03
 -2.6766989e-01
  2.3824023e-02
  6.2136555e-01
 -1.2576351e+00
  1.2228583e+00
 -2.2777892e-03
 -6.7264581e-01
  1.9950818e+00
  9.9608105e-01
  3.6281103e-01
 -1.9135855e-01
  2.9577732e-03
 -7.4109696e-05
 -9.3775592e-04
  3.0067321e-04
  8.9864254e-05
 -9.0154028e-04
  2.2080644e-04
  2.2281862e-04
 -3.3424222e-01
 -2.1128410e-05
 -8.7425399e-01
 -8.0176244e-05
 -3.3595509e-04
  4.8533608e-03
  1.0287762e+00
  9.8280400e-01
  1.4519659e+00
 -4.9022511e-03
 -1.6076268e+00
  3.4482952e-04
 -3.0749675e-04
  4.7580715e-02
  1.0361322e-04
 -6.4334652e-04
  1.8127072e-04
  4.1629575e-02
 -8.0801704e-04
  6.1577952e-01
  2.0257087e-04
  7.3130178e-04
 -3.5191645e-04
 -6.8544655e-04
  2.0232897e-04
  6.9771468e-04
  2.7658972e-01
  1.2002994e-01
 -2.9197698e-03
  1.0439294e-04
  2.4908010e-04
  4.6281083e-04
  1.4289443e-05
 -5.0718698e-04
  1.9901305e-04
 -8.4975531e-05
  8.0734929e-03
  1.2189731e-03
 -1.5453790e-02
  5.1807982e-01
  1.6923177e-04
  7.6010831e-02
  7.0745784e-01
 -2.2033248e-02
  8.0799675e-01
  1.2265120e+00
 -4.6591373e-04
  1.2632454e-04
  5.2661117e-04
 -4.2175947e-04
  6.7008741e-04
  1.2695014e-04
 -6.8920996e-04
 -4.7848676e-04
  3.2629778e-03
 -1.1636952e-03
  3.3823845e-01
 -2.5742501e-04
 -9.4227376e-04
  2.7472407e-04
 -3.5878720e-03
 -1.1414927e-02
 -5.6668071e-08
 -3.0709179e-02
  2.5483539e-02
  1.1808422e-04
  1.9705134e-04
  8.2238694e-05
 -7.9358098e-05
  3.3554046e-05
  3.3959219e-05
 -5.7802713e-03
  2.9913627e-04
  8.8794442e-04
 -1.1212717e-01
  1.0011323e-04
 -1.0153287e-03
 -1.1156962e-03
  7.2396966e-04
  8.2019239e-04
  4.7047055e-01
  4.4093709e-04
  2.2120184e-04
  6.1387896e-06
 -3.7254495e-04
 -1.7474026e-04
 -7.7744498e-04
 -6.9313723e-04
  3.9863665e-04
 -4.4900776e-04
  4.8103652e-04
 -4.9602921e-04
 -3.7482664e-02
  6.2771994e-01
  1.6107088e-01
  1.5017898e-01
 -1.4133134e+00
 -4.7266462e-01
 -1.1022405e-01
  1.6903684e+00
 -5.3454041e-02
 -1.4057872e-03
 -1.5083472e-01
  2.1523838e-03
 -3.4076545e-02
 -1.8896682e-04
  1.6451471e+00
  6.3856732e-04
 -3.5744885e-01
  6.1555541e-01
  1.1939316e+00
 -5.0308263e-01
 -1.1369754e-01
 -3.7843987e-01
  1.3427105e+00
  3.1815541e-01
 -1.0541208e+00
 -2.0586734e+00
  8.7947369e-01
 -5.7184422e-01
 -1.7682838e-03
 -2.9233640e-01
 -1.7528538e-01
 -4.1631360e-02
 -3.6850920e-01
  2.7023094e-02
 -6.4719613e-03
 -4.3380395e-01
 -2.6224967e-02
 -1.5708650e-02
 -1.5116558e+00
  1.0300268e-01
  5.6516224e-01
  2.0502735e-04
  4.1488153e-01
 -1.0654689e-01
  1.4782932e+00
 -1.1983541e-02
  3.1345963e-04
 -1.8845392e-04
  4.2126379e-03
  1.8470915e-05
  9.3754195e-04
  1.2276439e-01
 -3.1458449e-01
 -5.2004460e-02
  8.8760555e-01
 -1.3963218e+00
 -1.2388721e+00
  4.8378816e-01
 -2.1148274e+00
  4.2411277e-01
  1.9825920e+00
  2.5981730e-01
 -6.2979972e-01
  4.0017170e-01
 -7.0284386e-03
  2.0294150e-02
 -1.2964882e-02
 -5.0938539e-03
 -2.9375201e-01
 -7.1293771e-01
  5.9780824e-01
  6.7633599e-01
  5.8464950e-01
  3.1939286e-01
 -1.7267320e-01
  2.4555056e-01
 -2.0094891e-01
  1.8966613e+00
  3.3908778e-01
 -1.0926480e+00
  1.3305451e+00
  2.5960436e-01
 -5.3991103e-01
 -2.2987506e-05
 -2.0279293e-03
  4.8667106e-01
 -9.7882241e-01
 -3.7761688e-01
  4.4780582e-01
  1.2555687e-01
  3.5087141e-01
 -3.0213654e-01
  1.8143637e-02
  6.5241456e-01
  1.4548135e-01
  2.0903997e+00
  2.9878849e-01
  9.4664350e-02
  2.7199469e-03
 -1.0788890e-04
  1.6722491e-01
 -3.1656033e-04
  4.0183806e-01
 -8.3249656e-04
  2.1768462e-02
 -7.8389025e-01
  5.3704107e-01
  5.4674125e-01
  4.5511669e-01
  1.1570500e+00
  1.0438134e-01
 -3.7320846e-01
 -1.8718106e-01
  9.2656106e-01
 -1.3358459e-01
 -6.2687910e-01
 -7.9319276e-02
 -2.6656178e-01
  3.2787442e-01
 -5.5177808e-01
  6.4115715e-01
 -5.3898082e-03
  1.0397021e+00
  5.2182776e-01
  9.0907389e-01
 -7.1985851e-04
  4.1300058e-01
 -7.7313834e-01
 -1.2622726e-04
 -2.1529386e-02
 -7.8423363e-01
  9.6407622e-02
 -4.4854161e-01
 -1.2360322e+00
  7.3448777e-01
 -1.9887188e-01
  4.6308138e-03
  1.8924659e-01
  4.0975904e-01
  3.5786826e-02
  1.4672788e+00
  1.3468586e+00
 -9.1332763e-01
  2.6438439e-01
  1.1862152e-01
  6.9881111e-02
  6.1477767e-05
  6.4037597e-01
  7.4770182e-02
 -3.6749998e-03
  1.5795128e-01
 -8.3480462e-02
  4.8125929e-01
  4.1334089e-02
  7.1200368e-04
  2.9977236e-04
  1.4706596e-03
 -2.8567705e-03
  1.2582738e-02
  3.0407560e-04
  1.4570348e-01
  1.2676506e-01
  2.4488533e-01
  2.6699283e+00
  2.8131670e-01
  1.7614540e+00
 -1.6219777e-01
 -1.7195921e-01
 -7.7964407e-01
 -4.3757558e-02
 -5.5851500e-02
  6.7769461e-03
 -1.2973934e-01
 -7.8672188e-04
 -5.4799592e-01
  3.2861913e-05
  5.4443187e-01
 -6.0036564e-01
 -4.0014926e-01
  1.3043799e+00
  2.5740445e-01
 -2.9282787e-01
  3.5114840e-01
 -2.8654677e-01
 -3.0721697e-01
  1.6674783e-02
  1.1034963e-03
  9.6084321e-01
 -1.7903642e-01
 -8.6075938e-01
 -1.7622930e-01
 -6.1217104e-03
  3.8904688e-01
 -2.9647279e-01
 -5.5567646e-01
 -9.1068798e-01
 -1.4278655e+00
 -1.5616309e-04
  1.0528808e+00
 -4.1078273e-02
 -1.5263136e-02
  2.5068256e-01
 -2.4906165e-04
 -1.6676345e-01
  3.9755777e-02
 -4.9965349e-03
  3.8898632e-01
  1.1452309e-04
 -2.9625569e-04
  3.7466333e-04
  1.2918383e-02
 -1.7042421e-03
 -2.3032376e-01
  2.2615082e-04
  1.3837360e-01
 -3.0929232e-01
 -2.4408761e-01
  1.2387302e-01
 -8.1126297e-01
  6.6414184e-04
  1.2207366e+00
 -1.6469662e+00
  2.0556955e+00
 -3.9033023e-01
 -8.4993631e-01
  1.3658855e+00
 -2.9868612e+00
 -1.5020331e-04
 -5.8140570e-01
 -8.3458030e-01
 -1.4165283e+00
  1.1986724e+00
  3.9558016e-02
  2.6109397e-01
  4.3931719e-02
 -1.8438059e-01
 -3.0939275e-01
  1.2424326e+00
 -1.9667050e-01
 -9.5525521e-01
  1.2904932e-03
  2.8292110e+00
  1.2879607e-01
  5.6441326e-02
  5.2085334e-01
  2.8200883e-01
 -1.9955428e+00
  4.6780896e-01
 -1.7009726e-04
  1.0343690e+00
 -1.0551739e+00
  9.7609651e-01
  1.2625272e+00
 -5.5324256e-01
  1.7682169e-01
  2.5817159e-05
 -1.0170203e+00
 -4.4285184e-01
  5.7390159e-01
 -1.2343102e+00
  1.6521089e-01
 -6.0968196e-01
  7.6936167e-03
  1.2407579e+00
  2.1140139e+00
 -3.5546270e-01
  3.0140397e-01
  7.0856236e-02
 -2.7119252e-01
 -3.5651341e-02
  7.3068851e-01
 -4.3004382e-01
 -1.9784027e-01
 -3.3587679e-01
 -1.2862490e-01
  8.7454307e-01
 -8.2045972e-01
  8.7587774e-02
  4.1121668e-01
  2.1942267e-01
  1.2071467e-01
  1.8063371e-01
 -1.1000132e-01
 -5.8764577e-01
  2.2643514e-01
 -2.5661704e-01
 -1.6534342e-01
 -1.2965740e-01
  2.8826305e-01
 -5.5786544e-01
  7.5947657e-02
 -2.0157368e+00
  8.7459999e-01
 -5.5156970e-01
 -1.8545595e-01
  7.8100675e-01
  6.8214738e-01
  1.2289672e-01
  7.0191654e-03
 -4.1071030e-01
 -2.0835117e-01
 -7.9111524e-02
  6.3579649e-02
 -9.7925261e-02
 -1.3218799e-01
  4.3669008e-02
 -5.0645322e-01
 -2.6051930e-01
  1.0786241e-01
 -1.3618720e-01
 -1.4088485e-01
  2.0973398e-01
 -8.8712597e-01
 -7.2189808e-01
 -1.5205709e+00
 -4.7433990e-01
  4.3800383e+00
  1.1770364e+00
  9.0274662e-02
  2.6329455e+00
 -7.8387982e-01
  1.5689881e+00
 -9.5709875e-02
  8.3964592e-01
 -1.3657577e+00
  1.2773941e+00
 -1.4975975e+00
  1.9078360e+00
  1.6637272e-01
 -1.1288698e+00
 -1.1641802e-03
 -1.6823560e+00
  1.3832530e+00
 -4.7023225e-01
 -1.4066418e+00
  2.0587339e+00
  9.3856913e-01
 -6.3436693e-01
 -8.6823004e-01
 -2.5097554e+00
 -2.1028450e+00
  5.2022994e-01
 -1.5709453e+00
 -2.0108869e+00
  5.4520988e-01
  1.9393778e-01
  1.9743775e-01
  1.5536500e+00
 -1.4416108e+00
 -1.4781102e+00
 -2.8669956e-01
 -2.0508914e+00
  9.9925965e-02
  5.9834808e-01
 -1.5052778e+00
  7.6633894e-01
  1.6550677e+00
 -1.2723947e-01
  1.7932512e+00
  1.6304691e-01
  1.9830482e+00
 -1.1020447e+00
 -4.0713081e-01
 -1.0735214e-01
  9.3725085e-01
  3.8722721e-01
  1.1806141e+00
  9.8366898e-01
 -2.7151009e-01
  2.7310630e-02
  1.5217335e+00
 -1.0595511e+00
  1.0645990e+00
  1.9177042e+00
  3.8887507e-01
  1.5509102e+00
  7.2437382e-01
 -4.5549491e-01
 -8.7213933e-01
  1.1666456e+00
  9.0884358e-01
  1.5335453e+00
  2.8691041e-01
  3.9963776e-01
 -2.6418014e+00
 -5.7310760e-01
 -7.1535110e-01
  5.0477058e-01
 -5.0461251e-01
 -1.7273121e+00
  5.8780533e-01
  2.4191603e-01
  3.4104520e-01
 -1.9181758e+00
  5.1677716e-01
  2.6832912e+00
 -9.6567765e-02
  1.8697590e+00
  2.4585503e-01
  2.1327238e-01
  3.5903148e-02
 -3.3975837e-01
 -1.7085720e+00
  1.6750604e+00
 -1.2688777e+00
  2.2231343e-01
  1.6324331e-01
  7.5845748e-01
 -1.0174074e+00
  1.9228117e-01
  1.3870413e+00
  6.4867131e-02
  1.3932270e-01
  4.1744903e-02
 -4.5764175e-01
  8.0961627e-01
 -1.2504296e+00
 -1.6199594e+00
 -4.4046530e-01
  2.5686672e+00
 -1.4968231e-01
  1.1517136e-01
 -8.6702645e-01
  2.0564013e+00
 -3.1172448e-01
 -1.4971479e+00
  3.9423588e-01
  2.0343804e+00
  2.2362351e+00
  7.5945836e-01
  9.9361366e-01
 -1.0059054e-01
 -1.5144571e+00
 -1.4361700e+00
  2.8472024e-01
  3.3475444e-02
 -1.7694770e+00
 -1.6925930e+00
 -3.1461694e+00
 -3.5713274e+00
  1.3876045e+00
 -9.2933011e-01
 -4.9669847e-01
  7.3794812e-01
 -7.3555458e-01
  3.2513317e-01
 -5.4659516e-01
 -3.3748862e-01
 -7.7546597e-01
 -2.5808951e-01
  7.3892492e-01
  9.2235707e-02
 -8.0333793e-01
  6.0184699e-01
 -1.2813500e+00
 -5.0381780e-01
  1.4210258e+00
 -1.1173307e-01
 -1.0603625e+00
 -9.0726429e-01
  1.0878979e+00
  2.0309091e+00
  8.4450030e-01
 -2.2191992e+00
  1.7184525e+00
 -1.2768289e+00
  1.7994926e+00
 -4.8355141e-01
  4.3829184e-02
  1.1562362e+00
  6.2593657e-01
 -3.7409158e+00
  9.5408881e-01
  6.0626692e-01
 -4.9760038e-01
 -1.6757821e+00
 -2.3959911e+00
 -2.6135090e-01
 -4.2559254e-01
 -4.1354412e-01
  8.3995622e-01
 -6.9742280e-01
 -1.8234454e+00
  7.9191041e-01
 -4.8497519e-01
 -4.9283457e-01
 -5.9225756e-01
  1.4306885e-01
  5.0836241e-01
 -5.8046196e-02
  2.2817194e+00
 -3.2684226e+00
  1.3016785e+00
  1.7597564e+00
 -4.8652884e-01
  6.1633265e-01
 -7.1082932e-01
  7.7597159e-01
  4.0893760e+00
  1.2143528e+00
  1.2407209e+00
 -1.8101740e-01
  1.5588431e+00
 -6.0605842e-01
  1.0333315e+00
 -1.1501114e+00
 -1.5472214e-01
 -3.0613577e+00
 -6.7894143e-01
 -5.4152131e-01
 -1.7465961e+00
  2.3192093e+00
 -5.7160074e-01
 -1.1904593e+00
  3.5812250e-01
 -1.0106760e+00
 -2.0588563e-01
  9.6941553e-02
  5.5072731e-01
  6.1383384e-01
 -2.4933549e-02
  5.8727133e-01
 -7.4542753e-02
 -7.0935345e-01
  9.0462118e-01
 -1.3346927e+00
  4.9353713e-01
  3.3475880e-02
  1.0465034e+00
 -3.4200686e-01
  6.3808191e-01
 -1.6671738e-01
  9.6579218e-01
 -2.4604362e-01
 -1.5213823e+00
 -1.2635022e+00
  1.6274394e+00
  3.8386443e-01
  8.9886142e-03
  1.2559091e-01
 -1.0456649e+00
  1.4537219e+00
 -6.4473468e-01
  5.4210538e-01
 -5.6749898e-01
 -2.2246446e-01
  2.3779323e+00
  5.9301341e-01
 -5.2284199e-01
  1.2551193e+00
  9.5957375e-01
 -2.1353529e-01
 -4.7492355e-01
  5.9998494e-01
  5.5681640e-01
  5.9611511e-01
 -1.7178191e+00
 -8.7140125e-01
 -8.9872050e-01
 -1.4720045e+00
 -2.1298506e+00
 -1.6450789e+00
 -8.5485494e-01
  3.4333482e-01
  3.0962470e-01
  1.2512724e+00
 -1.4012392e+00
 -1.9038244e+00
 -5.5938143e-01
  1.0120287e+00
 -2.3265512e+00
  9.0025946e-02
  1.4383487e-01
 -2.9140529e-01
  3.7540519e-01
 -3.3181024e+00
  1.0657023e-01
  2.5104308e+00
 -5.5553305e-01
  8.8972330e-01
 -5.0289589e-01
  1.4216814e+00
 -1.8676102e+00
  6.7640427e-03
  8.7994315e-02
 -1.1820396e+00
  1.1381726e+00
 -2.5822354e-02
 -1.0371661e+00
  3.3478251e+00
  1.9199601e+00
  2.8909564e+00
 -1.7305554e+00
  1.4574590e-01
  1.3820024e+00
  1.2085855e+00
  1.0128924e+00
 -1.6733529e-01
 -1.5716646e+00
 -1.8896753e+00
  3.0229282e-01
 -4.6830764e-01
  1.3437341e+00
  5.6065142e-01
  1.7642192e+00
 -2.3207359e+00
  2.2261267e+00
  1.7540868e-01
 -1.5894356e-01
 -4.4502577e-01
 -1.5755504e-01
 -5.1462942e-01
  3.8330746e-01
 -8.7456256e-02
 -2.5862962e-01
 -8.9825040e-01
 -6.2232971e-01
  2.1753369e-01
 -1.4001008e+00
 -9.9930477e-01
  1.4629595e+00
  1.2207493e+00
 -9.1953939e-03
 -1.1811471e+00
 -1.1353527e+00
 -2.0194709e-01
 -1.9197693e+00
  1.3038415e-01
  4.1297632e-01
  4.3901660e-02
  3.3361050e-01
 -1.4365795e+00
 -5.3105354e-01
 -1.8543299e+00
 -1.2083950e-01
  1.9358760e-01
  5.8854717e-01
  2.6762815e+00
  9.2041045e-02
  4.7566372e-01
  4.1715305e-02
 -9.5101839e-01
 -6.9785261e-01
 -3.1390781e+00
 -8.9205718e-01
 -1.6635100e+00
 -2.2601010e-01
 -2.0318947e+00
  9.5134979e-01
 -6.0010195e-02
  7.4790788e-01
  1.0631973e+00
 -1.1646405e+00
  1.9739938e+00
  2.5091565e-01
  2.6427603e-01
 -2.5462358e+00
  2.4020420e-01
 -1.4559358e+00
  1.3610681e+00
 -3.9435109e-01
  1.9196591e+00
 -1.7413394e+00
  2.2335339e+00
  2.9195652e+00
  3.8899297e-01
  1.7490988e+00
 -1.3696722e+00
  1.2867743e+00
  1.9186090e-01
  1.0463113e+00
 -1.6235708e+00
  1.0005157e+00
 -1.1024767e+00
 -3.3843118e-01
 -1.4204478e+00
 -1.7578952e-02
  1.1288860e-01
 -5.2661675e-01
 -2.4024355e-01
  7.9344422e-01
  9.7853792e-01
 -1.3532076e+00
  1.5307068e+00
  5.9679258e-01
 -1.7990707e-01
 -2.7439082e+00
  3.0740498e-02
 -4.7760260e-01
 -5.8174223e-01
  6.5035111e-01
 -1.7533853e+00
 -9.8575306e-01
  1.2139545e-01
  3.5690522e-01
 -7.6695371e-01
  2.8860300e+00
 -1.7182891e+00
 -4.5695227e-01
  3.3968527e+00
  4.0947112e-01
  9.3858212e-01
  9.3030530e-01
  1.3006452e+00
 -9.1890648e-02
 -5.2832969e-02
  3.1082246e-01
  1.9594567e+00
  2.5242403e+00
 -6.7738277e-01
 -8.0050981e-01
 -1.7286390e+00
 -9.0809655e-01
  5.8820134e-01
 -7.0977294e-01
  1.8533775e-01
 -1.0339743e+00
 -7.9787070e-01
 -5.9488279e-01
  1.9138981e+00
 -3.4534001e-01
 -1.9104702e+00
  3.8004810e-01
 -5.4914409e-01
  4.0181866e-01
 -5.8437664e-02
  1.3094567e-01
 -2.1135545e-01
 -2.5182942e-02
 -8.6277926e-01
 -3.1771493e-01
  1.0096388e+00
 -1.3496680e+00
  5.2337420e-01
  6.7636037e-01
  6.0573691e-01
  1.0067914e+00
  3.6641383e-01
 -8.9993393e-01
 -1.0590954e+00
 -1.6140831e+00
  9.4420083e-02
 -6.0338116e-01
 -1.0040669e-01
  1.0781243e+00
  1.0842245e+00
 -3.6508472e+00
 -1.2188405e+00
 -2.0658300e+00
  1.6366645e+00
 -8.1717569e-01
 -1.9674773e+00
 -2.4417775e+00
  1.8581542e+00
 -1.2232941e-02
  2.3621371e+00
  5.5244403e-05
 -2.1117479e-01
  1.5206204e-01
 -7.1595705e-01
  5.5389818e-02
  3.0022197e+00
  2.3350359e-01
  2.1120360e+00
  2.2927873e-01
  3.0717313e+00
  1.0793550e+00
 -1.5851647e-01
  1.5718341e-01
 -2.2083001e+00
 -5.3495926e-01
  5.9390599e-01
 -8.9896631e-01
 -9.3540537e-01
  7.9111987e-01
  8.7271684e-01
  1.5367411e-02
  1.0314484e+00
 -2.9469477e-02
  6.3227648e-01
 -1.3874739e+00
  1.3568809e+00
 -1.1258500e+00
  1.8028713e+00
 -4.1779858e-01
 -1.2220365e+00
  7.0006594e-02
 -1.0511326e+00
  1.9696468e+00
 -1.0306748e+00
  1.5477802e+00
 -2.3168650e+00
 -6.8630916e-01
  3.1786604e+00
  2.1067698e+00
  3.9441907e-01
 -1.6638674e+00
  5.5440497e-01
 -2.8683215e-01
 -1.4089378e+00
  3.2551387e-01
 -2.0066385e+00
 -1.5635657e+00
 -2.3006773e+00
  4.2188268e-02
 -3.7185095e-02
 -1.0960897e+00
  1.4560924e+00
  2.3313212e-01
  4.4531134e-01
  3.6969468e-01
  1.5280902e+00
 -1.0212650e+00
  5.6590331e-01
  1.0968535e+00
  8.0840826e-01
 -5.4591125e-01
 -1.0120740e+00
  2.5726327e-01
  1.6501424e+00
 -1.1116758e-01
 -9.3763882e-01
 -1.0932741e+00
  1.3795605e+00
  4.4644147e-02
  1.3925149e-01
 -6.4449602e-01
 -1.1189283e+00
 -5.0290328e-01
 -4.4322255e-01
  2.0800246e-02
 -1.2305878e+00
 -5.4699409e-01
 -1.5727994e-01
  1.9541307e-01
  5.0222433e-01
 -2.2930934e-01
  5.4649585e-01
 -4.5586771e-01
 -5.2229148e-01
 -7.6918340e-01
  2.4519577e+00
  1.9955134e+00
 -1.3408341e+00
 -2.8039103e+00
 -6.5728843e-01
  4.4543770e-01
  3.6739740e-01
 -5.8855426e-01
 -1.0244994e+00
  4.2927748e-01
  3.3962071e-01
  1.1277584e-01
  2.6852767e+00
 -7.6554626e-01
  7.8551816e-03
  1.5986408e+00
 -1.5242550e-01
  3.7890664e-01
 -4.5704308e-01
 -7.4582231e-01
 -3.0071110e-01
 -2.3458272e-01
  2.4729653e-01
 -1.5346472e+00
 -1.8353537e+00
 -5.9053314e-01
 -1.2591418e+00
 -1.8961568e+00
  1.0056303e+00
 -9.4312114e-01
 -1.0487767e+00
 -2.4919337e-01
  3.0651476e-02
  5.8136451e-01
  1.1806242e+00
  1.5863687e+00
  6.3649935e-01
  2.8047487e-01
  9.5919907e-01
  1.6733756e+00
  7.1607357e-01
  4.9249861e-01
 -8.9419287e-01
  1.2081645e+00
 -5.8579063e-01
  3.3627161e-01
 -3.0320555e-01
  3.0283564e-01
 -4.9074993e-01
  2.6189715e-01
  1.3228071e+00
  4.1183066e-01
  9.9579382e-01
 -1.9063531e+00
  7.6847249e-01
 -1.8515011e+00
 -2.0998117e-01
 -1.8621547e+00
  1.9685879e+00
  1.2339324e+00
  1.5697747e+00
  3.0837892e-02
  8.6677969e-01
  6.7144114e-01
  5.2739739e-01
  5.4334265e-01
 -1.4122585e+00
  3.0346627e+00
 -6.5874970e-01
  4.0053433e-01
 -2.5881691e+00
  3.3020324e-01
 -1.0688733e+00
  1.1806999e+00
  1.3351226e+00
  7.4273986e-01
 -2.2373904e-01
  1.8245288e+00
 -3.3781728e-01
 -1.4293242e+00
  1.9243867e+00
  8.3090383e-01
 -3.1529847e-01
 -9.7762531e-01
  7.1886116e-01
 -6.9735664e-01
 -1.0668364e+00
 -1.6963631e+00
  8.6183268e-01
 -6.8614262e-01
  1.1010658e+00
  5.0229982e-02
 -1.0802953e+00
 -1.6879815e-01
 -5.0283748e-01
 -3.7300125e-02
 -3.0958900e-01
 -1.5127034e-01
 -4.5379698e-01
  2.8419214e-01
 -7.6687592e-01
  4.0202427e-01
 -5.5684543e-01
  4.6843147e-01
  6.3971943e-01
 -6.7740142e-01
  2.0790081e-01
  9.6685833e-01
  2.0735548e+00
  1.5363113e+00
 -2.6908543e+00
 -7.6776570e-01
  6.8911988e-01
  6.2656486e-01
  3.6964527e-01
  3.3212796e-01
 -7.0525205e-01
 -8.4906393e-01
  3.3087769e-01
  4.3597475e-02
